{"learner":{"attributes":{"scikit_learn":"{\"_estimator_type\": \"regressor\"}"},"feature_names":[],"feature_types":[],"gradient_booster":{"model":{"gbtree_model_param":{"num_parallel_tree":"1","num_trees":"200"},"iteration_indptr":[0,1,2,3,4,5,6,7,8,9,10,11,12,13,14,15,16,17,18,19,20,21,22,23,24,25,26,27,28,29,30,31,32,33,34,35,36,37,38,39,40,41,42,43,44,45,46,47,48,49,50,51,52,53,54,55,56,57,58,59,60,61,62,63,64,65,66,67,68,69,70,71,72,73,74,75,76,77,78,79,80,81,82,83,84,85,86,87,88,89,90,91,92,93,94,95,96,97,98,99,100,101,102,103,104,105,106,107,108,109,110,111,112,113,114,115,116,117,118,119,120,121,122,123,124,125,126,127,128,129,130,131,132,133,134,135,136,137,138,139,140,141,142,143,144,145,146,147,148,149,150,151,152,153,154,155,156,157,158,159,160,161,162,163,164,165,166,167,168,169,170,171,172,173,174,175,176,177,178,179,180,181,182,183,184,185,186,187,188,189,190,191,192,193,194,195,196,197,198,199,200],"tree_info":[0,0,0,0,0,0,0,0,0,0,0,0,0,0,0,0,0,0,0,0,0,0,0,0,0,0,0,0,0,0,0,0,0,0,0,0,0,0,0,0,0,0,0,0,0,0,0,0,0,0,0,0,0,0,0,0,0,0,0,0,0,0,0,0,0,0,0,0,0,0,0,0,0,0,0,0,0,0,0,0,0,0,0,0,0,0,0,0,0,0,0,0,0,0,0,0,0,0,0,0,0,0,0,0,0,0,0,0,0,0,0,0,0,0,0,0,0,0,0,0,0,0,0,0,0,0,0,0,0,0,0,0,0,0,0,0,0,0,0,0,0,0,0,0,0,0,0,0,0,0,0,0,0,0,0,0,0,0,0,0,0,0,0,0,0,0,0,0,0,0,0,0,0,0,0,0,0,0,0,0,0,0,0,0,0,0,0,0,0,0,0,0,0,0,0,0,0,0,0,0],"trees":[{"base_weights":[-5.7408035E-2,-1.1332096E-1,1.6977772E0,1.0476842E-1,8.055493E-2,-1.5178578E0,1.4343429E0,-3.5789035E-2,-7.269654E-3,2.7682645E-2,-3.1017162E-2],"categories":[],"categories_nodes":[],"categories_segments":[],"categories_sizes":[],"default_left":[0,0,0,0,0,0,0,0,0,0,0],"id":0,"left_children":[1,-1,3,-1,5,7,9,-1,-1,-1,-1],"loss_changes":[1.3131527E3,0E0,7.220963E2,0E0,1.3201184E2,2.8929764E1,7.6478615E1,0E0,0E0,0E0,0E0],"parents":[2147483647,0,0,2,2,4,4,5,5,6,6],"right_children":[2,-1,4,-1,6,8,10,-1,-1,-1,-1],"split_conditions":[5.4790234E1,-1.1332096E-1,2.7526374E0,1.0476842E-1,4.000842E0,7.597414E1,1.1207113E2,-3.5789035E-2,-7.269654E-3,2.7682645E-2,-3.1017162E-2],"split_indices":[26,0,22,0,19,26,3,0,0,0,0],"split_type":[0,0,0,0,0,0,0,0,0,0,0],"sum_hessian":[8.9E1,1.5E1,7.4E1,1.5E1,5.9E1,2.7E1,3.2E1,1.2E1,1.5E1,2.8E1,4E0],"tree_param":{"num_deleted":"0","num_feature":"27","num_nodes":"11","size_leaf_vector":"1"}},{"base_weights":[3.3484253E-1,5.2632318E0,-2.3993523E0,1.0296469E-1,4.0483527E-2,-1.1014614E-1,-6.755359E-1,1.4669068E-2,-1.7124038E0,-3.5561293E-2,-1.0550313E-2],"categories":[],"categories_nodes":[],"categories_segments":[],"categories_sizes":[],"default_left":[0,0,0,0,0,0,0,0,0,0,0],"id":1,"left_children":[1,3,5,-1,-1,-1,7,-1,9,-1,-1],"loss_changes":[1.1714935E3,1.3929858E2,5.399674E2,0E0,0E0,0E0,8.156134E1,0E0,2.1359802E1,0E0,0E0],"parents":[2147483647,0,0,1,1,2,2,6,6,8,8],"right_children":[2,4,6,-1,-1,-1,8,-1,10,-1,-1],"split_conditions":[8.6E1,2.4591667E1,5.4790234E1,1.0296469E-1,4.0483527E-2,-1.1014614E-1,5.9742374E1,1.4669068E-2,8.88E1,-3.5561293E-2,-1.0550313E-2],"split_indices":[24,0,26,0,0,0,26,0,24,0,0],"split_type":[0,0,0,0,0,0,0,0,0,0,0],"sum_hessian":[8.5E1,3E1,5.5E1,1.4E1,1.6E1,1.2E1,4.3E1,1.6E1,2.7E1,1.3E1,1.4E1],"tree_param":{"num_deleted":"0","num_feature":"27","num_nodes":"11","size_leaf_vector":"1"}},{"base_weights":[2.720743E-1,5.43298E0,-2.6818733E0,1.0250386E-1,3.977988E-2,-4.041667E0,4.1333994E-1,-1.2255366E0,-5.9474306E0,1.435947E-2,-2.8395299E-2,-1.030112E-2,-3.0236077E-2,-3.402212E-2,-1.094022E-1],"categories":[],"categories_nodes":[],"categories_segments":[],"categories_sizes":[],"default_left":[0,0,0,0,0,0,0,0,0,0,0,0,0,0,0],"id":2,"left_children":[1,3,5,-1,-1,7,9,11,13,-1,-1,-1,-1,-1,-1],"loss_changes":[1.3408894E3,1.4455548E2,2.3736633E2,0E0,0E0,2.0201941E2,3.0665634E1,6.2452774E0,1.431134E2,0E0,0E0,0E0,0E0,0E0,0E0],"parents":[2147483647,0,0,1,1,2,2,5,5,6,6,7,7,8,8],"right_children":[2,4,6,-1,-1,8,10,12,14,-1,-1,-1,-1,-1,-1],"split_conditions":[8.6E1,2.4591667E1,4.042719E0,1.0250386E-1,3.977988E-2,3.4399667E0,4.728017E0,4.9557526E2,8.88E1,1.435947E-2,-2.8395299E-2,-1.030112E-2,-3.0236077E-2,-3.402212E-2,-1.094022E-1],"split_indices":[24,0,19,0,0,22,9,4,24,0,0,0,0,0,0],"split_type":[0,0,0,0,0,0,0,0,0,0,0,0,0,0,0],"sum_hessian":[8.6E1,3.1E1,5.5E1,1.6E1,1.5E1,3.8E1,1.7E1,1.6E1,2.2E1,1.4E1,3E0,1.2E1,4E0,9E0,1.3E1],"tree_param":{"num_deleted":"0","num_feature":"27","num_nodes":"15","size_leaf_vector":"1"}},{"base_weights":[6.4106216E-3,5.522177E0,-2.7515872E0,1.0078844E-1,3.8709555E-2,-1.08565986E-1,-8.352944E-1,1.4176087E-2,-1.807919E0,-3.5047475E-2,-1.01500135E-2],"categories":[],"categories_nodes":[],"categories_segments":[],"categories_sizes":[],"default_left":[0,0,0,0,0,0,0,0,0,0,0],"id":3,"left_children":[1,3,5,-1,-1,-1,7,-1,9,-1,-1],"loss_changes":[1.27783E3,1.18170044E2,5.494851E2,0E0,0E0,0E0,7.8314026E1,0E0,2.0587753E1,0E0,0E0],"parents":[2147483647,0,0,1,1,2,2,6,6,8,8],"right_children":[2,4,6,-1,-1,-1,8,-1,10,-1,-1],"split_conditions":[8.6E1,2.4591667E1,5.4790234E1,1.0078844E-1,3.8709555E-2,-1.08565986E-1,5.9742374E1,1.4176087E-2,8.88E1,-3.5047475E-2,-1.01500135E-2],"split_indices":[24,0,26,0,0,0,26,0,24,0,0],"split_type":[0,0,0,0,0,0,0,0,0,0,0],"sum_hessian":[8.2E1,2.7E1,5.5E1,1.5E1,1.2E1,1.4E1,4.1E1,1.4E1,2.7E1,1.5E1,1.2E1],"tree_param":{"num_deleted":"0","num_feature":"27","num_nodes":"11","size_leaf_vector":"1"}},{"base_weights":[-1.1727826E-1,4.9737797E0,-2.7485619E0,9.8547876E-2,3.8951267E-2,-1.0765788E-1,-7.79956E-1,1.3995043E-2,-1.6854835E0,-3.445465E-2,-1.0136177E-2],"categories":[],"categories_nodes":[],"categories_segments":[],"categories_sizes":[],"default_left":[0,0,0,0,0,0,0,0,0,0,0],"id":4,"left_children":[1,3,5,-1,-1,-1,7,-1,9,-1,-1],"loss_changes":[1.1791241E3,1.21682434E2,5.78329E2,0E0,0E0,0E0,7.191611E1,0E0,2.0940575E1,0E0,0E0],"parents":[2147483647,0,0,1,1,2,2,6,6,8,8],"right_children":[2,4,6,-1,-1,-1,8,-1,10,-1,-1],"split_conditions":[8.6E1,2.4591667E1,5.4790234E1,9.8547876E-2,3.8951267E-2,-1.0765788E-1,5.9742374E1,1.3995043E-2,8.88E1,-3.445465E-2,-1.0136177E-2],"split_indices":[24,0,26,0,0,0,26,0,24,0,0],"split_type":[0,0,0,0,0,0,0,0,0,0,0],"sum_hessian":[8.6E1,2.9E1,5.7E1,1.3E1,1.6E1,1.5E1,4.2E1,1.4E1,2.8E1,1.4E1,1.4E1],"tree_param":{"num_deleted":"0","num_feature":"27","num_nodes":"11","size_leaf_vector":"1"}},{"base_weights":[6.579821E-2,-1.0627676E-1,1.8550923E0,4.9989076E0,-6.2774193E-1,9.779463E-2,3.84496E-2,1.3816312E-2,-1.5482566E0,-3.3418197E-2,-9.988542E-3],"categories":[],"categories_nodes":[],"categories_segments":[],"categories_sizes":[],"default_left":[0,0,0,0,0,0,0,0,0,0,0],"id":5,"left_children":[1,-1,3,5,7,-1,-1,-1,9,-1,-1],"loss_changes":[1.205618E3,0E0,5.4952814E2,1.25667175E2,6.1853554E1,0E0,0E0,0E0,1.7235611E1,0E0,0E0],"parents":[2147483647,0,0,2,2,3,3,4,4,8,8],"right_children":[2,-1,4,6,8,-1,-1,-1,10,-1,-1],"split_conditions":[5.4790234E1,-1.0627676E-1,8.6E1,3.007611E1,5.9742374E1,9.779463E-2,3.84496E-2,1.3816312E-2,8.88E1,-3.3418197E-2,-9.988542E-3],"split_indices":[26,0,24,1,26,0,0,0,24,0,0],"split_type":[0,0,0,0,0,0,0,0,0,0,0],"sum_hessian":[8.4E1,1.5E1,6.9E1,3E1,3.9E1,1.4E1,1.6E1,1.4E1,2.5E1,1.1E1,1.4E1],"tree_param":{"num_deleted":"0","num_feature":"27","num_nodes":"11","size_leaf_vector":"1"}},{"base_weights":[9.022098E-2,5.156822E0,-2.4030292E0,9.707813E-2,3.7582308E-2,-1.0444707E-1,-6.8283594E-1,1.37544675E-2,-1.5864769E0,-3.3591244E-2,-9.948417E-3],"categories":[],"categories_nodes":[],"categories_segments":[],"categories_sizes":[],"default_left":[0,0,0,0,0,0,0,0,0,0,0],"id":6,"left_children":[1,3,5,-1,-1,-1,7,-1,9,-1,-1],"loss_changes":[1.1492993E3,1.2061536E2,5.435536E2,0E0,0E0,0E0,7.3285164E1,0E0,2.1349876E1,0E0,0E0],"parents":[2147483647,0,0,1,1,2,2,6,6,8,8],"right_children":[2,4,6,-1,-1,-1,8,-1,10,-1,-1],"split_conditions":[8.6E1,2.4591667E1,5.4790234E1,9.707813E-2,3.7582308E-2,-1.0444707E-1,5.9742374E1,1.37544675E-2,8.88E1,-3.3591244E-2,-9.948417E-3],"split_indices":[24,0,26,0,0,0,26,0,24,0,0],"split_type":[0,0,0,0,0,0,0,0,0,0,0],"sum_hessian":[8.9E1,2.9E1,6E1,1.5E1,1.4E1,1.4E1,4.6E1,1.6E1,3E1,1.4E1,1.6E1],"tree_param":{"num_deleted":"0","num_feature":"27","num_nodes":"11","size_leaf_vector":"1"}},{"base_weights":[6.641674E-2,4.9838214E0,-2.2989974E0,9.438337E-2,3.6768183E-2,-1.01979986E-1,-5.6664145E-1,1.3577329E-2,-1.647212E0,-3.2797556E-2,-9.550343E-3],"categories":[],"categories_nodes":[],"categories_segments":[],"categories_sizes":[],"default_left":[0,0,0,0,0,0,0,0,0,0,0],"id":7,"left_children":[1,3,5,-1,-1,-1,7,-1,9,-1,-1],"loss_changes":[8.954668E2,9.134503E1,4.600155E2,0E0,0E0,0E0,6.901197E1,0E0,1.5404564E1,0E0,0E0],"parents":[2147483647,0,0,1,1,2,2,6,6,8,8],"right_children":[2,4,6,-1,-1,-1,8,-1,10,-1,-1],"split_conditions":[8.6E1,2.4591667E1,5.4790234E1,9.438337E-2,3.6768183E-2,-1.01979986E-1,5.9742374E1,1.3577329E-2,8.88E1,-3.2797556E-2,-9.550343E-3],"split_indices":[24,0,26,0,0,0,26,0,24,0,0],"split_type":[0,0,0,0,0,0,0,0,0,0,0],"sum_hessian":[7.5E1,2.4E1,5.1E1,1.2E1,1.2E1,1.2E1,3.9E1,1.6E1,2.3E1,1.2E1,1.1E1],"tree_param":{"num_deleted":"0","num_feature":"27","num_nodes":"11","size_leaf_vector":"1"}},{"base_weights":[-7.465531E-2,4.93418E0,-2.3655689E0,9.373622E-2,3.6479987E-2,-3.8035524E0,6.286768E-1,-5.272639E0,-9.560109E-3,1.3449012E-2,-2.3341822E-2,-3.237826E-2,-1.0181063E-1],"categories":[],"categories_nodes":[],"categories_segments":[],"categories_sizes":[],"default_left":[0,0,0,0,0,0,0,0,0,0,0,0,0],"id":8,"left_children":[1,3,5,-1,-1,7,9,11,-1,-1,-1,-1,-1],"loss_changes":[9.870309E2,9.907379E1,2.5642606E2,0E0,0E0,1.7877222E2,1.8211262E1,1.5248865E2,0E0,0E0,0E0,0E0,0E0],"parents":[2147483647,0,0,1,1,2,2,5,5,6,6,7,7],"right_children":[2,4,6,-1,-1,8,10,12,-1,-1,-1,-1,-1],"split_conditions":[8.6E1,3.7208435E1,1.7612916E3,9.373622E-2,3.6479987E-2,1E2,1.1207113E2,8.88E1,-9.560109E-3,1.3449012E-2,-2.3341822E-2,-3.237826E-2,-1.0181063E-1],"split_indices":[24,1,4,0,0,24,3,24,0,0,0,0,0],"split_type":[0,0,0,0,0,0,0,0,0,0,0,0,0],"sum_hessian":[8.4E1,2.6E1,5.8E1,1.3E1,1.3E1,3.9E1,1.9E1,2.6E1,1.3E1,1.7E1,2E0,1.2E1,1.4E1],"tree_param":{"num_deleted":"0","num_feature":"27","num_nodes":"13","size_leaf_vector":"1"}},{"base_weights":[-3.7316802E-1,-1.0170688E-1,1.5289438E0,4.7790747E0,-5.1944554E-1,9.2007145E-2,3.601645E-2,1.3229269E-2,-1.4712207E0,-3.175756E-2,-9.489839E-3],"categories":[],"categories_nodes":[],"categories_segments":[],"categories_sizes":[],"default_left":[0,0,0,0,0,0,0,0,0,0,0],"id":9,"left_children":[1,-1,3,5,7,-1,-1,-1,9,-1,-1],"loss_changes":[1.1392886E3,0E0,4.4853717E2,9.0858765E1,6.0832996E1,0E0,0E0,0E0,1.556921E1,0E0,0E0],"parents":[2147483647,0,0,2,2,3,3,4,4,8,8],"right_children":[2,-1,4,6,8,-1,-1,-1,10,-1,-1],"split_conditions":[5.4790234E1,-1.0170688E-1,8.6E1,2.4591667E1,5.9742374E1,9.2007145E-2,3.601645E-2,1.3229269E-2,8.88E1,-3.175756E-2,-9.489839E-3],"split_indices":[26,0,24,0,26,0,0,0,24,0,0],"split_type":[0,0,0,0,0,0,0,0,0,0,0],"sum_hessian":[8.3E1,1.7E1,6.6E1,2.5E1,4.1E1,1.2E1,1.3E1,1.6E1,2.5E1,1.1E1,1.4E1],"tree_param":{"num_deleted":"0","num_feature":"27","num_nodes":"11","size_leaf_vector":"1"}},{"base_weights":[-1.00044005E-1,-9.965425E-2,1.5199506E0,4.6721454E0,-6.412958E-1,9.137605E-2,3.5926007E-2,1.3007875E-2,-1.5280399E0,-3.178168E-2,-9.368648E-3],"categories":[],"categories_nodes":[],"categories_segments":[],"categories_sizes":[],"default_left":[0,0,0,0,0,0,0,0,0,0,0],"id":10,"left_children":[1,-1,3,5,7,-1,-1,-1,9,-1,-1],"loss_changes":[1.01172797E3,0E0,4.8669577E2,1.0150189E2,6.215103E1,0E0,0E0,0E0,1.7172081E1,0E0,0E0],"parents":[2147483647,0,0,2,2,3,3,4,4,8,8],"right_children":[2,-1,4,6,8,-1,-1,-1,10,-1,-1],"split_conditions":[5.4790234E1,-9.965425E-2,8.6E1,2.4591667E1,5.9742374E1,9.137605E-2,3.5926007E-2,1.3007875E-2,8.88E1,-3.178168E-2,-9.368648E-3],"split_indices":[26,0,24,0,26,0,0,0,24,0,0],"split_type":[0,0,0,0,0,0,0,0,0,0,0],"sum_hessian":[8.5E1,1.5E1,7E1,2.8E1,4.2E1,1.3E1,1.5E1,1.5E1,2.7E1,1.3E1,1.4E1],"tree_param":{"num_deleted":"0","num_feature":"27","num_nodes":"11","size_leaf_vector":"1"}},{"base_weights":[3.6964198E-3,4.632774E0,-2.5139368E0,9.066929E-2,3.560044E-2,-3.8338342E0,5.5883163E-1,-1.1698265E0,-5.7520213E0,1.28409965E-2,-2.2602873E-2,-2.8172119E-2,-9.16234E-3,-2.9542191E-2,-9.83758E-2],"categories":[],"categories_nodes":[],"categories_segments":[],"categories_sizes":[],"default_left":[0,0,0,0,0,0,0,0,0,0,0,0,0,0,0],"id":11,"left_children":[1,3,5,-1,-1,7,9,11,13,-1,-1,-1,-1,-1,-1],"loss_changes":[1.0255721E3,1.0826276E2,2.3331961E2,0E0,0E0,1.976737E2,1.6653032E1,6.6261063E0,1.0324225E2,0E0,0E0,0E0,0E0,0E0,0E0],"parents":[2147483647,0,0,1,1,2,2,5,5,6,6,7,7,8,8],"right_children":[2,4,6,-1,-1,8,10,12,14,-1,-1,-1,-1,-1,-1],"split_conditions":[8.6E1,2.4591667E1,4.042719E0,9.066929E-2,3.560044E-2,3.4399667E0,1.1207113E2,8.88E1,8.88E1,1.28409965E-2,-2.2602873E-2,-2.8172119E-2,-9.16234E-3,-2.9542191E-2,-9.83758E-2],"split_indices":[24,0,19,0,0,22,3,24,24,0,0,0,0,0,0],"split_type":[0,0,0,0,0,0,0,0,0,0,0,0,0,0,0],"sum_hessian":[8.6E1,3E1,5.6E1,1.4E1,1.6E1,3.9E1,1.7E1,1.7E1,2.2E1,1.5E1,2E0,5E0,1.2E1,7E0,1.5E1],"tree_param":{"num_deleted":"0","num_feature":"27","num_nodes":"15","size_leaf_vector":"1"}},{"base_weights":[-1.2819096E-1,-9.561971E-2,1.1295776E0,4.3331337E0,-5.984752E-1,8.722849E-2,3.4857057E-2,1.2770169E-2,-1.497541E0,-3.1197974E-2,-9.1751665E-3],"categories":[],"categories_nodes":[],"categories_segments":[],"categories_sizes":[],"default_left":[0,0,0,0,0,0,0,0,0,0,0],"id":12,"left_children":[1,-1,3,5,7,-1,-1,-1,9,-1,-1],"loss_changes":[7.239882E2,0E0,3.9564316E2,7.490076E1,6.6120834E1,0E0,0E0,0E0,1.788211E1,0E0,0E0],"parents":[2147483647,0,0,2,2,3,3,4,4,8,8],"right_children":[2,-1,4,6,8,-1,-1,-1,10,-1,-1],"split_conditions":[5.4790234E1,-9.561971E-2,8.6E1,2.4591667E1,5.9742374E1,8.722849E-2,3.4857057E-2,1.2770169E-2,8.88E1,-3.1197974E-2,-9.1751665E-3],"split_indices":[26,0,24,0,26,0,0,0,24,0,0],"split_type":[0,0,0,0,0,0,0,0,0,0,0],"sum_hessian":[8.2E1,1.2E1,7E1,2.4E1,4.6E1,1E1,1.4E1,1.7E1,2.9E1,1.4E1,1.5E1],"tree_param":{"num_deleted":"0","num_feature":"27","num_nodes":"11","size_leaf_vector":"1"}},{"base_weights":[3.3320603E-1,4.721856E0,-2.1805441E0,8.91264E-2,3.4531333E-2,-9.4411895E-2,-7.367737E-1,1.2456841E-2,-1.535761E0,-3.0918438E-2,-9.05116E-3],"categories":[],"categories_nodes":[],"categories_segments":[],"categories_sizes":[],"default_left":[0,0,0,0,0,0,0,0,0,0,0],"id":13,"left_children":[1,3,5,-1,-1,-1,7,-1,9,-1,-1],"loss_changes":[9.700776E2,1.0957953E2,3.7644305E2,0E0,0E0,0E0,5.930229E1,0E0,1.7487694E1,0E0,0E0],"parents":[2147483647,0,0,1,1,2,2,6,6,8,8],"right_children":[2,4,6,-1,-1,-1,8,-1,10,-1,-1],"split_conditions":[8.6E1,3.7208435E1,5.4790234E1,8.91264E-2,3.4531333E-2,-9.4411895E-2,5.9742374E1,1.2456841E-2,8.88E1,-3.0918438E-2,-9.05116E-3],"split_indices":[24,1,26,0,0,0,26,0,24,0,0],"split_type":[0,0,0,0,0,0,0,0,0,0,0],"sum_hessian":[8.6E1,3.1E1,5.5E1,1.6E1,1.5E1,1.2E1,4.3E1,1.4E1,2.9E1,1.5E1,1.4E1],"tree_param":{"num_deleted":"0","num_feature":"27","num_nodes":"11","size_leaf_vector":"1"}},{"base_weights":[-1.2165638E-2,-9.377422E-2,1.3368666E0,4.416324E0,-5.4051596E-1,8.631786E-2,3.3970855E-2,1.2444146E-2,-1.4532951E0,-3.0219551E-2,-8.917387E-3],"categories":[],"categories_nodes":[],"categories_segments":[],"categories_sizes":[],"default_left":[0,0,0,0,0,0,0,0,0,0,0],"id":14,"left_children":[1,-1,3,5,7,-1,-1,-1,9,-1,-1],"loss_changes":[7.8433514E2,0E0,4.1286078E2,8.31062E1,6.0876648E1,0E0,0E0,0E0,1.5509274E1,0E0,0E0],"parents":[2147483647,0,0,2,2,3,3,4,4,8,8],"right_children":[2,-1,4,6,8,-1,-1,-1,10,-1,-1],"split_conditions":[5.4790234E1,-9.377422E-2,8.6E1,2.4591667E1,5.9742374E1,8.631786E-2,3.3970855E-2,1.2444146E-2,8.88E1,-3.0219551E-2,-8.917387E-3],"split_indices":[26,0,24,0,26,0,0,0,24,0,0],"split_type":[0,0,0,0,0,0,0,0,0,0,0],"sum_hessian":[8.3E1,1.3E1,7E1,2.6E1,4.4E1,1.2E1,1.4E1,1.7E1,2.7E1,1.3E1,1.4E1],"tree_param":{"num_deleted":"0","num_feature":"27","num_nodes":"11","size_leaf_vector":"1"}},{"base_weights":[1.3594973E-1,4.524279E0,-2.2677767E0,8.615649E-2,3.3536974E-2,-9.2582665E-2,-6.3679475E-1,1.2138818E-2,-1.4914603E0,-2.984022E-2,-8.682781E-3],"categories":[],"categories_nodes":[],"categories_segments":[],"categories_sizes":[],"default_left":[0,0,0,0,0,0,0,0,0,0,0],"id":15,"left_children":[1,3,5,-1,-1,-1,7,-1,9,-1,-1],"loss_changes":[8.6467584E2,9.111188E1,3.8450476E2,0E0,0E0,0E0,5.3419132E1,0E0,1.3972008E1,0E0,0E0],"parents":[2147483647,0,0,1,1,2,2,6,6,8,8],"right_children":[2,4,6,-1,-1,-1,8,-1,10,-1,-1],"split_conditions":[8.6E1,2.4591667E1,5.4790234E1,8.615649E-2,3.3536974E-2,-9.2582665E-2,5.9742374E1,1.2138818E-2,8.88E1,-2.984022E-2,-8.682781E-3],"split_indices":[24,0,26,0,0,0,26,0,24,0,0],"split_type":[0,0,0,0,0,0,0,0,0,0,0],"sum_hessian":[8E1,2.8E1,5.2E1,1.4E1,1.4E1,1.3E1,3.9E1,1.4E1,2.5E1,1.3E1,1.2E1],"tree_param":{"num_deleted":"0","num_feature":"27","num_nodes":"11","size_leaf_vector":"1"}},{"base_weights":[8.712602E-2,4.4763527E0,-2.3015258E0,8.5428566E-2,3.3252187E-2,-9.1875E-2,-7.087575E-1,1.1922647E-2,-1.4224838E0,-2.9634016E-2,-8.71559E-3],"categories":[],"categories_nodes":[],"categories_segments":[],"categories_sizes":[],"default_left":[0,0,0,0,0,0,0,0,0,0,0],"id":16,"left_children":[1,3,5,-1,-1,-1,7,-1,9,-1,-1],"loss_changes":[9.224396E2,9.689642E1,3.9584256E2,0E0,0E0,0E0,4.9731133E1,0E0,1.6133495E1,0E0,0E0],"parents":[2147483647,0,0,1,1,2,2,6,6,8,8],"right_children":[2,4,6,-1,-1,-1,8,-1,10,-1,-1],"split_conditions":[8.6E1,2.4591667E1,5.4790234E1,8.5428566E-2,3.3252187E-2,-9.1875E-2,5.9742374E1,1.1922647E-2,8.88E1,-2.9634016E-2,-8.71559E-3],"split_indices":[24,0,26,0,0,0,26,0,24,0,0],"split_type":[0,0,0,0,0,0,0,0,0,0,0],"sum_hessian":[8.6E1,3E1,5.6E1,1.5E1,1.5E1,1.4E1,4.2E1,1.3E1,2.9E1,1.4E1,1.5E1],"tree_param":{"num_deleted":"0","num_feature":"27","num_nodes":"11","size_leaf_vector":"1"}},{"base_weights":[1.4932609E-1,-9.023883E-2,1.3735294E0,8.433263E-2,1.1542299E-1,-1.2262176E0,9.950438E-1,-2.8182957E-2,-8.603792E-3,2.205506E-2,-2.6906513E-2],"categories":[],"categories_nodes":[],"categories_segments":[],"categories_sizes":[],"default_left":[0,0,0,0,0,0,0,0,0,0,0],"id":17,"left_children":[1,-1,3,-1,5,7,9,-1,-1,-1,-1],"loss_changes":[7.520765E2,0E0,4.6324988E2,0E0,7.4388504E1,1.1152355E1,7.2565445E1,0E0,0E0,0E0,0E0],"parents":[2147483647,0,0,2,2,4,4,5,5,6,6],"right_children":[2,-1,4,-1,6,8,10,-1,-1,-1,-1],"split_conditions":[5.4790234E1,-9.023883E-2,2.7526374E0,8.433263E-2,6.695418E0,7.597414E1,1.1207113E2,-2.8182957E-2,-8.603792E-3,2.205506E-2,-2.6906513E-2],"split_indices":[26,0,22,0,10,26,3,0,0,0,0],"split_type":[0,0,0,0,0,0,0,0,0,0,0],"sum_hessian":[8.9E1,1.3E1,7.6E1,1.5E1,6.1E1,2.4E1,3.7E1,9E0,1.5E1,3.1E1,6E0],"tree_param":{"num_deleted":"0","num_feature":"27","num_nodes":"11","size_leaf_vector":"1"}},{"base_weights":[3.649757E-1,4.557133E0,-1.9282916E0,8.352307E-2,3.220768E-2,-8.856503E-2,-5.097257E-1,1.1601399E-2,-1.2672532E0,-2.838011E-2,-8.528858E-3],"categories":[],"categories_nodes":[],"categories_segments":[],"categories_sizes":[],"default_left":[0,0,0,0,0,0,0,0,0,0,0],"id":18,"left_children":[1,3,5,-1,-1,-1,7,-1,9,-1,-1],"loss_changes":[8.1634143E2,8.786725E1,3.5121722E2,0E0,0E0,0E0,4.5294163E1,0E0,1.3253456E1,0E0,0E0],"parents":[2147483647,0,0,1,1,2,2,6,6,8,8],"right_children":[2,4,6,-1,-1,-1,8,-1,10,-1,-1],"split_conditions":[8.6E1,3.056842E1,5.4790234E1,8.352307E-2,3.220768E-2,-8.856503E-2,5.9742374E1,1.1601399E-2,8.88E1,-2.838011E-2,-8.528858E-3],"split_indices":[24,1,26,0,0,0,26,0,24,0,0],"split_type":[0,0,0,0,0,0,0,0,0,0,0],"sum_hessian":[8.3E1,2.9E1,5.4E1,1.6E1,1.3E1,1.2E1,4.2E1,1.5E1,2.7E1,1.1E1,1.6E1],"tree_param":{"num_deleted":"0","num_feature":"27","num_nodes":"11","size_leaf_vector":"1"}},{"base_weights":[1.2701896E-1,4.3656707E0,-1.994575E0,8.186803E-2,3.1764265E-2,-8.744632E-2,-6.5048087E-1,1.1401678E-2,-1.3706436E0,-2.8568963E-2,-8.3839875E-3],"categories":[],"categories_nodes":[],"categories_segments":[],"categories_sizes":[],"default_left":[0,0,0,0,0,0,0,0,0,0,0],"id":19,"left_children":[1,3,5,-1,-1,-1,7,-1,9,-1,-1],"loss_changes":[7.5510156E2,7.8678894E1,3.2671283E2,0E0,0E0,0E0,4.8155983E1,0E0,1.5027191E1,0E0,0E0],"parents":[2147483647,0,0,1,1,2,2,6,6,8,8],"right_children":[2,4,6,-1,-1,-1,8,-1,10,-1,-1],"split_conditions":[8.6E1,2.4591667E1,5.4790234E1,8.186803E-2,3.1764265E-2,-8.744632E-2,5.9742374E1,1.1401678E-2,8.88E1,-2.8568963E-2,-8.3839875E-3],"split_indices":[24,0,26,0,0,0,26,0,24,0,0],"split_type":[0,0,0,0,0,0,0,0,0,0,0],"sum_hessian":[8.2E1,2.7E1,5.5E1,1.4E1,1.3E1,1.2E1,4.3E1,1.4E1,2.9E1,1.4E1,1.5E1],"tree_param":{"num_deleted":"0","num_feature":"27","num_nodes":"11","size_leaf_vector":"1"}},{"base_weights":[9.149539E-2,8.148207E-2,-1.2751231E0,-3.2749798E0,1.2481877E0,-9.2513674E-1,-5.262338E0,1.5947518E0,-2.2757791E-2,-1.990196E-2,-9.605147E-3,-8.132489E-2,-2.4074584E-2,2.833104E-2,1.11323595E-2],"categories":[],"categories_nodes":[],"categories_segments":[],"categories_sizes":[],"default_left":[0,0,0,0,0,0,0,0,0,0,0,0,0,0,0],"id":20,"left_children":[1,-1,3,5,7,9,11,13,-1,-1,-1,-1,-1,-1,-1],"loss_changes":[7.2070856E2,0E0,3.7246478E2,1.8660083E2,3.5947384E1,1.3418674E0,4.200409E1,9.462631E0,0E0,0E0,0E0,0E0,0E0,0E0,0E0],"parents":[2147483647,0,0,2,2,3,3,4,4,5,5,6,6,7,7],"right_children":[2,-1,4,6,8,10,12,14,-1,-1,-1,-1,-1,-1,-1],"split_conditions":[2.7526374E0,8.148207E-2,3.857334E0,3.4301877E0,4.728017E0,3.040471E0,3.57125E0,4.6832085E1,-2.2757791E-2,-1.990196E-2,-9.605147E-3,-8.132489E-2,-2.4074584E-2,2.833104E-2,1.11323595E-2],"split_indices":[22,0,19,22,9,19,16,0,0,0,0,0,0,0,0],"split_type":[0,0,0,0,0,0,0,0,0,0,0,0,0,0,0],"sum_hessian":[8.8E1,1.6E1,7.2E1,4E1,3.2E1,1.9E1,2.1E1,2.9E1,3E0,4E0,1.5E1,1.7E1,4E0,1.7E1,1.2E1],"tree_param":{"num_deleted":"0","num_feature":"27","num_nodes":"15","size_leaf_vector":"1"}},{"base_weights":[3.2418844E-1,-8.531449E-2,1.4418206E0,8.043266E-2,1.6091672E-1,-1.1636586E0,1.0762907E0,-2.677785E-2,-8.14439E-3,2.1931648E-2,-2.4945484E-2],"categories":[],"categories_nodes":[],"categories_segments":[],"categories_sizes":[],"default_left":[0,0,0,0,0,0,0,0,0,0,0],"id":21,"left_children":[1,-1,3,-1,5,7,9,-1,-1,-1,-1],"loss_changes":[6.540565E2,0E0,4.3089536E2,0E0,7.400135E1,1.0108486E1,5.786648E1,0E0,0E0,0E0,0E0],"parents":[2147483647,0,0,2,2,4,4,5,5,6,6],"right_children":[2,-1,4,-1,6,8,10,-1,-1,-1,-1],"split_conditions":[5.4790234E1,-8.531449E-2,2.7526374E0,8.043266E-2,9.871761E2,7.597414E1,1.1207113E2,-2.677785E-2,-8.14439E-3,2.1931648E-2,-2.4945484E-2],"split_indices":[26,0,22,0,4,26,3,0,0,0,0],"split_type":[0,0,0,0,0,0,0,0,0,0,0],"sum_hessian":[8.7E1,1.2E1,7.5E1,1.6E1,5.9E1,2.4E1,3.5E1,9E0,1.5E1,3E1,5E0],"tree_param":{"num_deleted":"0","num_feature":"27","num_nodes":"11","size_leaf_vector":"1"}},{"base_weights":[2.3210698E-3,4.2758865E0,-2.0632741E0,7.90957E-2,3.0807093E-2,-8.517282E-2,-6.615819E-1,1.0786694E-2,-1.3205247E0,-2.7570266E-2,-8.06584E-3],"categories":[],"categories_nodes":[],"categories_segments":[],"categories_sizes":[],"default_left":[0,0,0,0,0,0,0,0,0,0,0],"id":22,"left_children":[1,3,5,-1,-1,-1,7,-1,9,-1,-1],"loss_changes":[7.856385E2,7.5305786E1,3.4582623E2,0E0,0E0,0E0,4.498787E1,0E0,1.5054348E1,0E0,0E0],"parents":[2147483647,0,0,1,1,2,2,6,6,8,8],"right_children":[2,4,6,-1,-1,-1,8,-1,10,-1,-1],"split_conditions":[8.6E1,2.4591667E1,5.4790234E1,7.90957E-2,3.0807093E-2,-8.517282E-2,5.9742374E1,1.0786694E-2,8.88E1,-2.7570266E-2,-8.06584E-3],"split_indices":[24,0,26,0,0,0,26,0,24,0,0],"split_type":[0,0,0,0,0,0,0,0,0,0,0],"sum_hessian":[8.7E1,2.8E1,5.9E1,1.5E1,1.3E1,1.4E1,4.5E1,1.4E1,3.1E1,1.5E1,1.6E1],"tree_param":{"num_deleted":"0","num_feature":"27","num_nodes":"11","size_leaf_vector":"1"}},{"base_weights":[1.4915855E-1,3.9668148E0,-1.8664994E0,7.735953E-2,3.069663E-2,-8.3161004E-2,-5.50082E-1,1.0648937E-2,-1.2181567E0,-2.6773583E-2,-7.961956E-3],"categories":[],"categories_nodes":[],"categories_segments":[],"categories_sizes":[],"default_left":[0,0,0,0,0,0,0,0,0,0,0],"id":23,"left_children":[1,3,5,-1,-1,-1,7,-1,9,-1,-1],"loss_changes":[6.460965E2,7.161325E1,3.0152612E2,0E0,0E0,0E0,3.910585E1,0E0,1.2487347E1,0E0,0E0],"parents":[2147483647,0,0,1,1,2,2,6,6,8,8],"right_children":[2,4,6,-1,-1,-1,8,-1,10,-1,-1],"split_conditions":[8.6E1,2.4591667E1,5.4790234E1,7.735953E-2,3.069663E-2,-8.3161004E-2,5.9742374E1,1.0648937E-2,8.88E1,-2.6773583E-2,-7.961956E-3],"split_indices":[24,0,26,0,0,0,26,0,24,0,0],"split_type":[0,0,0,0,0,0,0,0,0,0,0],"sum_hessian":[8.2E1,2.8E1,5.4E1,1.3E1,1.5E1,1.2E1,4.2E1,1.4E1,2.8E1,1.2E1,1.6E1],"tree_param":{"num_deleted":"0","num_feature":"27","num_nodes":"11","size_leaf_vector":"1"}},{"base_weights":[1.0143238E-1,4.361508E0,-1.8882935E0,7.7381745E-2,2.9636305E-2,-8.259932E-2,-6.1257637E-1,1.057773E-2,-1.2862203E0,-2.6850741E-2,-7.859422E-3],"categories":[],"categories_nodes":[],"categories_segments":[],"categories_sizes":[],"default_left":[0,0,0,0,0,0,0,0,0,0,0],"id":24,"left_children":[1,3,5,-1,-1,-1,7,-1,9,-1,-1],"loss_changes":[7.4568115E2,6.727142E1,3.137942E2,0E0,0E0,0E0,4.4863274E1,0E0,1.4271606E1,0E0,0E0],"parents":[2147483647,0,0,1,1,2,2,6,6,8,8],"right_children":[2,4,6,-1,-1,-1,8,-1,10,-1,-1],"split_conditions":[8.6E1,2.4591667E1,5.4790234E1,7.7381745E-2,2.9636305E-2,-8.259932E-2,5.9742374E1,1.057773E-2,8.88E1,-2.6850741E-2,-7.859422E-3],"split_indices":[24,0,26,0,0,0,26,0,24,0,0],"split_type":[0,0,0,0,0,0,0,0,0,0,0],"sum_hessian":[8.6E1,2.7E1,5.9E1,1.6E1,1.1E1,1.3E1,4.6E1,1.5E1,3.1E1,1.5E1,1.6E1],"tree_param":{"num_deleted":"0","num_feature":"27","num_nodes":"11","size_leaf_vector":"1"}},{"base_weights":[-1.1095284E-1,4.180098E0,-2.0326142E0,7.5767994E-2,2.9224696E-2,-8.23339E-2,-5.028628E-1,1.0442025E-2,-1.2082996E0,-2.6094493E-2,-7.733458E-3],"categories":[],"categories_nodes":[],"categories_segments":[],"categories_sizes":[],"default_left":[0,0,0,0,0,0,0,0,0,0,0],"id":25,"left_children":[1,3,5,-1,-1,-1,7,-1,9,-1,-1],"loss_changes":[6.929101E2,6.0298798E1,3.504721E2,0E0,0E0,0E0,3.9322884E1,0E0,1.1503471E1,0E0,0E0],"parents":[2147483647,0,0,1,1,2,2,6,6,8,8],"right_children":[2,4,6,-1,-1,-1,8,-1,10,-1,-1],"split_conditions":[8.6E1,2.4591667E1,5.4790234E1,7.5767994E-2,2.9224696E-2,-8.23339E-2,5.9742374E1,1.0442025E-2,8.88E1,-2.6094493E-2,-7.733458E-3],"split_indices":[24,0,26,0,0,0,26,0,24,0,0],"split_type":[0,0,0,0,0,0,0,0,0,0,0],"sum_hessian":[8.2E1,2.5E1,5.7E1,1.4E1,1.1E1,1.5E1,4.2E1,1.5E1,2.7E1,1.2E1,1.5E1],"tree_param":{"num_deleted":"0","num_feature":"27","num_nodes":"11","size_leaf_vector":"1"}},{"base_weights":[-8.497573E-2,4.1911883E0,-2.0078332E0,7.512385E-2,2.8877728E-2,-3.021683E0,1.8920353E-2,-9.434285E-1,-4.6791897E0,6.6660094E-1,-2.3418609E-2,-2.3276558E-2,-7.544929E-3,-2.4364829E-2,-8.0916405E-2,-4.094474E-3,1.0275843E-2],"categories":[],"categories_nodes":[],"categories_segments":[],"categories_sizes":[],"default_left":[0,0,0,0,0,0,0,0,0,0,0,0,0,0,0,0,0],"id":26,"left_children":[1,3,5,-1,-1,7,9,11,13,15,-1,-1,-1,-1,-1,-1,-1],"loss_changes":[7.1554626E2,6.1379944E1,1.2334659E2,0E0,0E0,1.3337439E2,2.4675146E1,4.7054043E0,6.816458E1,1.5279326E0,0E0,0E0,0E0,0E0,0E0,0E0,0E0],"parents":[2147483647,0,0,1,1,2,2,5,5,6,6,7,7,8,8,9,9],"right_children":[2,4,6,-1,-1,8,10,12,14,16,-1,-1,-1,-1,-1,-1,-1],"split_conditions":[8.6E1,2.4591667E1,5.2187767E1,7.512385E-2,2.8877728E-2,3.4399667E0,1.1207113E2,8.88E1,8.88E1,1.9082361E1,-2.3418609E-2,-2.3276558E-2,-7.544929E-3,-2.4364829E-2,-8.0916405E-2,-4.094474E-3,1.0275843E-2],"split_indices":[24,0,2,0,0,22,3,24,24,0,0,0,0,0,0,0,0],"split_type":[0,0,0,0,0,0,0,0,0,0,0,0,0,0,0,0,0],"sum_hessian":[8.5E1,2.6E1,5.9E1,1.5E1,1.1E1,3.9E1,2E1,1.8E1,2.1E1,1.5E1,5E0,5E0,1.3E1,7E0,1.4E1,1E0,1.4E1],"tree_param":{"num_deleted":"0","num_feature":"27","num_nodes":"17","size_leaf_vector":"1"}},{"base_weights":[8.924624E-2,3.8303902E0,-1.8813426E0,7.37399E-2,2.914736E-2,-7.947539E-2,-5.8922905E-1,1.0196399E-2,-1.236768E0,-2.5814274E-2,-7.531583E-3],"categories":[],"categories_nodes":[],"categories_segments":[],"categories_sizes":[],"default_left":[0,0,0,0,0,0,0,0,0,0,0],"id":27,"left_children":[1,3,5,-1,-1,-1,7,-1,9,-1,-1],"loss_changes":[6.4122034E2,6.801526E1,2.857699E2,0E0,0E0,0E0,3.893975E1,0E0,1.2339527E1,0E0,0E0],"parents":[2147483647,0,0,1,1,2,2,6,6,8,8],"right_children":[2,4,6,-1,-1,-1,8,-1,10,-1,-1],"split_conditions":[8.6E1,2.0119085E1,5.4790234E1,7.37399E-2,2.914736E-2,-7.947539E-2,5.9742374E1,1.0196399E-2,8.88E1,-2.5814274E-2,-7.531583E-3],"split_indices":[24,0,26,0,0,0,26,0,24,0,0],"split_type":[0,0,0,0,0,0,0,0,0,0,0],"sum_hessian":[8.5E1,2.9E1,5.6E1,1.4E1,1.5E1,1.3E1,4.3E1,1.4E1,2.9E1,1.4E1,1.5E1],"tree_param":{"num_deleted":"0","num_feature":"27","num_nodes":"11","size_leaf_vector":"1"}},{"base_weights":[-1.021908E-2,4.084301E0,-1.8838093E0,7.320152E-2,2.8149875E-2,-7.886791E-2,-5.487179E-1,1.0201392E-2,-1.2206746E0,-2.5476899E-2,-7.434955E-3],"categories":[],"categories_nodes":[],"categories_segments":[],"categories_sizes":[],"default_left":[0,0,0,0,0,0,0,0,0,0,0],"id":28,"left_children":[1,3,5,-1,-1,-1,7,-1,9,-1,-1],"loss_changes":[6.5976764E2,5.823944E1,3.0244196E2,0E0,0E0,0E0,4.0044502E1,0E0,1.2016239E1,0E0,0E0],"parents":[2147483647,0,0,1,1,2,2,6,6,8,8],"right_children":[2,4,6,-1,-1,-1,8,-1,10,-1,-1],"split_conditions":[8.6E1,3.7208435E1,5.4790234E1,7.320152E-2,2.8149875E-2,-7.886791E-2,5.9742374E1,1.0201392E-2,8.88E1,-2.5476899E-2,-7.434955E-3],"split_indices":[24,1,26,0,0,0,26,0,24,0,0],"split_type":[0,0,0,0,0,0,0,0,0,0,0],"sum_hessian":[8.4E1,2.6E1,5.8E1,1.5E1,1.1E1,1.4E1,4.4E1,1.5E1,2.9E1,1.4E1,1.5E1],"tree_param":{"num_deleted":"0","num_feature":"27","num_nodes":"11","size_leaf_vector":"1"}},{"base_weights":[-1.7699228E-1,-7.878753E-2,1.3028361E0,3.7922082E0,-5.345296E-1,7.200487E-2,2.8321069E-2,1.001072E-2,-1.1712241E0,-2.4828084E-2,-7.3310644E-3],"categories":[],"categories_nodes":[],"categories_segments":[],"categories_sizes":[],"default_left":[0,0,0,0,0,0,0,0,0,0,0],"id":29,"left_children":[1,-1,3,5,7,-1,-1,-1,9,-1,-1],"loss_changes":[7.0946313E2,0E0,3.130514E2,6.253018E1,3.3101357E1,0E0,0E0,0E0,1.00633545E1,0E0,0E0],"parents":[2147483647,0,0,2,2,3,3,4,4,8,8],"right_children":[2,-1,4,6,8,-1,-1,-1,10,-1,-1],"split_conditions":[5.4790234E1,-7.878753E-2,8.6E1,2.4591667E1,5.9742374E1,7.200487E-2,2.8321069E-2,1.001072E-2,8.88E1,-2.4828084E-2,-7.3310644E-3],"split_indices":[26,0,24,0,26,0,0,0,24,0,0],"split_type":[0,0,0,0,0,0,0,0,0,0,0],"sum_hessian":[8.4E1,1.7E1,6.7E1,2.8E1,3.9E1,1.4E1,1.4E1,1.3E1,2.6E1,1.2E1,1.4E1],"tree_param":{"num_deleted":"0","num_feature":"27","num_nodes":"11","size_leaf_vector":"1"}},{"base_weights":[1.1131283E-1,-7.75002E-2,1.368509E0,7.189651E-2,1.9952387E-1,-1.0560526E0,9.8726887E-1,-2.3826417E-2,-7.237424E-3,1.9611921E-2,-2.2303334E-2],"categories":[],"categories_nodes":[],"categories_segments":[],"categories_sizes":[],"default_left":[0,0,0,0,0,0,0,0,0,0,0],"id":30,"left_children":[1,-1,3,-1,5,7,9,-1,-1,-1,-1],"loss_changes":[6.9020306E2,0E0,3.5323788E2,0E0,6.1376125E1,7.7472095E0,4.6684196E1,0E0,0E0,0E0,0E0],"parents":[2147483647,0,0,2,2,4,4,5,5,6,6],"right_children":[2,-1,4,-1,6,8,10,-1,-1,-1,-1],"split_conditions":[5.4790234E1,-7.75002E-2,2.7526374E0,7.189651E-2,8.0769165E2,7.597414E1,1.1207113E2,-2.3826417E-2,-7.237424E-3,1.9611921E-2,-2.2303334E-2],"split_indices":[26,0,22,0,4,26,3,0,0,0,0],"split_type":[0,0,0,0,0,0,0,0,0,0,0],"sum_hessian":[9.3E1,1.6E1,7.7E1,1.7E1,6E1,2.3E1,3.7E1,9E0,1.4E1,3.2E1,5E0],"tree_param":{"num_deleted":"0","num_feature":"27","num_nodes":"11","size_leaf_vector":"1"}},{"base_weights":[2.2221173E-1,3.7627769E0,-1.7018611E0,7.0731945E-2,2.782728E-2,-7.5477496E-2,-5.0412065E-1,9.70672E-3,-1.1749479E0,-2.4526538E-2,-7.152681E-3],"categories":[],"categories_nodes":[],"categories_segments":[],"categories_sizes":[],"default_left":[0,0,0,0,0,0,0,0,0,0,0],"id":31,"left_children":[1,3,5,-1,-1,-1,7,-1,9,-1,-1],"loss_changes":[6.1951117E2,6.7298615E1,2.6673306E2,0E0,0E0,0E0,3.8278664E1,0E0,1.1143993E1,0E0,0E0],"parents":[2147483647,0,0,1,1,2,2,6,6,8,8],"right_children":[2,4,6,-1,-1,-1,8,-1,10,-1,-1],"split_conditions":[8.6E1,2.4591667E1,5.4790234E1,7.0731945E-2,2.782728E-2,-7.5477496E-2,5.9742374E1,9.70672E-3,8.88E1,-2.4526538E-2,-7.152681E-3],"split_indices":[24,0,26,0,0,0,26,0,24,0,0],"split_type":[0,0,0,0,0,0,0,0,0,0,0],"sum_hessian":[8.9E1,3.1E1,5.8E1,1.6E1,1.5E1,1.3E1,4.5E1,1.6E1,2.9E1,1.4E1,1.5E1],"tree_param":{"num_deleted":"0","num_feature":"27","num_nodes":"11","size_leaf_vector":"1"}},{"base_weights":[1.5491466E-1,3.5541778E0,-1.6965252E0,6.9263615E-2,2.7573327E-2,-7.40775E-2,-5.8505404E-1,-2.436885E-2,7.219111E-2,-7.069728E-3,9.516775E-3],"categories":[],"categories_nodes":[],"categories_segments":[],"categories_sizes":[],"default_left":[0,0,0,0,0,0,0,0,0,0,0],"id":32,"left_children":[1,3,5,-1,-1,-1,7,-1,9,-1,-1],"loss_changes":[5.5356696E2,6.1728455E1,2.3231268E2,0E0,0E0,0E0,3.549466E1,0E0,1.1369411E1,0E0,0E0],"parents":[2147483647,0,0,1,1,2,2,6,6,8,8],"right_children":[2,4,6,-1,-1,-1,8,-1,10,-1,-1],"split_conditions":[8.6E1,2.4591667E1,5.4790234E1,6.9263615E-2,2.7573327E-2,-7.40775E-2,8.88E1,-2.436885E-2,5.9136664E2,-7.069728E-3,9.516775E-3],"split_indices":[24,0,26,0,0,0,24,0,4,0,0],"split_type":[0,0,0,0,0,0,0,0,0,0,0],"sum_hessian":[8.6E1,3E1,5.6E1,1.4E1,1.6E1,1.2E1,4.4E1,1.5E1,2.9E1,1.5E1,1.4E1],"tree_param":{"num_deleted":"0","num_feature":"27","num_nodes":"11","size_leaf_vector":"1"}},{"base_weights":[-1.1221E-1,3.491821E0,-1.881781E0,6.79871E-2,2.7116552E-2,-2.9276612E0,3.0406857E-1,-8.392519E-1,-4.1471367E0,9.45913E-3,-1.9396871E-2,-2.0444212E-2,-6.7940517E-3,-2.3018543E-2,-7.428463E-2],"categories":[],"categories_nodes":[],"categories_segments":[],"categories_sizes":[],"default_left":[0,0,0,0,0,0,0,0,0,0,0,0,0,0,0],"id":33,"left_children":[1,3,5,-1,-1,7,9,11,13,-1,-1,-1,-1,-1,-1],"loss_changes":[5.614211E2,5.4820496E1,1.357723E2,0E0,0E0,9.8390076E1,1.4310976E1,2.8490467E0,6.9835785E1,0E0,0E0,0E0,0E0,0E0,0E0],"parents":[2147483647,0,0,1,1,2,2,5,5,6,6,7,7,8,8],"right_children":[2,4,6,-1,-1,8,10,12,14,-1,-1,-1,-1,-1,-1],"split_conditions":[8.6E1,3.7208435E1,4.042719E0,6.79871E-2,2.7116552E-2,3.4399667E0,4.728017E0,8.88E1,8.88E1,9.45913E-3,-1.9396871E-2,-2.0444212E-2,-6.7940517E-3,-2.3018543E-2,-7.428463E-2],"split_indices":[24,1,19,0,0,22,9,24,24,0,0,0,0,0,0],"split_type":[0,0,0,0,0,0,0,0,0,0,0,0,0,0,0],"sum_hessian":[8.6E1,2.8E1,5.8E1,1.3E1,1.5E1,3.9E1,1.9E1,1.5E1,2.4E1,1.6E1,3E0,4E0,1.1E1,9E0,1.5E1],"tree_param":{"num_deleted":"0","num_feature":"27","num_nodes":"15","size_leaf_vector":"1"}},{"base_weights":[5.1566273E-2,3.6152346E0,-1.9292045E0,6.779898E-2,2.6623115E-2,-2.7291691E0,3.3264846E-1,-8.542339E-1,-4.224378E0,9.192164E-3,-1.7072842E-2,-2.10807E-2,-6.829559E-3,-2.2082305E-2,-7.300572E-2],"categories":[],"categories_nodes":[],"categories_segments":[],"categories_sizes":[],"default_left":[0,0,0,0,0,0,0,0,0,0,0,0,0,0,0],"id":34,"left_children":[1,3,5,-1,-1,7,9,11,13,-1,-1,-1,-1,-1,-1],"loss_changes":[5.928558E2,5.74498E1,9.8615585E1,0E0,0E0,1.085282E2,8.876151E0,3.8621025E0,5.5184143E1,0E0,0E0,0E0,0E0,0E0,0E0],"parents":[2147483647,0,0,1,1,2,2,5,5,6,6,7,7,8,8],"right_children":[2,4,6,-1,-1,8,10,12,14,-1,-1,-1,-1,-1,-1],"split_conditions":[8.6E1,2.4591667E1,4.000842E0,6.779898E-2,2.6623115E-2,3.4399667E0,1.1207113E2,8.88E1,8.88E1,9.192164E-3,-1.7072842E-2,-2.10807E-2,-6.829559E-3,-2.2082305E-2,-7.300572E-2],"split_indices":[24,0,19,0,0,22,3,24,24,0,0,0,0,0,0],"split_type":[0,0,0,0,0,0,0,0,0,0,0,0,0,0,0],"sum_hessian":[8.2E1,2.9E1,5.3E1,1.5E1,1.4E1,3.9E1,1.4E1,1.8E1,2.1E1,1.2E1,2E0,5E0,1.3E1,7E0,1.4E1],"tree_param":{"num_deleted":"0","num_feature":"27","num_nodes":"15","size_leaf_vector":"1"}},{"base_weights":[-1.0927748E-1,6.718016E-2,-1.2016866E0,-2.8411174E0,7.899027E-1,-7.6537496E-1,-4.4525228E0,1.2146851E0,-2.1024939E-2,-7.93866E-3,-1.6489971E-2,-6.811417E-2,-2.0000102E-2,2.2276327E-2,9.105214E-3],"categories":[],"categories_nodes":[],"categories_segments":[],"categories_sizes":[],"default_left":[0,0,0,0,0,0,0,0,0,0,0,0,0,0,0],"id":35,"left_children":[1,-1,3,5,7,9,11,13,-1,-1,-1,-1,-1,-1,-1],"loss_changes":[5.2124774E2,0E0,2.5691992E2,1.4042123E2,3.74414E1,9.297695E-1,3.0419098E1,5.9531975E0,0E0,0E0,0E0,0E0,0E0,0E0,0E0],"parents":[2147483647,0,0,2,2,3,3,4,4,5,5,6,6,7,7],"right_children":[2,-1,4,6,8,10,12,14,-1,-1,-1,-1,-1,-1,-1],"split_conditions":[2.7526374E0,6.718016E-2,4.2335556E1,3.4301877E0,1.1207113E2,5.0993533E2,3.57125E0,3.8676965E0,-2.1024939E-2,-7.93866E-3,-1.6489971E-2,-6.811417E-2,-2.0000102E-2,2.2276327E-2,9.105214E-3],"split_indices":[22,0,2,22,3,4,16,17,0,0,0,0,0,0,0],"split_type":[0,0,0,0,0,0,0,0,0,0,0,0,0,0,0],"sum_hessian":[9.3E1,1.6E1,7.7E1,4.2E1,3.5E1,1.9E1,2.3E1,3E1,5E0,1.5E1,4E0,1.9E1,4E0,1.6E1,1.4E1],"tree_param":{"num_deleted":"0","num_feature":"27","num_nodes":"15","size_leaf_vector":"1"}},{"base_weights":[-1.21263094E-1,6.5732636E-2,-1.1179073E0,-2.8106968E0,7.4700105E-1,-8.5020185E-1,-4.286979E0,1.2614367E0,-2.140782E-2,-8.04208E-3,-1.7478079E-2,-6.6221975E-2,-1.971894E-2,2.1755375E-2,8.70786E-3],"categories":[],"categories_nodes":[],"categories_segments":[],"categories_sizes":[],"default_left":[0,0,0,0,0,0,0,0,0,0,0,0,0,0,0],"id":36,"left_children":[1,-1,3,5,7,9,11,13,-1,-1,-1,-1,-1,-1,-1],"loss_changes":[4.373035E2,0E0,2.3570999E2,1.0923074E2,4.478055E1,1.2672377E0,2.761148E1,5.1466255E0,0E0,0E0,0E0,0E0,0E0,0E0,0E0],"parents":[2147483647,0,0,2,2,3,3,4,4,5,5,6,6,7,7],"right_children":[2,-1,4,6,8,10,12,14,-1,-1,-1,-1,-1,-1,-1],"split_conditions":[2.7526374E0,6.5732636E-2,3.726115E0,3.4399667E0,1.1207113E2,4.9557526E2,3.57125E0,3.862988E0,-2.140782E-2,-8.04208E-3,-1.7478079E-2,-6.6221975E-2,-1.971894E-2,2.1755375E-2,8.70786E-3],"split_indices":[22,0,18,22,3,4,16,16,0,0,0,0,0,0,0],"split_type":[0,0,0,0,0,0,0,0,0,0,0,0,0,0,0],"sum_hessian":[8.7E1,1.4E1,7.3E1,3.8E1,3.5E1,1.7E1,2.1E1,2.9E1,6E0,1.2E1,5E0,1.7E1,4E0,1.8E1,1.1E1],"tree_param":{"num_deleted":"0","num_feature":"27","num_nodes":"15","size_leaf_vector":"1"}},{"base_weights":[-2.452895E-1,3.3564792E0,-1.974932E0,6.420337E-2,2.5681512E-2,-7.067172E-2,-6.1573714E-1,-2.2761824E-2,1.0835043E-1,-6.509035E-3,8.74558E-3],"categories":[],"categories_nodes":[],"categories_segments":[],"categories_sizes":[],"default_left":[0,0,0,0,0,0,0,0,0,0,0],"id":37,"left_children":[1,3,5,-1,-1,-1,7,-1,9,-1,-1],"loss_changes":[4.9878082E2,4.2570007E1,2.3092586E2,0E0,0E0,0E0,2.976519E1,0E0,7.743314E0,0E0,0E0],"parents":[2147483647,0,0,1,1,2,2,6,6,8,8],"right_children":[2,4,6,-1,-1,-1,8,-1,10,-1,-1],"split_conditions":[8.6E1,2.4591667E1,5.4790234E1,6.420337E-2,2.5681512E-2,-7.067172E-2,8.88E1,-2.2761824E-2,5.9136664E2,-6.509035E-3,8.74558E-3],"split_indices":[24,0,26,0,0,0,24,0,4,0,0],"split_type":[0,0,0,0,0,0,0,0,0,0,0],"sum_hessian":[7.8E1,2.5E1,5.3E1,1.2E1,1.3E1,1.5E1,3.8E1,1.5E1,2.3E1,1.1E1,1.2E1],"tree_param":{"num_deleted":"0","num_feature":"27","num_nodes":"11","size_leaf_vector":"1"}},{"base_weights":[-1.9344269E-1,-6.976509E-2,9.304269E-1,3.310316E0,-4.652963E-1,6.3291416E-2,2.5355175E-2,8.803076E-3,-1.0991241E0,-2.252997E-2,-6.5482473E-3],"categories":[],"categories_nodes":[],"categories_segments":[],"categories_sizes":[],"default_left":[0,0,0,0,0,0,0,0,0,0,0],"id":38,"left_children":[1,-1,3,5,7,-1,-1,-1,9,-1,-1],"loss_changes":[4.732976E2,0E0,2.3405695E2,4.1254547E1,3.232702E1,0E0,0E0,0E0,9.062294E0,0E0,0E0],"parents":[2147483647,0,0,2,2,3,3,4,4,8,8],"right_children":[2,-1,4,6,8,-1,-1,-1,10,-1,-1],"split_conditions":[5.4790234E1,-6.976509E-2,8.6E1,2.0119085E1,5.9742374E1,6.3291416E-2,2.5355175E-2,8.803076E-3,8.88E1,-2.252997E-2,-6.5482473E-3],"split_indices":[26,0,24,0,26,0,0,0,24,0,0],"split_type":[0,0,0,0,0,0,0,0,0,0,0],"sum_hessian":[8.4E1,1.5E1,6.9E1,2.5E1,4.4E1,1.2E1,1.3E1,1.6E1,2.8E1,1.4E1,1.4E1],"tree_param":{"num_deleted":"0","num_feature":"27","num_nodes":"11","size_leaf_vector":"1"}},{"base_weights":[-5.862057E-2,3.2266023E0,-1.6137503E0,6.2695324E-2,2.5139363E-2,-6.8214186E-2,-5.044213E-1,8.689067E-3,-1.057307E0,-2.2086332E-2,-6.421995E-3],"categories":[],"categories_nodes":[],"categories_segments":[],"categories_sizes":[],"default_left":[0,0,0,0,0,0,0,0,0,0,0],"id":39,"left_children":[1,3,5,-1,-1,-1,7,-1,9,-1,-1],"loss_changes":[4.292496E2,4.241815E1,2.1065207E2,0E0,0E0,0E0,2.8389503E1,0E0,9.063E0,0E0,0E0],"parents":[2147483647,0,0,1,1,2,2,6,6,8,8],"right_children":[2,4,6,-1,-1,-1,8,-1,10,-1,-1],"split_conditions":[8.6E1,2.4591667E1,5.4790234E1,6.2695324E-2,2.5139363E-2,-6.8214186E-2,5.9742374E1,8.689067E-3,8.88E1,-2.2086332E-2,-6.421995E-3],"split_indices":[24,0,26,0,0,0,26,0,24,0,0],"split_type":[0,0,0,0,0,0,0,0,0,0,0],"sum_hessian":[8.2E1,2.6E1,5.6E1,1.2E1,1.4E1,1.3E1,4.3E1,1.4E1,2.9E1,1.4E1,1.5E1],"tree_param":{"num_deleted":"0","num_feature":"27","num_nodes":"11","size_leaf_vector":"1"}},{"base_weights":[7.630537E-2,3.4570827E0,-1.615446E0,6.281665E-2,2.4578886E-2,-2.2605264E0,2.9847616E-1,-6.5934524E-2,-1.3106322E0,8.386565E-3,-1.5919985E-2,-2.7735204E-2,-6.4008324E-3],"categories":[],"categories_nodes":[],"categories_segments":[],"categories_sizes":[],"default_left":[0,0,0,0,0,0,0,0,0,0,0,0,0],"id":40,"left_children":[1,3,5,-1,-1,7,9,-1,11,-1,-1,-1,-1],"loss_changes":[4.802978E2,4.4465027E1,6.9814224E1,0E0,0E0,9.5730835E1,7.607123E0,0E0,1.8369148E1,0E0,0E0,0E0,0E0],"parents":[2147483647,0,0,1,1,2,2,5,5,6,6,8,8],"right_children":[2,4,6,-1,-1,8,10,-1,12,-1,-1,-1,-1],"split_conditions":[8.6E1,2.4591667E1,4.042719E0,6.281665E-2,2.4578886E-2,9.99E1,1.1207113E2,-6.5934524E-2,9.87E1,8.386565E-3,-1.5919985E-2,-2.7735204E-2,-6.4008324E-3],"split_indices":[24,0,19,0,0,25,3,0,24,0,0,0,0],"split_type":[0,0,0,0,0,0,0,0,0,0,0,0,0],"sum_hessian":[8.2E1,2.7E1,5.5E1,1.5E1,1.2E1,4.1E1,1.4E1,1E1,3.1E1,1.2E1,2E0,1.6E1,1.5E1],"tree_param":{"num_deleted":"0","num_feature":"27","num_nodes":"13","size_leaf_vector":"1"}},{"base_weights":[8.920219E-2,3.2249599E0,-1.5846885E0,6.2010787E-2,2.4706032E-2,-6.699007E-2,-4.7062978E-1,8.396374E-3,-1.0693327E0,-2.1570679E-2,-6.2568574E-3],"categories":[],"categories_nodes":[],"categories_segments":[],"categories_sizes":[],"default_left":[0,0,0,0,0,0,0,0,0,0,0],"id":41,"left_children":[1,3,5,-1,-1,-1,7,-1,9,-1,-1],"loss_changes":[4.8276187E2,5.117166E1,2.1900166E2,0E0,0E0,0E0,3.0515875E1,0E0,8.5893135E0,0E0,0E0],"parents":[2147483647,0,0,1,1,2,2,6,6,8,8],"right_children":[2,4,6,-1,-1,-1,8,-1,10,-1,-1],"split_conditions":[8.6E1,3.7208435E1,5.4790234E1,6.2010787E-2,2.4706032E-2,-6.699007E-2,5.9742374E1,8.396374E-3,8.88E1,-2.1570679E-2,-6.2568574E-3],"split_indices":[24,1,26,0,0,0,26,0,24,0,0],"split_type":[0,0,0,0,0,0,0,0,0,0,0],"sum_hessian":[9E1,3.1E1,5.9E1,1.5E1,1.6E1,1.4E1,4.5E1,1.6E1,2.9E1,1.5E1,1.4E1],"tree_param":{"num_deleted":"0","num_feature":"27","num_nodes":"11","size_leaf_vector":"1"}},{"base_weights":[1.0640321E-1,3.2311552E0,-1.5857806E0,6.1441764E-2,2.4387842E-2,-6.645307E-2,-4.1375372E-1,8.361644E-3,-9.806845E-1,-2.122243E-2,-6.2045734E-3],"categories":[],"categories_nodes":[],"categories_segments":[],"categories_sizes":[],"default_left":[0,0,0,0,0,0,0,0,0,0,0],"id":42,"left_children":[1,3,5,-1,-1,-1,7,-1,9,-1,-1],"loss_changes":[4.968758E2,5.2191162E1,2.3180824E2,0E0,0E0,0E0,2.7324942E1,0E0,8.3163185E0,0E0,0E0],"parents":[2147483647,0,0,1,1,2,2,6,6,8,8],"right_children":[2,4,6,-1,-1,-1,8,-1,10,-1,-1],"split_conditions":[8.6E1,2.4591667E1,5.4790234E1,6.1441764E-2,2.4387842E-2,-6.645307E-2,5.9742374E1,8.361644E-3,8.88E1,-2.122243E-2,-6.2045734E-3],"split_indices":[24,0,26,0,0,0,26,0,24,0,0],"split_type":[0,0,0,0,0,0,0,0,0,0,0],"sum_hessian":[9.2E1,3.2E1,6E1,1.6E1,1.6E1,1.5E1,4.5E1,1.6E1,2.9E1,1.3E1,1.6E1],"tree_param":{"num_deleted":"0","num_feature":"27","num_nodes":"11","size_leaf_vector":"1"}},{"base_weights":[-1.7682791E-1,3.1833513E0,-1.8815612E0,6.042701E-2,2.3972627E-2,-6.6067114E-2,-6.334199E-1,-2.1137096E-2,-5.7548862E-2,-6.1742826E-3,8.098824E-3],"categories":[],"categories_nodes":[],"categories_segments":[],"categories_sizes":[],"default_left":[0,0,0,0,0,0,0,0,0,0,0],"id":43,"left_children":[1,3,5,-1,-1,-1,7,-1,9,-1,-1],"loss_changes":[5.272567E2,4.6958435E1,2.212769E2,0E0,0E0,0E0,2.3000235E1,0E0,7.4248657E0,0E0,0E0],"parents":[2147483647,0,0,1,1,2,2,6,6,8,8],"right_children":[2,4,6,-1,-1,-1,8,-1,10,-1,-1],"split_conditions":[8.6E1,2.4591667E1,5.4790234E1,6.042701E-2,2.3972627E-2,-6.6067114E-2,8.88E1,-2.1137096E-2,6.3841257E0,-6.1742826E-3,8.098824E-3],"split_indices":[24,0,26,0,0,0,24,0,10,0,0],"split_type":[0,0,0,0,0,0,0,0,0,0,0],"sum_hessian":[9E1,3E1,6E1,1.5E1,1.5E1,1.7E1,4.3E1,1.6E1,2.7E1,1.7E1,1E1],"tree_param":{"num_deleted":"0","num_feature":"27","num_nodes":"11","size_leaf_vector":"1"}},{"base_weights":[-7.821402E-2,3.126148E0,-1.5432913E0,5.9116583E-2,2.3384484E-2,-6.4441964E-2,-4.536665E-1,8.149648E-3,-1.0530859E0,-2.084691E-2,-6.0252165E-3],"categories":[],"categories_nodes":[],"categories_segments":[],"categories_sizes":[],"default_left":[0,0,0,0,0,0,0,0,0,0,0],"id":44,"left_children":[1,3,5,-1,-1,-1,7,-1,9,-1,-1],"loss_changes":[4.0386877E2,3.8305695E1,2.013982E2,0E0,0E0,0E0,2.8928846E1,0E0,7.687767E0,0E0,0E0],"parents":[2147483647,0,0,1,1,2,2,6,6,8,8],"right_children":[2,4,6,-1,-1,-1,8,-1,10,-1,-1],"split_conditions":[8.6E1,2.4591667E1,5.4790234E1,5.9116583E-2,2.3384484E-2,-6.4441964E-2,5.9742374E1,8.149648E-3,8.88E1,-2.084691E-2,-6.0252165E-3],"split_indices":[24,0,26,0,0,0,26,0,24,0,0],"split_type":[0,0,0,0,0,0,0,0,0,0,0],"sum_hessian":[8.4E1,2.6E1,5.8E1,1.3E1,1.3E1,1.4E1,4.4E1,1.6E1,2.8E1,1.5E1,1.3E1],"tree_param":{"num_deleted":"0","num_feature":"27","num_nodes":"11","size_leaf_vector":"1"}},{"base_weights":[4.1780535E-2,3.062828E0,-1.5437162E0,5.8893394E-2,2.3463834E-2,-6.3618936E-2,-5.197804E-1,-2.068612E-2,9.269556E-2,-5.9415163E-3,7.948514E-3],"categories":[],"categories_nodes":[],"categories_segments":[],"categories_sizes":[],"default_left":[0,0,0,0,0,0,0,0,0,0,0],"id":45,"left_children":[1,3,5,-1,-1,-1,7,-1,9,-1,-1],"loss_changes":[4.4539536E2,4.6156647E1,1.9154813E2,0E0,0E0,0E0,2.8693806E1,0E0,7.9684606E0,0E0,0E0],"parents":[2147483647,0,0,1,1,2,2,6,6,8,8],"right_children":[2,4,6,-1,-1,-1,8,-1,10,-1,-1],"split_conditions":[8.6E1,2.4591667E1,5.4790234E1,5.8893394E-2,2.3463834E-2,-6.3618936E-2,8.88E1,-2.068612E-2,5.9136664E2,-5.9415163E-3,7.948514E-3],"split_indices":[24,0,26,0,0,0,24,0,4,0,0],"split_type":[0,0,0,0,0,0,0,0,0,0,0],"sum_hessian":[9.1E1,3.1E1,6E1,1.5E1,1.6E1,1.4E1,4.6E1,1.7E1,2.9E1,1.4E1,1.5E1],"tree_param":{"num_deleted":"0","num_feature":"27","num_nodes":"11","size_leaf_vector":"1"}},{"base_weights":[1.1441805E-1,3.150756E0,-1.6151263E0,5.8542896E-2,2.306407E-2,-6.2841244E-2,-5.634724E-1,-2.0324297E-2,1.6305787E-2,-5.9025073E-3,7.74521E-3],"categories":[],"categories_nodes":[],"categories_segments":[],"categories_sizes":[],"default_left":[0,0,0,0,0,0,0,0,0,0,0],"id":46,"left_children":[1,3,5,-1,-1,-1,7,-1,9,-1,-1],"loss_changes":[4.7772217E2,4.730548E1,1.7900803E2,0E0,0E0,0E0,2.3539135E1,0E0,7.1341324E0,0E0,0E0],"parents":[2147483647,0,0,1,1,2,2,6,6,8,8],"right_children":[2,4,6,-1,-1,-1,8,-1,10,-1,-1],"split_conditions":[8.6E1,2.4591667E1,5.4790234E1,5.8542896E-2,2.306407E-2,-6.2841244E-2,8.88E1,-2.0324297E-2,6.3841257E0,-5.9025073E-3,7.74521E-3],"split_indices":[24,0,26,0,0,0,24,0,10,0,0],"split_type":[0,0,0,0,0,0,0,0,0,0,0],"sum_hessian":[8.9E1,3.2E1,5.7E1,1.7E1,1.5E1,1.4E1,4.3E1,1.6E1,2.7E1,1.5E1,1.2E1],"tree_param":{"num_deleted":"0","num_feature":"27","num_nodes":"11","size_leaf_vector":"1"}},{"base_weights":[6.4691976E-2,3.023808E0,-1.5180199E0,5.738679E-2,2.2782901E-2,-6.2271267E-2,-3.5429665E-1,7.842563E-3,-9.25102E-1,-1.9599712E-2,-5.80002E-3],"categories":[],"categories_nodes":[],"categories_segments":[],"categories_sizes":[],"default_left":[0,0,0,0,0,0,0,0,0,0,0],"id":47,"left_children":[1,3,5,-1,-1,-1,7,-1,9,-1,-1],"loss_changes":[4.1673187E2,4.230005E1,2.0307796E2,0E0,0E0,0E0,2.3293232E1,0E0,6.2572536E0,0E0,0E0],"parents":[2147483647,0,0,1,1,2,2,6,6,8,8],"right_children":[2,4,6,-1,-1,-1,8,-1,10,-1,-1],"split_conditions":[8.6E1,2.4591667E1,5.4790234E1,5.738679E-2,2.2782901E-2,-6.2271267E-2,5.9742374E1,7.842563E-3,8.88E1,-1.9599712E-2,-5.80002E-3],"split_indices":[24,0,26,0,0,0,26,0,24,0,0],"split_type":[0,0,0,0,0,0,0,0,0,0,0],"sum_hessian":[8.7E1,3E1,5.7E1,1.5E1,1.5E1,1.5E1,4.2E1,1.6E1,2.6E1,1.2E1,1.4E1],"tree_param":{"num_deleted":"0","num_feature":"27","num_nodes":"11","size_leaf_vector":"1"}},{"base_weights":[-1.14362605E-1,2.927733E0,-1.5561305E0,5.614395E-2,2.238364E-2,-2.4673696E0,2.1027175E-1,-7.5914145E-1,-3.8954155E0,5.0768757E-1,-1.6156299E-2,-1.7827425E-2,-5.5832556E-3,-9.225719E-3,-5.7459377E-2,-3.2782415E-3,7.741552E-3],"categories":[],"categories_nodes":[],"categories_segments":[],"categories_sizes":[],"default_left":[0,0,0,0,0,0,0,0,0,0,0,0,0,0,0,0,0],"id":48,"left_children":[1,3,5,-1,-1,7,9,11,13,15,-1,-1,-1,-1,-1,-1,-1],"loss_changes":[3.8175156E2,3.580031E1,9.54861E1,0E0,0E0,9.218051E1,9.286843E0,3.0953703E0,1.7705688E1,9.163151E-1,0E0,0E0,0E0,0E0,0E0,0E0,0E0],"parents":[2147483647,0,0,1,1,2,2,5,5,6,6,7,7,8,8,9,9],"right_children":[2,4,6,-1,-1,8,10,12,14,16,-1,-1,-1,-1,-1,-1,-1],"split_conditions":[8.6E1,2.4591667E1,3.726115E0,5.614395E-2,2.238364E-2,3.2695453E0,1.1207113E2,8.88E1,1.9082361E1,1.1685972E1,-1.6156299E-2,-1.7827425E-2,-5.5832556E-3,-9.225719E-3,-5.7459377E-2,-3.2782415E-3,7.741552E-3],"split_indices":[24,0,18,0,0,19,3,24,0,0,0,0,0,0,0,0,0],"split_type":[0,0,0,0,0,0,0,0,0,0,0,0,0,0,0,0,0],"sum_hessian":[8.5E1,2.7E1,5.8E1,1.3E1,1.4E1,3.8E1,2E1,1.8E1,2E1,1.7E1,3E0,6E0,1.2E1,2E0,1.8E1,1E0,1.6E1],"tree_param":{"num_deleted":"0","num_feature":"27","num_nodes":"17","size_leaf_vector":"1"}},{"base_weights":[3.944533E-2,-5.9833053E-2,8.8231975E-1,5.506053E-2,1.37314E-1,-8.5380626E-1,7.563806E-1,-1.84961E-2,-5.544338E-3,1.5591566E-2,-1.7580839E-2],"categories":[],"categories_nodes":[],"categories_segments":[],"categories_sizes":[],"default_left":[0,0,0,0,0,0,0,0,0,0,0],"id":49,"left_children":[1,-1,3,-1,5,7,9,-1,-1,-1,-1],"loss_changes":[3.013532E2,0E0,1.5859128E2,0E0,3.500569E1,4.3661366E0,2.8826723E1,0E0,0E0,0E0,0E0],"parents":[2147483647,0,0,2,2,4,4,5,5,6,6],"right_children":[2,-1,4,-1,6,8,10,-1,-1,-1,-1],"split_conditions":[5.4790234E1,-5.9833053E-2,2.7790158E0,5.506053E-2,9.871761E2,7.597414E1,1.1207113E2,-1.84961E-2,-5.544338E-3,1.5591566E-2,-1.7580839E-2],"split_indices":[26,0,19,0,4,26,3,0,0,0,0],"split_type":[0,0,0,0,0,0,0,0,0,0,0],"sum_hessian":[7.9E1,1.2E1,6.7E1,1.2E1,5.5E1,2.1E1,3.4E1,9E0,1.2E1,2.9E1,5E0],"tree_param":{"num_deleted":"0","num_feature":"27","num_nodes":"11","size_leaf_vector":"1"}},{"base_weights":[-1.9366087E-1,2.8498638E0,-1.5546606E0,5.4504924E-2,2.181249E-2,-2.2645192E0,2.9055855E-1,-6.9416064E-1,-3.413365E0,7.312208E-3,-1.4030293E-2,-1.721952E-2,-5.511599E-3,-1.794709E-2,-5.9967685E-2],"categories":[],"categories_nodes":[],"categories_segments":[],"categories_sizes":[],"default_left":[0,0,0,0,0,0,0,0,0,0,0,0,0,0,0],"id":50,"left_children":[1,3,5,-1,-1,7,9,11,13,-1,-1,-1,-1,-1,-1],"loss_changes":[3.4823618E2,3.0653625E1,7.662898E1,0E0,0E0,7.3402756E1,6.001644E0,2.6167736E0,4.312979E1,0E0,0E0,0E0,0E0,0E0,0E0],"parents":[2147483647,0,0,1,1,2,2,5,5,6,6,7,7,8,8],"right_children":[2,4,6,-1,-1,8,10,12,14,-1,-1,-1,-1,-1,-1],"split_conditions":[8.6E1,2.4591667E1,1.7612916E3,5.4504924E-2,2.181249E-2,3.4399667E0,1.1207113E2,8.88E1,8.88E1,7.312208E-3,-1.4030293E-2,-1.721952E-2,-5.511599E-3,-1.794709E-2,-5.9967685E-2],"split_indices":[24,0,4,0,0,22,3,24,24,0,0,0,0,0,0],"split_type":[0,0,0,0,0,0,0,0,0,0,0,0,0,0,0],"sum_hessian":[8.2E1,2.5E1,5.7E1,1.2E1,1.3E1,4.1E1,1.6E1,1.8E1,2.3E1,1.4E1,2E0,5E0,1.3E1,8E0,1.5E1],"tree_param":{"num_deleted":"0","num_feature":"27","num_nodes":"15","size_leaf_vector":"1"}},{"base_weights":[1.2429902E-2,2.9180913E0,-1.5170836E0,5.4587618E-2,2.163576E-2,-5.9231054E-2,-4.0995547E-1,7.3020025E-3,-9.007982E-1,-1.8786594E-2,-5.47542E-3],"categories":[],"categories_nodes":[],"categories_segments":[],"categories_sizes":[],"default_left":[0,0,0,0,0,0,0,0,0,0,0],"id":51,"left_children":[1,3,5,-1,-1,-1,7,-1,9,-1,-1],"loss_changes":[3.866324E2,3.6652634E1,1.7564217E2,0E0,0E0,0E0,1.9932747E1,0E0,6.0686703E0,0E0,0E0],"parents":[2147483647,0,0,1,1,2,2,6,6,8,8],"right_children":[2,4,6,-1,-1,-1,8,-1,10,-1,-1],"split_conditions":[8.6E1,2.4591667E1,5.4790234E1,5.4587618E-2,2.163576E-2,-5.9231054E-2,5.9742374E1,7.3020025E-3,8.88E1,-1.8786594E-2,-5.47542E-3],"split_indices":[24,0,26,0,0,0,26,0,24,0,0],"split_type":[0,0,0,0,0,0,0,0,0,0,0],"sum_hessian":[8.5E1,2.9E1,5.6E1,1.5E1,1.4E1,1.5E1,4.1E1,1.4E1,2.7E1,1.3E1,1.4E1],"tree_param":{"num_deleted":"0","num_feature":"27","num_nodes":"11","size_leaf_vector":"1"}},{"base_weights":[8.645942E-2,2.802132E0,-1.3633401E0,5.3887315E-2,2.1460375E-2,-2.1019468E0,2.1897021E-1,-3.0679955E0,-5.4838173E-3,7.179428E-3,-1.5530584E-2,-1.8227128E-2,-5.818809E-2],"categories":[],"categories_nodes":[],"categories_segments":[],"categories_sizes":[],"default_left":[0,0,0,0,0,0,0,0,0,0,0,0,0],"id":52,"left_children":[1,3,5,-1,-1,7,9,11,-1,-1,-1,-1,-1],"loss_changes":[3.6210373E2,3.8670776E1,7.058254E1,0E0,0E0,6.615172E1,8.872916E0,4.778882E1,0E0,0E0,0E0,0E0,0E0],"parents":[2147483647,0,0,1,1,2,2,5,5,6,6,7,7],"right_children":[2,4,6,-1,-1,8,10,12,-1,-1,-1,-1,-1],"split_conditions":[8.6E1,2.4591667E1,4.042719E0,5.3887315E-2,2.1460375E-2,1E2,1.1207113E2,8.88E1,-5.4838173E-3,7.179428E-3,-1.5530584E-2,-1.8227128E-2,-5.818809E-2],"split_indices":[24,0,19,0,0,24,3,24,0,0,0,0,0],"split_type":[0,0,0,0,0,0,0,0,0,0,0,0,0],"sum_hessian":[9E1,3.1E1,5.9E1,1.5E1,1.6E1,4E1,1.9E1,2.5E1,1.5E1,1.6E1,3E0,1.1E1,1.4E1],"tree_param":{"num_deleted":"0","num_feature":"27","num_nodes":"13","size_leaf_vector":"1"}},{"base_weights":[2.2965042E-2,2.927081E0,-1.4832982E0,5.3145263E-2,2.086123E-2,-5.744493E-2,-4.282208E-1,7.1012005E-3,-9.0348136E-1,-1.8489657E-2,-5.353801E-3],"categories":[],"categories_nodes":[],"categories_segments":[],"categories_sizes":[],"default_left":[0,0,0,0,0,0,0,0,0,0,0],"id":53,"left_children":[1,3,5,-1,-1,-1,7,-1,9,-1,-1],"loss_changes":[3.586652E2,3.1649628E1,1.528675E2,0E0,0E0,0E0,1.8474789E1,0E0,5.663269E0,0E0,0E0],"parents":[2147483647,0,0,1,1,2,2,6,6,8,8],"right_children":[2,4,6,-1,-1,-1,8,-1,10,-1,-1],"split_conditions":[8.6E1,3.7208435E1,5.4790234E1,5.3145263E-2,2.086123E-2,-5.744493E-2,5.9742374E1,7.1012005E-3,8.88E1,-1.8489657E-2,-5.353801E-3],"split_indices":[24,1,26,0,0,0,26,0,24,0,0],"split_type":[0,0,0,0,0,0,0,0,0,0,0],"sum_hessian":[8E1,2.7E1,5.3E1,1.5E1,1.2E1,1.4E1,3.9E1,1.3E1,2.6E1,1.3E1,1.3E1],"tree_param":{"num_deleted":"0","num_feature":"27","num_nodes":"11","size_leaf_vector":"1"}},{"base_weights":[7.664807E-2,2.7691271E0,-1.3393434E0,5.2514214E-2,2.090317E-2,-5.6432575E-2,-4.6273202E-1,-1.8366259E-2,5.1038552E-2,-5.266534E-3,7.0144637E-3],"categories":[],"categories_nodes":[],"categories_segments":[],"categories_sizes":[],"default_left":[0,0,0,0,0,0,0,0,0,0,0],"id":54,"left_children":[1,3,5,-1,-1,-1,7,-1,9,-1,-1],"loss_changes":[3.4302377E2,3.5262817E1,1.4211284E2,0E0,0E0,0E0,2.085257E1,0E0,6.233223E0,0E0,0E0],"parents":[2147483647,0,0,1,1,2,2,6,6,8,8],"right_children":[2,4,6,-1,-1,-1,8,-1,10,-1,-1],"split_conditions":[8.6E1,2.4591667E1,5.4790234E1,5.2514214E-2,2.090317E-2,-5.6432575E-2,8.88E1,-1.8366259E-2,3.7118816E1,-5.266534E-3,7.0144637E-3],"split_indices":[24,0,26,0,0,0,24,0,2,0,0],"split_type":[0,0,0,0,0,0,0,0,0,0,0],"sum_hessian":[8.8E1,3E1,5.8E1,1.5E1,1.5E1,1.3E1,4.5E1,1.6E1,2.9E1,1.5E1,1.4E1],"tree_param":{"num_deleted":"0","num_feature":"27","num_nodes":"11","size_leaf_vector":"1"}},{"base_weights":[-7.451066E-2,2.7336035E0,-1.5241277E0,5.1840533E-2,2.0635016E-2,-5.647419E-2,-4.8382866E-1,-1.820207E-2,9.831711E-2,-5.209725E-3,6.936771E-3],"categories":[],"categories_nodes":[],"categories_segments":[],"categories_sizes":[],"default_left":[0,0,0,0,0,0,0,0,0,0,0],"id":55,"left_children":[1,3,5,-1,-1,-1,7,-1,9,-1,-1],"loss_changes":[3.7052847E2,3.4363876E1,1.6046988E2,0E0,0E0,0E0,2.1809265E1,0E0,5.4778686E0,0E0,0E0],"parents":[2147483647,0,0,1,1,2,2,6,6,8,8],"right_children":[2,4,6,-1,-1,-1,8,-1,10,-1,-1],"split_conditions":[8.6E1,2.4591667E1,5.4790234E1,5.1840533E-2,2.0635016E-2,-5.647419E-2,8.88E1,-1.820207E-2,5.9136664E2,-5.209725E-3,6.936771E-3],"split_indices":[24,0,26,0,0,0,24,0,4,0,0],"split_type":[0,0,0,0,0,0,0,0,0,0,0],"sum_hessian":[8.9E1,3E1,5.9E1,1.5E1,1.5E1,1.6E1,4.3E1,1.7E1,2.6E1,1.2E1,1.4E1],"tree_param":{"num_deleted":"0","num_feature":"27","num_nodes":"11","size_leaf_vector":"1"}},{"base_weights":[3.3334508E-3,2.6141093E0,-1.281387E0,5.0791617E-2,2.0414384E-2,-5.526922E-2,-4.1108257E-1,6.8892227E-3,-8.697481E-1,-1.7886352E-2,-5.216884E-3],"categories":[],"categories_nodes":[],"categories_segments":[],"categories_sizes":[],"default_left":[0,0,0,0,0,0,0,0,0,0,0],"id":56,"left_children":[1,3,5,-1,-1,-1,7,-1,9,-1,-1],"loss_changes":[3.1528256E2,3.2649704E1,1.4953488E2,0E0,0E0,0E0,2.0991625E1,0E0,6.5520897E0,0E0,0E0],"parents":[2147483647,0,0,1,1,2,2,6,6,8,8],"right_children":[2,4,6,-1,-1,-1,8,-1,10,-1,-1],"split_conditions":[8.6E1,1.7246237E1,5.4790234E1,5.0791617E-2,2.0414384E-2,-5.526922E-2,5.9742374E1,6.8892227E-3,8.88E1,-1.7886352E-2,-5.216884E-3],"split_indices":[24,2,26,0,0,0,26,0,24,0,0],"split_type":[0,0,0,0,0,0,0,0,0,0,0],"sum_hessian":[9.2E1,3E1,6.2E1,1.4E1,1.6E1,1.4E1,4.8E1,1.6E1,3.2E1,1.6E1,1.6E1],"tree_param":{"num_deleted":"0","num_feature":"27","num_nodes":"11","size_leaf_vector":"1"}},{"base_weights":[-7.9168123E-4,2.6955981E0,-1.2590938E0,5.0319143E-2,1.9859977E-2,-5.4258283E-2,-4.2626664E-1,-1.7702695E-2,6.3159265E-2,-5.101488E-3,6.7760185E-3],"categories":[],"categories_nodes":[],"categories_segments":[],"categories_sizes":[],"default_left":[0,0,0,0,0,0,0,0,0,0,0],"id":57,"left_children":[1,3,5,-1,-1,-1,7,-1,9,-1,-1],"loss_changes":[2.9857394E2,2.886235E1,1.3352686E2,0E0,0E0,0E0,2.003471E1,0E0,6.0232844E0,0E0,0E0],"parents":[2147483647,0,0,1,1,2,2,6,6,8,8],"right_children":[2,4,6,-1,-1,-1,8,-1,10,-1,-1],"split_conditions":[8.6E1,2.4591667E1,5.4790234E1,5.0319143E-2,1.9859977E-2,-5.4258283E-2,8.88E1,-1.7702695E-2,3.7118816E1,-5.101488E-3,6.7760185E-3],"split_indices":[24,0,26,0,0,0,24,0,2,0,0],"split_type":[0,0,0,0,0,0,0,0,0,0,0],"sum_hessian":[8.6E1,2.7E1,5.9E1,1.4E1,1.3E1,1.3E1,4.6E1,1.6E1,3E1,1.5E1,1.5E1],"tree_param":{"num_deleted":"0","num_feature":"27","num_nodes":"11","size_leaf_vector":"1"}},{"base_weights":[-1.2265538E-1,-5.3606182E-2,6.4907527E-1,2.5591466E0,-3.61594E-1,4.8869073E-2,1.9541401E-2,6.7270603E-3,-8.3301693E-1,-1.7386267E-2,-5.0735674E-3],"categories":[],"categories_nodes":[],"categories_segments":[],"categories_sizes":[],"default_left":[0,0,0,0,0,0,0,0,0,0,0],"id":58,"left_children":[1,-1,3,5,7,-1,-1,-1,9,-1,-1],"loss_changes":[2.426829E2,0E0,1.3412645E2,2.2375046E1,1.8911388E1,0E0,0E0,0E0,5.596445E0,0E0,0E0],"parents":[2147483647,0,0,2,2,3,3,4,4,8,8],"right_children":[2,-1,4,6,8,-1,-1,-1,10,-1,-1],"split_conditions":[5.4790234E1,-5.3606182E-2,8.6E1,1.7246237E1,5.9742374E1,4.8869073E-2,1.9541401E-2,6.7270603E-3,8.88E1,-1.7386267E-2,-5.0735674E-3],"split_indices":[26,0,24,2,26,0,0,0,24,0,0],"split_type":[0,0,0,0,0,0,0,0,0,0,0],"sum_hessian":[8.1E1,1.3E1,6.8E1,2.3E1,4.5E1,1.1E1,1.2E1,1.6E1,2.9E1,1.4E1,1.5E1],"tree_param":{"num_deleted":"0","num_feature":"27","num_nodes":"11","size_leaf_vector":"1"}},{"base_weights":[-1.5162693E-1,-5.3823028E-2,7.9589E-1,2.582371E0,-3.996519E-1,4.8821937E-2,1.9496778E-2,-1.7276792E-2,4.511916E-2,-4.9810256E-3,6.5479185E-3],"categories":[],"categories_nodes":[],"categories_segments":[],"categories_sizes":[],"default_left":[0,0,0,0,0,0,0,0,0,0,0],"id":59,"left_children":[1,-1,3,5,7,-1,-1,-1,9,-1,-1],"loss_changes":[3.2203268E2,0E0,1.548106E2,2.7997635E1,1.6943829E1,0E0,0E0,0E0,5.4934387E0,0E0,0E0],"parents":[2147483647,0,0,2,2,3,3,4,4,8,8],"right_children":[2,-1,4,6,8,-1,-1,-1,10,-1,-1],"split_conditions":[5.4790234E1,-5.3823028E-2,8.6E1,1.9610619E1,8.88E1,4.8821937E-2,1.9496778E-2,-1.7276792E-2,5.9136664E2,-4.9810256E-3,6.5479185E-3],"split_indices":[26,0,24,0,24,0,0,0,4,0,0],"split_type":[0,0,0,0,0,0,0,0,0,0,0],"sum_hessian":[8.8E1,1.7E1,7.1E1,2.8E1,4.3E1,1.4E1,1.4E1,1.4E1,2.9E1,1.5E1,1.4E1],"tree_param":{"num_deleted":"0","num_feature":"27","num_nodes":"11","size_leaf_vector":"1"}},{"base_weights":[-8.7301925E-2,2.4926436E0,-1.3969905E0,4.8482288E-2,1.9421062E-2,-5.295264E-2,-4.3182513E-1,-1.6990524E-2,5.7779048E-2,-4.9319104E-3,6.460502E-3],"categories":[],"categories_nodes":[],"categories_segments":[],"categories_sizes":[],"default_left":[0,0,0,0,0,0,0,0,0,0,0],"id":60,"left_children":[1,3,5,-1,-1,-1,7,-1,9,-1,-1],"loss_changes":[3.109644E2,2.9921844E1,1.4390787E2,0E0,0E0,0E0,1.7913528E1,0E0,5.1951056E0,0E0,0E0],"parents":[2147483647,0,0,1,1,2,2,6,6,8,8],"right_children":[2,4,6,-1,-1,-1,8,-1,10,-1,-1],"split_conditions":[8.6E1,3.7208435E1,5.4790234E1,4.8482288E-2,1.9421062E-2,-5.295264E-2,8.88E1,-1.6990524E-2,5.9136664E2,-4.9319104E-3,6.460502E-3],"split_indices":[24,1,26,0,0,0,24,0,4,0,0],"split_type":[0,0,0,0,0,0,0,0,0,0,0],"sum_hessian":[9E1,3E1,6E1,1.4E1,1.6E1,1.6E1,4.4E1,1.6E1,2.8E1,1.4E1,1.4E1],"tree_param":{"num_deleted":"0","num_feature":"27","num_nodes":"11","size_leaf_vector":"1"}},{"base_weights":[2.7974503E-2,2.5000806E0,-1.3364284E0,4.8053272E-2,1.9170942E-2,-5.2076694E-2,-3.8656762E-1,6.4590415E-3,-9.12838E-1,-1.6763812E-2,-4.7527812E-3],"categories":[],"categories_nodes":[],"categories_segments":[],"categories_sizes":[],"default_left":[0,0,0,0,0,0,0,0,0,0,0],"id":61,"left_children":[1,3,5,-1,-1,-1,7,-1,9,-1,-1],"loss_changes":[3.035336E2,3.065802E1,1.3456316E2,0E0,0E0,0E0,1.9860226E1,0E0,4.3418427E0,0E0,0E0],"parents":[2147483647,0,0,1,1,2,2,6,6,8,8],"right_children":[2,4,6,-1,-1,-1,8,-1,10,-1,-1],"split_conditions":[8.6E1,2.4591667E1,5.4790234E1,4.8053272E-2,1.9170942E-2,-5.2076694E-2,5.9742374E1,6.4590415E-3,8.88E1,-1.6763812E-2,-4.7527812E-3],"split_indices":[24,0,26,0,0,0,26,0,24,0,0],"split_type":[0,0,0,0,0,0,0,0,0,0,0],"sum_hessian":[8.8E1,3.1E1,5.7E1,1.5E1,1.6E1,1.5E1,4.2E1,1.6E1,2.6E1,1.6E1,1E1],"tree_param":{"num_deleted":"0","num_feature":"27","num_nodes":"11","size_leaf_vector":"1"}},{"base_weights":[-7.495104E-2,2.4878078E0,-1.3333417E0,4.7046386E-2,1.877058E-2,-5.140862E-2,-4.217698E-1,-1.6593564E-2,7.345356E-2,-4.8112874E-3,6.3667987E-3],"categories":[],"categories_nodes":[],"categories_segments":[],"categories_sizes":[],"default_left":[0,0,0,0,0,0,0,0,0,0,0],"id":62,"left_children":[1,3,5,-1,-1,-1,7,-1,9,-1,-1],"loss_changes":[2.838879E2,2.6040176E1,1.2875737E2,0E0,0E0,0E0,1.73216E1,0E0,4.826798E0,0E0,0E0],"parents":[2147483647,0,0,1,1,2,2,6,6,8,8],"right_children":[2,4,6,-1,-1,-1,8,-1,10,-1,-1],"split_conditions":[8.6E1,2.0119085E1,5.4790234E1,4.7046386E-2,1.877058E-2,-5.140862E-2,8.88E1,-1.6593564E-2,5.0993533E2,-4.8112874E-3,6.3667987E-3],"split_indices":[24,0,26,0,0,0,24,0,4,0,0],"split_type":[0,0,0,0,0,0,0,0,0,0,0],"sum_hessian":[8.6E1,2.8E1,5.8E1,1.4E1,1.4E1,1.5E1,4.3E1,1.6E1,2.7E1,1.3E1,1.4E1],"tree_param":{"num_deleted":"0","num_feature":"27","num_nodes":"11","size_leaf_vector":"1"}},{"base_weights":[8.9651965E-2,2.5026324E0,-1.1599871E0,4.685743E-2,1.8510979E-2,-5.0215997E-2,-3.5341734E-1,6.2193526E-3,-7.725243E-1,-1.6056465E-2,-4.7681634E-3],"categories":[],"categories_nodes":[],"categories_segments":[],"categories_sizes":[],"default_left":[0,0,0,0,0,0,0,0,0,0,0],"id":63,"left_children":[1,3,5,-1,-1,-1,7,-1,9,-1,-1],"loss_changes":[2.6523886E2,2.7160309E1,1.1610896E2,0E0,0E0,0E0,1.5588221E1,0E0,4.690851E0,0E0,0E0],"parents":[2147483647,0,0,1,1,2,2,6,6,8,8],"right_children":[2,4,6,-1,-1,-1,8,-1,10,-1,-1],"split_conditions":[8.6E1,2.4591667E1,5.4790234E1,4.685743E-2,1.8510979E-2,-5.0215997E-2,5.9742374E1,6.2193526E-3,8.88E1,-1.6056465E-2,-4.7681634E-3],"split_indices":[24,0,26,0,0,0,26,0,24,0,0],"split_type":[0,0,0,0,0,0,0,0,0,0,0],"sum_hessian":[8.6E1,2.9E1,5.7E1,1.5E1,1.4E1,1.3E1,4.4E1,1.5E1,2.9E1,1.4E1,1.5E1],"tree_param":{"num_deleted":"0","num_feature":"27","num_nodes":"11","size_leaf_vector":"1"}},{"base_weights":[-1.3065867E-1,-5.0291125E-2,6.9656456E-1,4.5699086E-2,1.28026735E-2,-6.753952E-1,5.754857E-1,-1.5383065E-2,-4.7249356E-3,1.3517048E-2,-1.5012332E-2],"categories":[],"categories_nodes":[],"categories_segments":[],"categories_sizes":[],"default_left":[0,0,0,0,0,0,0,0,0,0,0],"id":64,"left_children":[1,-1,3,-1,5,7,9,-1,-1,-1,-1],"loss_changes":[2.6351685E2,0E0,1.3188287E2,0E0,2.323568E1,3.611642E0,2.3840893E1,0E0,0E0,0E0,0E0],"parents":[2147483647,0,0,2,2,4,4,5,5,6,6],"right_children":[2,-1,4,-1,6,8,10,-1,-1,-1,-1],"split_conditions":[5.4790234E1,-5.0291125E-2,2.7790158E0,4.5699086E-2,9.871761E2,7.597414E1,1.1207113E2,-1.5383065E-2,-4.7249356E-3,1.3517048E-2,-1.5012332E-2],"split_indices":[26,0,19,0,4,26,3,0,0,0,0],"split_type":[0,0,0,0,0,0,0,0,0,0,0],"sum_hessian":[8.8E1,1.6E1,7.2E1,1.4E1,5.8E1,2.6E1,3.2E1,1E1,1.6E1,2.6E1,6E0],"tree_param":{"num_deleted":"0","num_feature":"27","num_nodes":"11","size_leaf_vector":"1"}},{"base_weights":[-1.3737296E-1,-4.9612675E-2,6.881411E-1,2.362901E0,-3.692237E-1,4.534863E-2,1.8031467E-2,-1.5896555E-2,6.573022E-2,-4.5768847E-3,5.9773074E-3],"categories":[],"categories_nodes":[],"categories_segments":[],"categories_sizes":[],"default_left":[0,0,0,0,0,0,0,0,0,0,0],"id":65,"left_children":[1,-1,3,5,7,-1,-1,-1,9,-1,-1],"loss_changes":[2.5589706E2,0E0,1.2837234E2,2.3467072E1,1.5587162E1,0E0,0E0,0E0,4.601257E0,0E0,0E0],"parents":[2147483647,0,0,2,2,3,3,4,4,8,8],"right_children":[2,-1,4,6,8,-1,-1,-1,10,-1,-1],"split_conditions":[5.4790234E1,-4.9612675E-2,8.6E1,2.4591667E1,8.88E1,4.534863E-2,1.8031467E-2,-1.5896555E-2,3.7118816E1,-4.5768847E-3,5.9773074E-3],"split_indices":[26,0,24,0,24,0,0,0,2,0,0],"split_type":[0,0,0,0,0,0,0,0,0,0,0],"sum_hessian":[8.7E1,1.6E1,7.1E1,2.7E1,4.4E1,1.3E1,1.4E1,1.5E1,2.9E1,1.4E1,1.5E1],"tree_param":{"num_deleted":"0","num_feature":"27","num_nodes":"11","size_leaf_vector":"1"}},{"base_weights":[-3.2107938E-2,2.3023787E0,-1.2792971E0,4.4739947E-2,1.79754E-2,-4.8823252E-2,-3.9797375E-1,-1.5495782E-2,-4.3757865E-3,-4.6136295E-3,5.8996323E-3],"categories":[],"categories_nodes":[],"categories_segments":[],"categories_sizes":[],"default_left":[0,0,0,0,0,0,0,0,0,0,0],"id":66,"left_children":[1,3,5,-1,-1,-1,7,-1,9,-1,-1],"loss_changes":[2.591615E2,2.5349365E1,1.155659E2,0E0,0E0,0E0,1.2424967E1,0E0,4.34826E0,0E0,0E0],"parents":[2147483647,0,0,1,1,2,2,6,6,8,8],"right_children":[2,4,6,-1,-1,-1,8,-1,10,-1,-1],"split_conditions":[8.6E1,2.0119085E1,5.4790234E1,4.4739947E-2,1.79754E-2,-4.8823252E-2,8.88E1,-1.5495782E-2,5.9136664E2,-4.6136295E-3,5.8996323E-3],"split_indices":[24,0,26,0,0,0,24,0,4,0,0],"split_type":[0,0,0,0,0,0,0,0,0,0,0],"sum_hessian":[8.7E1,3E1,5.7E1,1.4E1,1.6E1,1.5E1,4.2E1,1.4E1,2.8E1,1.6E1,1.2E1],"tree_param":{"num_deleted":"0","num_feature":"27","num_nodes":"11","size_leaf_vector":"1"}},{"base_weights":[-9.455238E-3,2.3688364E0,-1.1379758E0,4.4087667E-2,1.7593715E-2,-4.7959477E-2,-3.2375434E-1,5.8867033E-3,-7.545563E-1,-1.5425062E-2,-4.537336E-3],"categories":[],"categories_nodes":[],"categories_segments":[],"categories_sizes":[],"default_left":[0,0,0,0,0,0,0,0,0,0,0],"id":67,"left_children":[1,3,5,-1,-1,-1,7,-1,9,-1,-1],"loss_changes":[2.3351544E2,2.1726868E1,1.1256414E2,0E0,0E0,0E0,1.4940586E1,0E0,4.1975822E0,0E0,0E0],"parents":[2147483647,0,0,1,1,2,2,6,6,8,8],"right_children":[2,4,6,-1,-1,-1,8,-1,10,-1,-1],"split_conditions":[8.6E1,1.9610619E1,5.4790234E1,4.4087667E-2,1.7593715E-2,-4.7959477E-2,5.9742374E1,5.8867033E-3,8.88E1,-1.5425062E-2,-4.537336E-3],"split_indices":[24,0,26,0,0,0,26,0,24,0,0],"split_type":[0,0,0,0,0,0,0,0,0,0,0],"sum_hessian":[8.5E1,2.7E1,5.8E1,1.4E1,1.3E1,1.4E1,4.4E1,1.6E1,2.8E1,1.4E1,1.4E1],"tree_param":{"num_deleted":"0","num_feature":"27","num_nodes":"11","size_leaf_vector":"1"}},{"base_weights":[1.04422785E-1,2.3262234E0,-1.2067173E0,4.4212308E-2,1.7579477E-2,-1.7429643E0,1.260238E-1,-4.7320113E-1,-2.6609108E0,5.693538E-3,-1.2598198E-2,-1.25978645E-2,-4.4109323E-3,-1.4199423E-2,-4.7312092E-2],"categories":[],"categories_nodes":[],"categories_segments":[],"categories_sizes":[],"default_left":[0,0,0,0,0,0,0,0,0,0,0,0,0,0,0],"id":68,"left_children":[1,3,5,-1,-1,7,9,11,13,-1,-1,-1,-1,-1,-1],"loss_changes":[2.5915915E2,2.6945541E1,4.024164E1,0E0,0E0,4.5363846E1,5.5440016E0,9.182124E-1,2.6151443E1,0E0,0E0,0E0,0E0,0E0,0E0],"parents":[2147483647,0,0,1,1,2,2,5,5,6,6,7,7,8,8],"right_children":[2,4,6,-1,-1,8,10,12,14,-1,-1,-1,-1,-1,-1],"split_conditions":[8.6E1,2.4591667E1,1.7612916E3,4.4212308E-2,1.7579477E-2,3.4301877E0,4.728017E0,8.88E1,8.88E1,5.693538E-3,-1.2598198E-2,-1.25978645E-2,-4.4109323E-3,-1.4199423E-2,-4.7312092E-2],"split_indices":[24,0,4,0,0,22,9,24,24,0,0,0,0,0,0],"split_type":[0,0,0,0,0,0,0,0,0,0,0,0,0,0,0],"sum_hessian":[8.7E1,3.2E1,5.5E1,1.6E1,1.6E1,3.9E1,1.6E1,1.7E1,2.2E1,1.3E1,3E0,3E0,1.4E1,8E0,1.4E1],"tree_param":{"num_deleted":"0","num_feature":"27","num_nodes":"15","size_leaf_vector":"1"}},{"base_weights":[-1.7165412E-1,2.2323482E0,-1.1934968E0,4.2629316E-2,1.7146781E-2,-4.694202E-2,-3.8949046E-1,-1.5197579E-2,3.2124773E-2,-4.39523E-3,5.567439E-3],"categories":[],"categories_nodes":[],"categories_segments":[],"categories_sizes":[],"default_left":[0,0,0,0,0,0,0,0,0,0,0],"id":69,"left_children":[1,3,5,-1,-1,-1,7,-1,9,-1,-1],"loss_changes":[2.1392435E2,1.8576859E1,1.08372505E2,0E0,0E0,0E0,1.4021213E1,0E0,4.1026707E0,0E0,0E0],"parents":[2147483647,0,0,1,1,2,2,6,6,8,8],"right_children":[2,4,6,-1,-1,-1,8,-1,10,-1,-1],"split_conditions":[8.6E1,2.0119085E1,5.4790234E1,4.2629316E-2,1.7146781E-2,-4.694202E-2,8.88E1,-1.5197579E-2,6.3841257E0,-4.39523E-3,5.567439E-3],"split_indices":[24,0,26,0,0,0,24,0,10,0,0],"split_type":[0,0,0,0,0,0,0,0,0,0,0],"sum_hessian":[8.5E1,2.5E1,6E1,1.2E1,1.3E1,1.5E1,4.5E1,1.6E1,2.9E1,1.5E1,1.4E1],"tree_param":{"num_deleted":"0","num_feature":"27","num_nodes":"11","size_leaf_vector":"1"}},{"base_weights":[3.140049E-2,-4.637249E-2,7.510298E-1,4.3005995E-2,6.0848586E-2,-6.543172E-1,6.269847E-1,-1.4397908E-2,-4.3109413E-3,1.1895737E-2,-1.3032572E-2],"categories":[],"categories_nodes":[],"categories_segments":[],"categories_sizes":[],"default_left":[0,0,0,0,0,0,0,0,0,0,0],"id":70,"left_children":[1,-1,3,-1,5,7,9,-1,-1,-1,-1],"loss_changes":[2.2652133E2,0E0,1.25265366E2,0E0,2.470312E1,3.313099E0,1.3840763E1,0E0,0E0,0E0,0E0],"parents":[2147483647,0,0,2,2,4,4,5,5,6,6],"right_children":[2,-1,4,-1,6,8,10,-1,-1,-1,-1],"split_conditions":[5.4790234E1,-4.637249E-2,2.7790158E0,4.3005995E-2,3.955988E0,7.597414E1,1.1207113E2,-1.4397908E-2,-4.3109413E-3,1.1895737E-2,-1.3032572E-2],"split_indices":[26,0,19,0,19,26,3,0,0,0,0],"split_type":[0,0,0,0,0,0,0,0,0,0,0],"sum_hessian":[9E1,1.5E1,7.5E1,1.6E1,5.9E1,2.6E1,3.3E1,1.1E1,1.5E1,2.9E1,4E0],"tree_param":{"num_deleted":"0","num_feature":"27","num_nodes":"11","size_leaf_vector":"1"}},{"base_weights":[-4.653448E-2,2.1456876E0,-1.007219E0,4.1724045E-2,1.6668089E-2,-4.4992883E-2,-3.25949E-1,5.471171E-3,-6.6661376E-1,-1.4617486E-2,-4.340901E-3],"categories":[],"categories_nodes":[],"categories_segments":[],"categories_sizes":[],"default_left":[0,0,0,0,0,0,0,0,0,0,0],"id":71,"left_children":[1,3,5,-1,-1,-1,7,-1,9,-1,-1],"loss_changes":[1.727499E2,1.7236649E1,8.749579E1,0E0,0E0,0E0,1.1392523E1,0E0,4.010909E0,0E0,0E0],"parents":[2147483647,0,0,1,1,2,2,6,6,8,8],"right_children":[2,4,6,-1,-1,-1,8,-1,10,-1,-1],"split_conditions":[8.6E1,3.7208435E1,5.4790234E1,4.1724045E-2,1.6668089E-2,-4.4992883E-2,5.9742374E1,5.471171E-3,8.88E1,-1.4617486E-2,-4.340901E-3],"split_indices":[24,1,26,0,0,0,26,0,24,0,0],"split_type":[0,0,0,0,0,0,0,0,0,0,0],"sum_hessian":[8E1,2.4E1,5.6E1,1.1E1,1.3E1,1.2E1,4.4E1,1.4E1,3E1,1.3E1,1.7E1],"tree_param":{"num_deleted":"0","num_feature":"27","num_nodes":"11","size_leaf_vector":"1"}},{"base_weights":[1.0929669E-1,-4.4941403E-2,8.050976E-1,4.218513E-2,5.8602743E-2,-5.996387E-1,5.710225E-1,-1.3628404E-2,-4.3033087E-3,1.1184448E-2,-1.2623989E-2],"categories":[],"categories_nodes":[],"categories_segments":[],"categories_sizes":[],"default_left":[0,0,0,0,0,0,0,0,0,0,0],"id":72,"left_children":[1,-1,3,-1,5,7,9,-1,-1,-1,-1],"loss_changes":[2.080696E2,0E0,1.2394064E2,0E0,1.9230978E1,2.5120153E0,1.2526244E1,0E0,0E0,0E0,0E0],"parents":[2147483647,0,0,2,2,4,4,5,5,6,6],"right_children":[2,-1,4,-1,6,8,10,-1,-1,-1,-1],"split_conditions":[5.4790234E1,-4.4941403E-2,2.7526374E0,4.218513E-2,9.871761E2,7.597414E1,1.1207113E2,-1.3628404E-2,-4.3033087E-3,1.1184448E-2,-1.2623989E-2],"split_indices":[26,0,22,0,4,26,3,0,0,0,0],"split_type":[0,0,0,0,0,0,0,0,0,0,0],"sum_hessian":[8.6E1,1.4E1,7.2E1,1.7E1,5.5E1,2.4E1,3.1E1,9E0,1.5E1,2.7E1,4E0],"tree_param":{"num_deleted":"0","num_feature":"27","num_nodes":"11","size_leaf_vector":"1"}},{"base_weights":[1.5114869E-2,2.2755463E0,-1.0968205E0,4.1525982E-2,1.6301297E-2,-4.4591166E-2,-3.2104415E-1,5.2981526E-3,-7.1166825E-1,-1.4315554E-2,-4.207069E-3],"categories":[],"categories_nodes":[],"categories_segments":[],"categories_sizes":[],"default_left":[0,0,0,0,0,0,0,0,0,0,0],"id":73,"left_children":[1,3,5,-1,-1,-1,7,-1,9,-1,-1],"loss_changes":[2.2870667E2,2.1076782E1,1.0125557E2,0E0,0E0,0E0,1.3001371E1,0E0,3.734538E0,0E0,0E0],"parents":[2147483647,0,0,1,1,2,2,6,6,8,8],"right_children":[2,4,6,-1,-1,-1,8,-1,10,-1,-1],"split_conditions":[8.6E1,3.7208435E1,5.4790234E1,4.1525982E-2,1.6301297E-2,-4.4591166E-2,5.9742374E1,5.2981526E-3,8.88E1,-1.4315554E-2,-4.207069E-3],"split_indices":[24,1,26,0,0,0,26,0,24,0,0],"split_type":[0,0,0,0,0,0,0,0,0,0,0],"sum_hessian":[8.9E1,2.9E1,6E1,1.6E1,1.3E1,1.5E1,4.5E1,1.6E1,2.9E1,1.5E1,1.4E1],"tree_param":{"num_deleted":"0","num_feature":"27","num_nodes":"11","size_leaf_vector":"1"}},{"base_weights":[-1.4287253E-1,-4.4358727E-2,5.9292597E-1,2.0522993E0,-3.512044E-1,4.0236775E-2,1.642338E-2,-1.4244478E-2,3.8375486E-2,-4.194128E-3,5.2115708E-3],"categories":[],"categories_nodes":[],"categories_segments":[],"categories_sizes":[],"default_left":[0,0,0,0,0,0,0,0,0,0,0],"id":74,"left_children":[1,-1,3,5,7,-1,-1,-1,9,-1,-1],"loss_changes":[2.1396843E2,0E0,1.05436516E2,1.9174263E1,1.2669468E1,0E0,0E0,0E0,3.7781527E0,0E0,0E0],"parents":[2147483647,0,0,2,2,3,3,4,4,8,8],"right_children":[2,-1,4,6,8,-1,-1,-1,10,-1,-1],"split_conditions":[5.4790234E1,-4.4358727E-2,8.6E1,3.056842E1,8.88E1,4.0236775E-2,1.642338E-2,-1.4244478E-2,4.9557526E2,-4.194128E-3,5.2115708E-3],"split_indices":[26,0,24,1,24,0,0,0,4,0,0],"split_type":[0,0,0,0,0,0,0,0,0,0,0],"sum_hessian":[9.2E1,1.7E1,7.5E1,2.9E1,4.6E1,1.3E1,1.6E1,1.6E1,3E1,1.5E1,1.5E1],"tree_param":{"num_deleted":"0","num_feature":"27","num_nodes":"11","size_leaf_vector":"1"}},{"base_weights":[-1.0609887E-1,2.122091E0,-1.2182289E0,4.0070854E-2,1.5932497E-2,-1.7085662E0,1.705522E-1,-2.4560213E0,-4.092525E-3,5.115132E-3,-1.04963565E-2,-1.3188503E-2,-4.364297E-2],"categories":[],"categories_nodes":[],"categories_segments":[],"categories_sizes":[],"default_left":[0,0,0,0,0,0,0,0,0,0,0,0,0],"id":75,"left_children":[1,3,5,-1,-1,7,9,11,-1,-1,-1,-1,-1],"loss_changes":[2.0082814E2,1.743892E1,3.7063828E1,0E0,0E0,4.14068E1,3.1452518E0,2.537732E1,0E0,0E0,0E0,0E0,0E0],"parents":[2147483647,0,0,1,1,2,2,5,5,6,6,7,7],"right_children":[2,4,6,-1,-1,8,10,12,-1,-1,-1,-1,-1],"split_conditions":[8.6E1,2.4591667E1,4.042719E0,4.0070854E-2,1.5932497E-2,1E2,1.1207113E2,8.88E1,-4.092525E-3,5.115132E-3,-1.04963565E-2,-1.3188503E-2,-4.364297E-2],"split_indices":[24,0,19,0,0,24,3,24,0,0,0,0,0],"split_type":[0,0,0,0,0,0,0,0,0,0,0,0,0],"sum_hessian":[7.9E1,2.6E1,5.3E1,1.3E1,1.3E1,3.9E1,1.4E1,2.5E1,1.4E1,1.2E1,2E0,9E0,1.6E1],"tree_param":{"num_deleted":"0","num_feature":"27","num_nodes":"13","size_leaf_vector":"1"}},{"base_weights":[1.0422197E-1,2.002323E0,-9.1983664E-1,3.9381098E-2,1.595262E-2,-4.1983508E-2,-2.6865214E-1,5.070802E-3,-6.1382174E-1,-1.3479396E-2,-4.0647117E-3],"categories":[],"categories_nodes":[],"categories_segments":[],"categories_sizes":[],"default_left":[0,0,0,0,0,0,0,0,0,0,0],"id":76,"left_children":[1,3,5,-1,-1,-1,7,-1,9,-1,-1],"loss_changes":[1.5539938E2,1.715342E1,7.191817E1,0E0,0E0,0E0,9.273605E0,0E0,2.882512E0,0E0,0E0],"parents":[2147483647,0,0,1,1,2,2,6,6,8,8],"right_children":[2,4,6,-1,-1,-1,8,-1,10,-1,-1],"split_conditions":[8.6E1,2.4591667E1,5.4790234E1,3.9381098E-2,1.595262E-2,-4.1983508E-2,5.9742374E1,5.070802E-3,8.88E1,-1.3479396E-2,-4.0647117E-3],"split_indices":[24,0,26,0,0,0,26,0,24,0,0],"split_type":[0,0,0,0,0,0,0,0,0,0,0],"sum_hessian":[7.8E1,2.7E1,5.1E1,1.2E1,1.5E1,1.1E1,4E1,1.4E1,2.6E1,1.1E1,1.5E1],"tree_param":{"num_deleted":"0","num_feature":"27","num_nodes":"11","size_leaf_vector":"1"}},{"base_weights":[6.874133E-2,2.0152602E0,-1.039946E0,3.904777E-2,1.5848521E-2,-4.2137787E-2,-3.210635E-1,-1.3567301E-2,2.4841435E-2,-4.0037627E-3,4.9505425E-3],"categories":[],"categories_nodes":[],"categories_segments":[],"categories_sizes":[],"default_left":[0,0,0,0,0,0,0,0,0,0,0],"id":77,"left_children":[1,3,5,-1,-1,-1,7,-1,9,-1,-1],"loss_changes":[1.9632304E2,2.040448E1,8.4044174E1,0E0,0E0,0E0,1.0228079E1,0E0,3.3144119E0,0E0,0E0],"parents":[2147483647,0,0,1,1,2,2,6,6,8,8],"right_children":[2,4,6,-1,-1,-1,8,-1,10,-1,-1],"split_conditions":[8.6E1,3.056842E1,5.4790234E1,3.904777E-2,1.5848521E-2,-4.2137787E-2,8.88E1,-1.3567301E-2,6.3841257E0,-4.0037627E-3,4.9505425E-3],"split_indices":[24,1,26,0,0,0,24,0,10,0,0],"split_type":[0,0,0,0,0,0,0,0,0,0,0],"sum_hessian":[8.9E1,3.2E1,5.7E1,1.5E1,1.7E1,1.4E1,4.3E1,1.4E1,2.9E1,1.5E1,1.4E1],"tree_param":{"num_deleted":"0","num_feature":"27","num_nodes":"11","size_leaf_vector":"1"}},{"base_weights":[2.4877912E-1,3.886887E-2,-3.5579428E-1,-4.0065378E-2,7.881848E-2,-6.1758864E-1,5.6024516E-1,-1.3010564E-2,-3.939351E-3,1.1290648E-2,-1.2336514E-2],"categories":[],"categories_nodes":[],"categories_segments":[],"categories_sizes":[],"default_left":[0,0,0,0,0,0,0,0,0,0,0],"id":78,"left_children":[1,-1,3,-1,5,7,9,-1,-1,-1,-1],"loss_changes":[1.3262662E2,0E0,7.736354E1,0E0,2.046214E1,2.4727297E0,1.4681301E1,0E0,0E0,0E0,0E0],"parents":[2147483647,0,0,2,2,4,4,5,5,6,6],"right_children":[2,-1,4,-1,6,8,10,-1,-1,-1,-1],"split_conditions":[2.7526374E0,3.886887E-2,5.4790234E1,-4.0065378E-2,9.871761E2,7.597414E1,4.728017E0,-1.3010564E-2,-3.939351E-3,1.1290648E-2,-1.2336514E-2],"split_indices":[22,0,26,0,4,26,9,0,0,0,0],"split_type":[0,0,0,0,0,0,0,0,0,0,0],"sum_hessian":[8.3E1,1.5E1,6.8E1,9E0,5.9E1,2.4E1,3.5E1,1.1E1,1.3E1,3E1,5E0],"tree_param":{"num_deleted":"0","num_feature":"27","num_nodes":"11","size_leaf_vector":"1"}},{"base_weights":[-3.0965036E-1,-4.1616462E-2,4.883865E-1,1.9042124E0,-3.37923E-1,3.6640458E-2,1.5097942E-2,-1.3486441E-2,4.871075E-2,-3.74811E-3,4.7182846E-3],"categories":[],"categories_nodes":[],"categories_segments":[],"categories_sizes":[],"default_left":[0,0,0,0,0,0,0,0,0,0,0],"id":79,"left_children":[1,-1,3,5,7,-1,-1,-1,9,-1,-1],"loss_changes":[1.7369823E2,0E0,7.317792E1,1.1291946E1,1.006394E1,0E0,0E0,0E0,2.5780497E0,0E0,0E0],"parents":[2147483647,0,0,2,2,3,3,4,4,8,8],"right_children":[2,-1,4,6,8,-1,-1,-1,10,-1,-1],"split_conditions":[5.4790234E1,-4.1616462E-2,8.6E1,1.9610619E1,8.88E1,3.6640458E-2,1.5097942E-2,-1.3486441E-2,3.562103E0,-3.74811E-3,4.7182846E-3],"split_indices":[26,0,24,0,24,0,0,0,8,0,0],"split_type":[0,0,0,0,0,0,0,0,0,0,0],"sum_hessian":[7.8E1,1.7E1,6.1E1,2.2E1,3.9E1,1E1,1.2E1,1.4E1,2.5E1,1.2E1,1.3E1],"tree_param":{"num_deleted":"0","num_feature":"27","num_nodes":"11","size_leaf_vector":"1"}},{"base_weights":[1.3875954E-1,2.0719001E0,-9.377771E-1,3.7726384E-2,1.4943601E-2,-4.012795E-2,-2.9804602E-1,4.767542E-3,-6.700874E-1,-1.315865E-2,-3.8612925E-3],"categories":[],"categories_nodes":[],"categories_segments":[],"categories_sizes":[],"default_left":[0,0,0,0,0,0,0,0,0,0,0],"id":80,"left_children":[1,3,5,-1,-1,-1,7,-1,9,-1,-1],"loss_changes":[1.7467403E2,1.712709E1,6.803341E1,0E0,0E0,0E0,1.03346815E1,0E0,2.7819166E0,0E0,0E0],"parents":[2147483647,0,0,1,1,2,2,6,6,8,8],"right_children":[2,4,6,-1,-1,-1,8,-1,10,-1,-1],"split_conditions":[8.6E1,2.0119085E1,5.4790234E1,3.7726384E-2,1.4943601E-2,-4.012795E-2,5.9742374E1,4.767542E-3,8.88E1,-1.315865E-2,-3.8612925E-3],"split_indices":[24,0,26,0,0,0,26,0,24,0,0],"split_type":[0,0,0,0,0,0,0,0,0,0,0],"sum_hessian":[8.2E1,2.9E1,5.3E1,1.6E1,1.3E1,1.2E1,4.1E1,1.5E1,2.6E1,1.4E1,1.2E1],"tree_param":{"num_deleted":"0","num_feature":"27","num_nodes":"11","size_leaf_vector":"1"}},{"base_weights":[-6.00373E-3,-4.0280987E-2,7.28501E-1,3.7226867E-2,1.1634361E-1,-4.99015E-1,4.7807705E-1,-1.1597304E-2,-3.7354736E-3,9.54507E-3,-1.1583435E-2],"categories":[],"categories_nodes":[],"categories_segments":[],"categories_sizes":[],"default_left":[0,0,0,0,0,0,0,0,0,0,0],"id":81,"left_children":[1,-1,3,-1,5,7,9,-1,-1,-1,-1],"loss_changes":[1.726038E2,0E0,7.772456E1,0E0,1.1368357E1,1.2652965E0,9.892369E0,0E0,0E0,0E0,0E0],"parents":[2147483647,0,0,2,2,4,4,5,5,6,6],"right_children":[2,-1,4,-1,6,8,10,-1,-1,-1,-1],"split_conditions":[5.4790234E1,-4.0280987E-2,2.4777904E0,3.7226867E-2,9.871761E2,7.597414E1,1.1207113E0,-1.1597304E-2,-3.7354736E-3,9.54507E-3,-1.1583435E-2],"split_indices":[26,0,21,0,4,26,12,0,0,0,0],"split_type":[0,0,0,0,0,0,0,0,0,0,0],"sum_hessian":[7.8E1,1.5E1,6.3E1,1.4E1,4.9E1,1.8E1,3.1E1,6E0,1.2E1,2.7E1,4E0],"tree_param":{"num_deleted":"0","num_feature":"27","num_nodes":"11","size_leaf_vector":"1"}},{"base_weights":[-3.8186904E-2,1.9021862E0,-1.0077575E0,3.6876116E-2,1.4927975E-2,-3.9909914E-2,-2.8043368E-1,-1.2986137E-2,7.367842E-2,-3.6706564E-3,4.5913314E-3],"categories":[],"categories_nodes":[],"categories_segments":[],"categories_sizes":[],"default_left":[0,0,0,0,0,0,0,0,0,0,0],"id":82,"left_children":[1,3,5,-1,-1,-1,7,-1,9,-1,-1],"loss_changes":[1.7499919E2,1.6994919E1,8.5256454E1,0E0,0E0,0E0,1.0960283E1,0E0,2.8654628E0,0E0,0E0],"parents":[2147483647,0,0,1,1,2,2,6,6,8,8],"right_children":[2,4,6,-1,-1,-1,8,-1,10,-1,-1],"split_conditions":[8.6E1,1.7246237E1,5.4790234E1,3.6876116E-2,1.4927975E-2,-3.9909914E-2,8.88E1,-1.2986137E-2,3.498346E1,-3.6706564E-3,4.5913314E-3],"split_indices":[24,2,26,0,0,0,24,0,2,0,0],"split_type":[0,0,0,0,0,0,0,0,0,0,0],"sum_hessian":[9.1E1,3E1,6.1E1,1.4E1,1.6E1,1.6E1,4.5E1,1.5E1,3E1,1.3E1,1.7E1],"tree_param":{"num_deleted":"0","num_feature":"27","num_nodes":"11","size_leaf_vector":"1"}},{"base_weights":[9.927125E-2,1.9277084E0,-9.250965E-1,3.647027E-2,1.4735705E-2,-3.886596E-2,-3.221158E-1,-1.2829085E-2,5.9039206E-3,-3.7715514E-3,4.44139E-3],"categories":[],"categories_nodes":[],"categories_segments":[],"categories_sizes":[],"default_left":[0,0,0,0,0,0,0,0,0,0,0],"id":83,"left_children":[1,3,5,-1,-1,-1,7,-1,9,-1,-1],"loss_changes":[1.722256E2,1.7836563E1,6.7218E1,0E0,0E0,0E0,9.29134E0,0E0,2.8704758E0,0E0,0E0],"parents":[2147483647,0,0,1,1,2,2,6,6,8,8],"right_children":[2,4,6,-1,-1,-1,8,-1,10,-1,-1],"split_conditions":[8.6E1,2.4591667E1,5.4790234E1,3.647027E-2,1.4735705E-2,-3.886596E-2,8.88E1,-1.2829085E-2,6.3841257E0,-3.7715514E-3,4.44139E-3],"split_indices":[24,0,26,0,0,0,24,0,10,0,0],"split_type":[0,0,0,0,0,0,0,0,0,0,0],"sum_hessian":[9E1,3.2E1,5.8E1,1.6E1,1.6E1,1.3E1,4.5E1,1.5E1,3E1,1.6E1,1.4E1],"tree_param":{"num_deleted":"0","num_feature":"27","num_nodes":"11","size_leaf_vector":"1"}},{"base_weights":[2.6086219E-2,1.8959482E0,-9.6958363E-1,3.581641E-2,1.4545916E-2,-3.872096E-2,-3.1574205E-1,-1.2685444E-2,6.1552364E-2,-3.611978E-3,4.460955E-3],"categories":[],"categories_nodes":[],"categories_segments":[],"categories_sizes":[],"default_left":[0,0,0,0,0,0,0,0,0,0,0],"id":84,"left_children":[1,3,5,-1,-1,-1,7,-1,9,-1,-1],"loss_changes":[1.7684421E2,1.7048523E1,7.451004E1,0E0,0E0,0E0,1.089684E1,0E0,2.668413E0,0E0,0E0],"parents":[2147483647,0,0,1,1,2,2,6,6,8,8],"right_children":[2,4,6,-1,-1,-1,8,-1,10,-1,-1],"split_conditions":[8.6E1,2.0119085E1,5.4790234E1,3.581641E-2,1.4545916E-2,-3.872096E-2,8.88E1,-1.2685444E-2,3.7118816E1,-3.611978E-3,4.460955E-3],"split_indices":[24,0,26,0,0,0,24,0,2,0,0],"split_type":[0,0,0,0,0,0,0,0,0,0,0],"sum_hessian":[9.3E1,3.2E1,6.1E1,1.6E1,1.6E1,1.5E1,4.6E1,1.7E1,2.9E1,1.3E1,1.6E1],"tree_param":{"num_deleted":"0","num_feature":"27","num_nodes":"11","size_leaf_vector":"1"}},{"base_weights":[3.181908E-2,1.9334668E0,-9.1955334E-1,3.5612732E-2,1.4104837E-2,-3.8063627E-2,-2.638632E-1,4.4255196E-3,-5.787759E-1,-1.2215842E-2,-3.6661236E-3],"categories":[],"categories_nodes":[],"categories_segments":[],"categories_sizes":[],"default_left":[0,0,0,0,0,0,0,0,0,0,0],"id":85,"left_children":[1,3,5,-1,-1,-1,7,-1,9,-1,-1],"loss_changes":[1.5736699E2,1.483197E1,7.008E1,0E0,0E0,0E0,8.324494E0,0E0,2.5909367E0,0E0,0E0],"parents":[2147483647,0,0,1,1,2,2,6,6,8,8],"right_children":[2,4,6,-1,-1,-1,8,-1,10,-1,-1],"split_conditions":[8.6E1,2.4591667E1,5.4790234E1,3.5612732E-2,1.4104837E-2,-3.8063627E-2,5.9742374E1,4.4255196E-3,8.88E1,-1.2215842E-2,-3.6661236E-3],"split_indices":[24,0,26,0,0,0,26,0,24,0,0],"split_type":[0,0,0,0,0,0,0,0,0,0,0],"sum_hessian":[8.5E1,2.8E1,5.7E1,1.5E1,1.3E1,1.4E1,4.3E1,1.5E1,2.8E1,1.3E1,1.5E1],"tree_param":{"num_deleted":"0","num_feature":"27","num_nodes":"11","size_leaf_vector":"1"}},{"base_weights":[-3.5226293E-2,1.9081297E0,-9.436472E-1,3.5155848E-2,1.39088E-2,-3.7768587E-2,-3.0522087E-1,-1.227024E-2,2.8974963E-2,-3.5337105E-3,4.3019187E-3],"categories":[],"categories_nodes":[],"categories_segments":[],"categories_sizes":[],"default_left":[0,0,0,0,0,0,0,0,0,0,0],"id":86,"left_children":[1,3,5,-1,-1,-1,7,-1,9,-1,-1],"loss_changes":[1.6068529E2,1.4481346E1,7.105509E1,0E0,0E0,0E0,9.316192E0,0E0,2.6222522E0,0E0,0E0],"parents":[2147483647,0,0,1,1,2,2,6,6,8,8],"right_children":[2,4,6,-1,-1,-1,8,-1,10,-1,-1],"split_conditions":[8.6E1,3.7208435E1,5.4790234E1,3.5155848E-2,1.39088E-2,-3.7768587E-2,8.88E1,-1.227024E-2,3.7118816E1,-3.5337105E-3,4.3019187E-3],"split_indices":[24,1,26,0,0,0,24,0,2,0,0],"split_type":[0,0,0,0,0,0,0,0,0,0,0],"sum_hessian":[8.9E1,2.8E1,6.1E1,1.5E1,1.3E1,1.5E1,4.6E1,1.6E1,3E1,1.5E1,1.5E1],"tree_param":{"num_deleted":"0","num_feature":"27","num_nodes":"11","size_leaf_vector":"1"}},{"base_weights":[-1.7460011E-3,1.8647145E0,-9.179767E-1,3.406942E-2,1.3685615E-2,-3.687918E-2,-3.0376202E-1,-1.2053362E-2,1.623215E-2,-3.571053E-3,4.270371E-3],"categories":[],"categories_nodes":[],"categories_segments":[],"categories_sizes":[],"default_left":[0,0,0,0,0,0,0,0,0,0,0],"id":87,"left_children":[1,3,5,-1,-1,-1,7,-1,9,-1,-1],"loss_changes":[1.4023056E2,1.210022E1,5.9214127E1,0E0,0E0,0E0,7.7699995E0,0E0,2.3775852E0,0E0,0E0],"parents":[2147483647,0,0,1,1,2,2,6,6,8,8],"right_children":[2,4,6,-1,-1,-1,8,-1,10,-1,-1],"split_conditions":[8.6E1,1.8720556E1,5.4790234E1,3.406942E-2,1.3685615E-2,-3.687918E-2,8.88E1,-1.2053362E-2,5.9136664E2,-3.571053E-3,4.270371E-3],"split_indices":[24,0,26,0,0,0,24,0,4,0,0],"split_type":[0,0,0,0,0,0,0,0,0,0,0],"sum_hessian":[8E1,2.6E1,5.4E1,1.4E1,1.2E1,1.3E1,4.1E1,1.4E1,2.7E1,1.4E1,1.3E1],"tree_param":{"num_deleted":"0","num_feature":"27","num_nodes":"11","size_leaf_vector":"1"}},{"base_weights":[5.5606026E-2,1.7941384E0,-9.644924E-1,3.4410004E-2,1.3875887E-2,-3.6778275E-2,-3.0087742E-1,-1.1840228E-2,1.4188043E-3,-3.5203423E-3,4.063465E-3],"categories":[],"categories_nodes":[],"categories_segments":[],"categories_sizes":[],"default_left":[0,0,0,0,0,0,0,0,0,0,0],"id":88,"left_children":[1,3,5,-1,-1,-1,7,-1,9,-1,-1],"loss_changes":[1.6311658E2,1.6559914E1,6.5516136E1,0E0,0E0,0E0,7.3374653E0,0E0,2.2933607E0,0E0,0E0],"parents":[2147483647,0,0,1,1,2,2,6,6,8,8],"right_children":[2,4,6,-1,-1,-1,8,-1,10,-1,-1],"split_conditions":[8.6E1,3.7208435E1,5.4790234E1,3.4410004E-2,1.3875887E-2,-3.6778275E-2,8.88E1,-1.1840228E-2,5.9136664E2,-3.5203423E-3,4.063465E-3],"split_indices":[24,1,26,0,0,0,24,0,4,0,0],"split_type":[0,0,0,0,0,0,0,0,0,0,0],"sum_hessian":[9E1,3.3E1,5.7E1,1.6E1,1.7E1,1.5E1,4.2E1,1.4E1,2.8E1,1.5E1,1.3E1],"tree_param":{"num_deleted":"0","num_feature":"27","num_nodes":"11","size_leaf_vector":"1"}},{"base_weights":[-3.952168E-2,1.7912261E0,-9.397385E-1,3.3878643E-2,1.3611821E-2,-3.6471393E-2,-2.9562274E-1,-1.1804489E-2,2.4862044E-2,-3.4806733E-3,4.1398364E-3],"categories":[],"categories_nodes":[],"categories_segments":[],"categories_sizes":[],"default_left":[0,0,0,0,0,0,0,0,0,0,0],"id":89,"left_children":[1,3,5,-1,-1,-1,7,-1,9,-1,-1],"loss_changes":[1.5495378E2,1.443998E1,6.923215E1,0E0,0E0,0E0,8.562405E0,0E0,2.4804163E0,0E0,0E0],"parents":[2147483647,0,0,1,1,2,2,6,6,8,8],"right_children":[2,4,6,-1,-1,-1,8,-1,10,-1,-1],"split_conditions":[8.6E1,2.4591667E1,5.4790234E1,3.3878643E-2,1.3611821E-2,-3.6471393E-2,8.88E1,-1.1804489E-2,6.3841257E0,-3.4806733E-3,4.1398364E-3],"split_indices":[24,0,26,0,0,0,24,0,10,0,0],"split_type":[0,0,0,0,0,0,0,0,0,0,0],"sum_hessian":[9.2E1,3E1,6.2E1,1.5E1,1.5E1,1.6E1,4.6E1,1.6E1,3E1,1.5E1,1.5E1],"tree_param":{"num_deleted":"0","num_feature":"27","num_nodes":"11","size_leaf_vector":"1"}},{"base_weights":[6.0448285E-2,1.8157154E0,-9.392804E-1,3.3607423E-2,1.3437186E-2,-3.597091E-2,-2.3311342E-1,4.130483E-3,-5.739292E-1,-1.1424967E-2,-3.4035288E-3],"categories":[],"categories_nodes":[],"categories_segments":[],"categories_sizes":[],"default_left":[0,0,0,0,0,0,0,0,0,0,0],"id":90,"left_children":[1,3,5,-1,-1,-1,7,-1,9,-1,-1],"loss_changes":[1.5963666E2,1.5203926E1,6.858096E1,0E0,0E0,0E0,7.8308E0,0E0,1.9990435E0,0E0,0E0],"parents":[2147483647,0,0,1,1,2,2,6,6,8,8],"right_children":[2,4,6,-1,-1,-1,8,-1,10,-1,-1],"split_conditions":[8.6E1,2.4591667E1,5.4790234E1,3.3607423E-2,1.3437186E-2,-3.597091E-2,5.9742374E1,4.130483E-3,8.88E1,-1.1424967E-2,-3.4035288E-3],"split_indices":[24,0,26,0,0,0,26,0,24,0,0],"split_type":[0,0,0,0,0,0,0,0,0,0,0],"sum_hessian":[8.9E1,3.2E1,5.7E1,1.7E1,1.5E1,1.6E1,4.1E1,1.6E1,2.5E1,1.3E1,1.2E1],"tree_param":{"num_deleted":"0","num_feature":"27","num_nodes":"11","size_leaf_vector":"1"}},{"base_weights":[-3.516036E-2,1.7417561E0,-8.617394E-1,3.2806907E-2,1.3159161E-2,-3.5194322E-2,-2.5913665E-1,4.022579E-3,-5.553584E-1,-1.1324543E-2,-3.3679132E-3],"categories":[],"categories_nodes":[],"categories_segments":[],"categories_sizes":[],"default_left":[0,0,0,0,0,0,0,0,0,0,0],"id":91,"left_children":[1,3,5,-1,-1,-1,7,-1,9,-1,-1],"loss_changes":[1.24876945E2,1.1505577E1,5.9106144E1,0E0,0E0,0E0,7.3722005E0,0E0,2.2375183E0,0E0,0E0],"parents":[2147483647,0,0,1,1,2,2,6,6,8,8],"right_children":[2,4,6,-1,-1,-1,8,-1,10,-1,-1],"split_conditions":[8.6E1,2.4591667E1,5.4790234E1,3.2806907E-2,1.3159161E-2,-3.5194322E-2,5.9742374E1,4.022579E-3,8.88E1,-1.1324543E-2,-3.3679132E-3],"split_indices":[24,0,26,0,0,0,26,0,24,0,0],"split_type":[0,0,0,0,0,0,0,0,0,0,0],"sum_hessian":[8.3E1,2.6E1,5.7E1,1.3E1,1.3E1,1.4E1,4.3E1,1.5E1,2.8E1,1.4E1,1.4E1],"tree_param":{"num_deleted":"0","num_feature":"27","num_nodes":"11","size_leaf_vector":"1"}},{"base_weights":[-1.1886136E-1,-3.519787E-2,5.1369107E-1,1.61855E0,-2.6141843E-1,3.224431E-2,1.3124983E-2,-1.1316166E-2,2.0616531E-2,-3.36776E-3,3.913187E-3],"categories":[],"categories_nodes":[],"categories_segments":[],"categories_sizes":[],"default_left":[0,0,0,0,0,0,0,0,0,0,0],"id":92,"left_children":[1,-1,3,5,7,-1,-1,-1,9,-1,-1],"loss_changes":[1.3633272E2,0E0,6.037018E1,1.1848572E1,6.7161655E0,0E0,0E0,0E0,2.1228747E0,0E0,0E0],"parents":[2147483647,0,0,2,2,3,3,4,4,8,8],"right_children":[2,-1,4,6,8,-1,-1,-1,10,-1,-1],"split_conditions":[5.4790234E1,-3.519787E-2,8.6E1,2.4591667E1,8.88E1,3.224431E-2,1.3124983E-2,-1.1316166E-2,5.9136664E2,-3.36776E-3,3.913187E-3],"split_indices":[26,0,24,0,24,0,0,0,4,0,0],"split_type":[0,0,0,0,0,0,0,0,0,0,0],"sum_hessian":[8.6E1,1.7E1,6.9E1,2.8E1,4.1E1,1.2E1,1.6E1,1.3E1,2.8E1,1.4E1,1.4E1],"tree_param":{"num_deleted":"0","num_feature":"27","num_nodes":"11","size_leaf_vector":"1"}},{"base_weights":[1.1260336E-2,3.194263E-2,-4.597779E-1,-1.255517E0,3.6989418E-1,-4.320223E-1,-1.9750612E0,6.1772686E-1,-1.068029E-2,-4.329893E-3,-9.475199E-3,-3.0853119E-2,-9.3772765E-3,1.0767758E-2,3.8906487E-3],"categories":[],"categories_nodes":[],"categories_segments":[],"categories_sizes":[],"default_left":[0,0,0,0,0,0,0,0,0,0,0,0,0,0,0],"id":93,"left_children":[1,-1,3,5,7,9,11,13,-1,-1,-1,-1,-1,-1,-1],"loss_changes":[9.736635E1,0E0,4.9319393E1,2.1663277E1,1.1030958E1,3.5287118E-1,5.6679153E0,1.5246191E0,0E0,0E0,0E0,0E0,0E0,0E0,0E0],"parents":[2147483647,0,0,2,2,3,3,4,4,5,5,6,6,7,7],"right_children":[2,-1,4,6,8,10,12,14,-1,-1,-1,-1,-1,-1,-1],"split_conditions":[9.94E1,3.194263E-2,3.6616912E0,3.2695453E0,1.1207113E2,5.0993533E2,3.57125E0,3.862988E0,-1.068029E-2,-4.329893E-3,-9.475199E-3,-3.0853119E-2,-9.3772765E-3,1.0767758E-2,3.8906487E-3],"split_indices":[25,0,18,19,3,4,16,16,0,0,0,0,0,0,0],"split_type":[0,0,0,0,0,0,0,0,0,0,0,0,0,0,0],"sum_hessian":[8.7E1,1.4E1,7.3E1,3.7E1,3.6E1,1.8E1,1.9E1,3E1,6E0,1.4E1,4E0,1.5E1,4E0,1.9E1,1.1E1],"tree_param":{"num_deleted":"0","num_feature":"27","num_nodes":"15","size_leaf_vector":"1"}},{"base_weights":[-3.7947793E-2,1.6495442E0,-8.810613E-1,3.150275E-2,1.2789475E-2,-3.408117E-2,-2.8920949E-1,-1.1112028E-2,-7.246653E-4,-3.244609E-3,3.9186333E-3],"categories":[],"categories_nodes":[],"categories_segments":[],"categories_sizes":[],"default_left":[0,0,0,0,0,0,0,0,0,0,0],"id":94,"left_children":[1,3,5,-1,-1,-1,7,-1,9,-1,-1],"loss_changes":[1.2807787E2,1.1845177E1,5.643543E1,0E0,0E0,0E0,6.7867403E0,0E0,2.1038065E0,0E0,0E0],"parents":[2147483647,0,0,1,1,2,2,6,6,8,8],"right_children":[2,4,6,-1,-1,-1,8,-1,10,-1,-1],"split_conditions":[8.6E1,2.4591667E1,5.4790234E1,3.150275E-2,1.2789475E-2,-3.408117E-2,8.88E1,-1.1112028E-2,5.9136664E2,-3.244609E-3,3.9186333E-3],"split_indices":[24,0,26,0,0,0,24,0,4,0,0],"split_type":[0,0,0,0,0,0,0,0,0,0,0],"sum_hessian":[8.8E1,2.9E1,5.9E1,1.4E1,1.5E1,1.5E1,4.4E1,1.5E1,2.9E1,1.6E1,1.3E1],"tree_param":{"num_deleted":"0","num_feature":"27","num_nodes":"11","size_leaf_vector":"1"}},{"base_weights":[1.4101665E-2,1.6820078E0,-8.072383E-1,3.1442758E-2,1.2625391E-2,-3.37093E-2,-2.611209E-1,-1.0962765E-2,1.6566277E-2,-3.2101343E-3,3.8523527E-3],"categories":[],"categories_nodes":[],"categories_segments":[],"categories_sizes":[],"default_left":[0,0,0,0,0,0,0,0,0,0,0],"id":95,"left_children":[1,3,5,-1,-1,-1,7,-1,9,-1,-1],"loss_changes":[1.328699E2,1.2842918E1,5.814667E1,0E0,0E0,0E0,7.5110216E0,0E0,2.328576E0,0E0,0E0],"parents":[2147483647,0,0,1,1,2,2,6,6,8,8],"right_children":[2,4,6,-1,-1,-1,8,-1,10,-1,-1],"split_conditions":[8.6E1,2.4591667E1,5.4790234E1,3.1442758E-2,1.2625391E-2,-3.37093E-2,8.88E1,-1.0962765E-2,5.9136664E2,-3.2101343E-3,3.8523527E-3],"split_indices":[24,0,26,0,0,0,24,0,4,0,0],"split_type":[0,0,0,0,0,0,0,0,0,0,0],"sum_hessian":[9.5E1,3.1E1,6.4E1,1.6E1,1.5E1,1.5E1,4.9E1,1.6E1,3.3E1,1.7E1,1.6E1],"tree_param":{"num_deleted":"0","num_feature":"27","num_nodes":"11","size_leaf_vector":"1"}},{"base_weights":[-6.043191E-2,1.5672958E0,-9.013181E-1,3.0774578E-2,1.2503764E-2,-3.327686E-2,-3.1087515E-1,-1.0829853E-2,3.2054053E-3,-3.174185E-3,3.753621E-3],"categories":[],"categories_nodes":[],"categories_segments":[],"categories_sizes":[],"default_left":[0,0,0,0,0,0,0,0,0,0,0],"id":96,"left_children":[1,3,5,-1,-1,-1,7,-1,9,-1,-1],"loss_changes":[1.2049247E2,1.1309639E1,5.165646E1,0E0,0E0,0E0,6.4925485E0,0E0,1.784995E0,0E0,0E0],"parents":[2147483647,0,0,1,1,2,2,6,6,8,8],"right_children":[2,4,6,-1,-1,-1,8,-1,10,-1,-1],"split_conditions":[8.6E1,2.4591667E1,5.4790234E1,3.0774578E-2,1.2503764E-2,-3.327686E-2,8.88E1,-1.0829853E-2,5.0993533E2,-3.174185E-3,3.753621E-3],"split_indices":[24,0,26,0,0,0,24,0,4,0,0],"split_type":[0,0,0,0,0,0,0,0,0,0,0],"sum_hessian":[8.6E1,2.9E1,5.7E1,1.3E1,1.6E1,1.5E1,4.2E1,1.6E1,2.6E1,1.4E1,1.2E1],"tree_param":{"num_deleted":"0","num_feature":"27","num_nodes":"11","size_leaf_vector":"1"}},{"base_weights":[-3.891841E-2,1.541482E0,-8.418522E-1,3.0230017E-2,1.2328868E-2,-3.284995E-2,-2.5590056E-1,-1.0673679E-2,1.4683914E-2,-3.1319316E-3,3.7425978E-3],"categories":[],"categories_nodes":[],"categories_segments":[],"categories_sizes":[],"default_left":[0,0,0,0,0,0,0,0,0,0,0],"id":97,"left_children":[1,3,5,-1,-1,-1,7,-1,9,-1,-1],"loss_changes":[1.1296591E2,1.0839066E1,5.32735E1,0E0,0E0,0E0,6.2513466E0,0E0,1.9537119E0,0E0,0E0],"parents":[2147483647,0,0,1,1,2,2,6,6,8,8],"right_children":[2,4,6,-1,-1,-1,8,-1,10,-1,-1],"split_conditions":[8.6E1,2.4591667E1,5.4790234E1,3.0230017E-2,1.2328868E-2,-3.284995E-2,8.88E1,-1.0673679E-2,5.0993533E2,-3.1319316E-3,3.7425978E-3],"split_indices":[24,0,26,0,0,0,24,0,4,0,0],"split_type":[0,0,0,0,0,0,0,0,0,0,0],"sum_hessian":[8.7E1,2.9E1,5.8E1,1.3E1,1.6E1,1.5E1,4.3E1,1.4E1,2.9E1,1.5E1,1.4E1],"tree_param":{"num_deleted":"0","num_feature":"27","num_nodes":"11","size_leaf_vector":"1"}},{"base_weights":[-3.828076E-2,1.6167333E0,-8.384766E-1,3.0178398E-2,1.2056594E-2,-3.239585E-2,-3.0014575E-1,-1.0604135E-2,-5.2719754E-3,-3.091379E-3,3.5992279E-3],"categories":[],"categories_nodes":[],"categories_segments":[],"categories_sizes":[],"default_left":[0,0,0,0,0,0,0,0,0,0,0],"id":98,"left_children":[1,3,5,-1,-1,-1,7,-1,9,-1,-1],"loss_changes":[1.2187011E2,1.1048119E1,5.0320187E1,0E0,0E0,0E0,6.575943E0,0E0,1.835318E0,0E0,0E0],"parents":[2147483647,0,0,1,1,2,2,6,6,8,8],"right_children":[2,4,6,-1,-1,-1,8,-1,10,-1,-1],"split_conditions":[8.6E1,2.4591667E1,5.4790234E1,3.0178398E-2,1.2056594E-2,-3.239585E-2,8.88E1,-1.0604135E-2,5.9136664E2,-3.091379E-3,3.5992279E-3],"split_indices":[24,0,26,0,0,0,24,0,4,0,0],"split_type":[0,0,0,0,0,0,0,0,0,0,0],"sum_hessian":[9E1,2.9E1,6.1E1,1.5E1,1.4E1,1.5E1,4.6E1,1.7E1,2.9E1,1.6E1,1.3E1],"tree_param":{"num_deleted":"0","num_feature":"27","num_nodes":"11","size_leaf_vector":"1"}},{"base_weights":[2.7385104E-2,-3.2095224E-2,5.872574E-1,2.986343E-2,9.254466E-2,-4.326436E-1,4.9995595E-1,-9.915228E-3,-3.0534696E-3,8.701046E-3,-8.351252E-3],"categories":[],"categories_nodes":[],"categories_segments":[],"categories_sizes":[],"default_left":[0,0,0,0,0,0,0,0,0,0,0],"id":99,"left_children":[1,-1,3,-1,5,7,9,-1,-1,-1,-1],"loss_changes":[1.1828401E2,0E0,5.6614323E1,0E0,1.219849E1,1.3673701E0,5.216219E0,0E0,0E0,0E0,0E0],"parents":[2147483647,0,0,2,2,4,4,5,5,6,6],"right_children":[2,-1,4,-1,6,8,10,-1,-1,-1,-1],"split_conditions":[5.4790234E1,-3.2095224E-2,2.7526374E0,2.986343E-2,8.0769165E2,7.597414E1,1.1207113E2,-9.915228E-3,-3.0534696E-3,8.701046E-3,-8.351252E-3],"split_indices":[26,0,22,0,4,26,3,0,0,0,0],"split_type":[0,0,0,0,0,0,0,0,0,0,0],"sum_hessian":[8.7E1,1.6E1,7.1E1,1.6E1,5.5E1,2.4E1,3.1E1,9E0,1.5E1,2.8E1,3E0],"tree_param":{"num_deleted":"0","num_feature":"27","num_nodes":"11","size_leaf_vector":"1"}},{"base_weights":[-5.819507E-2,1.5507511E0,-8.6162895E-1,2.8712286E-2,1.1677915E-2,-3.1601176E-2,-2.75651E-1,-1.0312333E-2,2.9075256E-2,-3.0108946E-3,3.5347263E-3],"categories":[],"categories_nodes":[],"categories_segments":[],"categories_sizes":[],"default_left":[0,0,0,0,0,0,0,0,0,0,0],"id":100,"left_children":[1,3,5,-1,-1,-1,7,-1,9,-1,-1],"loss_changes":[1.0862878E2,8.899445E0,4.6869915E1,0E0,0E0,0E0,5.9933367E0,0E0,1.5415282E0,0E0,0E0],"parents":[2147483647,0,0,1,1,2,2,6,6,8,8],"right_children":[2,4,6,-1,-1,-1,8,-1,10,-1,-1],"split_conditions":[8.6E1,2.0119085E1,5.4790234E1,2.8712286E-2,1.1677915E-2,-3.1601176E-2,8.88E1,-1.0312333E-2,5.9136664E2,-3.0108946E-3,3.5347263E-3],"split_indices":[24,0,26,0,0,0,24,0,4,0,0],"split_type":[0,0,0,0,0,0,0,0,0,0,0],"sum_hessian":[8.2E1,2.7E1,5.5E1,1.4E1,1.3E1,1.5E1,4E1,1.5E1,2.5E1,1.2E1,1.3E1],"tree_param":{"num_deleted":"0","num_feature":"27","num_nodes":"11","size_leaf_vector":"1"}},{"base_weights":[1.7400626E-2,1.559168E0,-7.537938E-1,2.8976837E-2,1.16248205E-2,-3.0928988E-2,-2.4579816E-1,-1.0150503E-2,-6.1481474E-3,-2.9895145E-3,3.4498433E-3],"categories":[],"categories_nodes":[],"categories_segments":[],"categories_sizes":[],"default_left":[0,0,0,0,0,0,0,0,0,0,0],"id":101,"left_children":[1,3,5,-1,-1,-1,7,-1,9,-1,-1],"loss_changes":[9.986249E1,9.296562E0,4.2298985E1,0E0,0E0,0E0,5.106476E0,0E0,1.7000526E0,0E0,0E0],"parents":[2147483647,0,0,1,1,2,2,6,6,8,8],"right_children":[2,4,6,-1,-1,-1,8,-1,10,-1,-1],"split_conditions":[8.6E1,2.4591667E1,5.4790234E1,2.8976837E-2,1.16248205E-2,-3.0928988E-2,8.88E1,-1.0150503E-2,5.9136664E2,-2.9895145E-3,3.4498433E-3],"split_indices":[24,0,26,0,0,0,24,0,4,0,0],"split_type":[0,0,0,0,0,0,0,0,0,0,0],"sum_hessian":[8.2E1,2.7E1,5.5E1,1.4E1,1.3E1,1.3E1,4.2E1,1.3E1,2.9E1,1.6E1,1.3E1],"tree_param":{"num_deleted":"0","num_feature":"27","num_nodes":"11","size_leaf_vector":"1"}},{"base_weights":[-3.7576903E-2,1.5185928E0,-8.1505567E-1,2.8682597E-2,1.157959E-2,-3.1003546E-2,-2.1669672E-1,3.484455E-3,-4.8552316E-1,-9.9236965E-3,-2.921211E-3],"categories":[],"categories_nodes":[],"categories_segments":[],"categories_sizes":[],"default_left":[0,0,0,0,0,0,0,0,0,0,0],"id":102,"left_children":[1,3,5,-1,-1,-1,7,-1,9,-1,-1],"loss_changes":[1.1254752E2,1.0262962E1,5.3324375E1,0E0,0E0,0E0,5.825438E0,0E0,1.736105E0,0E0,