{"learner":{"attributes":{"scikit_learn":"{\"_estimator_type\": \"regressor\"}"},"feature_names":[],"feature_types":[],"gradient_booster":{"model":{"gbtree_model_param":{"num_parallel_tree":"1","num_trees":"200"},"iteration_indptr":[0,1,2,3,4,5,6,7,8,9,10,11,12,13,14,15,16,17,18,19,20,21,22,23,24,25,26,27,28,29,30,31,32,33,34,35,36,37,38,39,40,41,42,43,44,45,46,47,48,49,50,51,52,53,54,55,56,57,58,59,60,61,62,63,64,65,66,67,68,69,70,71,72,73,74,75,76,77,78,79,80,81,82,83,84,85,86,87,88,89,90,91,92,93,94,95,96,97,98,99,100,101,102,103,104,105,106,107,108,109,110,111,112,113,114,115,116,117,118,119,120,121,122,123,124,125,126,127,128,129,130,131,132,133,134,135,136,137,138,139,140,141,142,143,144,145,146,147,148,149,150,151,152,153,154,155,156,157,158,159,160,161,162,163,164,165,166,167,168,169,170,171,172,173,174,175,176,177,178,179,180,181,182,183,184,185,186,187,188,189,190,191,192,193,194,195,196,197,198,199,200],"tree_info":[0,0,0,0,0,0,0,0,0,0,0,0,0,0,0,0,0,0,0,0,0,0,0,0,0,0,0,0,0,0,0,0,0,0,0,0,0,0,0,0,0,0,0,0,0,0,0,0,0,0,0,0,0,0,0,0,0,0,0,0,0,0,0,0,0,0,0,0,0,0,0,0,0,0,0,0,0,0,0,0,0,0,0,0,0,0,0,0,0,0,0,0,0,0,0,0,0,0,0,0,0,0,0,0,0,0,0,0,0,0,0,0,0,0,0,0,0,0,0,0,0,0,0,0,0,0,0,0,0,0,0,0,0,0,0,0,0,0,0,0,0,0,0,0,0,0,0,0,0,0,0,0,0,0,0,0,0,0,0,0,0,0,0,0,0,0,0,0,0,0,0,0,0,0,0,0,0,0,0,0,0,0,0,0,0,0,0,0,0,0,0,0,0,0,0,0,0,0,0,0],"trees":[{"base_weights":[-1.063704E-2,3.3318898E-1,-1.7905971E0,-2.6562488E0,8.260314E-2,2.496252E-2,-3.3459108E0,-1.5374608E-1,2.2693198E-2],"categories":[],"categories_nodes":[],"categories_segments":[],"categories_sizes":[],"default_left":[0,0,0,0,0,0,0,0,0],"id":0,"left_children":[1,-1,3,5,-1,-1,7,-1,-1],"loss_changes":[1.3811611E3,0E0,2.6281635E2,1.4626074E2,0E0,0E0,8.851935E1,0E0,0E0],"parents":[2147483647,0,0,2,2,3,3,6,6],"right_children":[2,-1,4,6,-1,-1,8,-1,-1],"split_conditions":[2.7790158E0,3.3318898E-1,1E2,9.98E1,8.260314E-2,2.496252E-2,4.353028E0,-1.5374608E-1,2.2693198E-2],"split_indices":[19,0,24,25,0,0,19,0,0],"split_type":[0,0,0,0,0,0,0,0,0],"sum_hessian":[9.3E1,1.6E1,7.7E1,6.3E1,1.4E1,1.1E1,5.2E1,4.7E1,5E0],"tree_param":{"num_deleted":"0","num_feature":"27","num_nodes":"9","size_leaf_vector":"1"}},{"base_weights":[1.512638E-1,3.2149208E-1,-1.754184E0,-2.664955E0,7.945392E-2,2.382922E-2,-3.3397832E0,-1.4650857E-1,-1.8362353E-2],"categories":[],"categories_nodes":[],"categories_segments":[],"categories_sizes":[],"default_left":[0,0,0,0,0,0,0,0,0],"id":1,"left_children":[1,-1,3,5,-1,-1,7,-1,-1],"loss_changes":[1.337582E3,0E0,2.5113708E2,1.3127985E2,0E0,0E0,3.335724E1,0E0,0E0],"parents":[2147483647,0,0,2,2,3,3,6,6],"right_children":[2,-1,4,6,-1,-1,8,-1,-1],"split_conditions":[2.637933E0,3.2149208E-1,1E2,9.98E1,7.945392E-2,2.382922E-2,9.847374E0,-1.4650857E-1,-1.8362353E-2],"split_indices":[18,0,24,25,0,0,22,0,0],"split_type":[0,0,0,0,0,0,0,0,0],"sum_hessian":[8.9E1,1.7E1,7.2E1,5.8E1,1.4E1,1E1,4.8E1,4.4E1,4E0],"tree_param":{"num_deleted":"0","num_feature":"27","num_nodes":"9","size_leaf_vector":"1"}},{"base_weights":[8.689698E-2,3.0801997E-1,-1.4981215E0,-2.373805E0,7.706706E-2,2.3297286E-2,-3.0641923E0,-1.413588E-1,2.2545818E-2],"categories":[],"categories_nodes":[],"categories_segments":[],"categories_sizes":[],"default_left":[0,0,0,0,0,0,0,0,0],"id":2,"left_children":[1,-1,3,5,-1,-1,7,-1,-1],"loss_changes":[1.1454803E3,0E0,2.4160075E2,1.3183435E2,0E0,0E0,7.64563E1,0E0,0E0],"parents":[2147483647,0,0,2,2,3,3,6,6],"right_children":[2,-1,4,6,-1,-1,8,-1,-1],"split_conditions":[2.7790158E0,3.0801997E-1,1E2,9.98E1,7.706706E-2,2.3297286E-2,4.353028E0,-1.413588E-1,2.2545818E-2],"split_indices":[19,0,26,25,0,0,19,0,0],"split_type":[0,0,0,0,0,0,0,0,0],"sum_hessian":[9.5E1,1.6E1,7.9E1,6.3E1,1.6E1,1.2E1,5.1E1,4.6E1,5E0],"tree_param":{"num_deleted":"0","num_feature":"27","num_nodes":"9","size_leaf_vector":"1"}},{"base_weights":[-8.983457E-2,2.9502118E-1,-1.5331314E0,-2.3196485E0,7.3814705E-2,-2.9849815E0,-2.2633609E-1,-1.3126256E-1,1.8215343E-2,2.3211956E-2,-1.2053439E-1],"categories":[],"categories_nodes":[],"categories_segments":[],"categories_sizes":[],"default_left":[0,0,0,0,0,0,0,0,0,0,0],"id":3,"left_children":[1,-1,3,5,-1,7,9,-1,-1,-1,-1],"loss_changes":[1.0242402E3,0E0,2.1698907E2,9.124588E1,0E0,4.0628204E1,3.8479427E1,0E0,0E0,0E0,0E0],"parents":[2147483647,0,0,2,2,3,3,5,5,6,6],"right_children":[2,-1,4,6,-1,8,10,-1,-1,-1,-1],"split_conditions":[2.637933E0,2.9502118E-1,1E2,9.092675E0,7.3814705E-2,7.77609E0,1.1207113E2,-1.3126256E-1,1.8215343E-2,2.3211956E-2,-1.2053439E-1],"split_indices":[18,0,24,22,0,10,3,0,0,0,0],"split_type":[0,0,0,0,0,0,0,0,0,0,0],"sum_hessian":[9.5E1,1.5E1,8E1,6.5E1,1.5E1,4.9E1,1.6E1,4.6E1,3E0,1.3E1,3E0],"tree_param":{"num_deleted":"0","num_feature":"27","num_nodes":"11","size_leaf_vector":"1"}},{"base_weights":[-1.9143185E-1,2.8246242E-1,-1.4734235E0,-2.3304174E0,7.151385E-2,-2.7332604E0,2.1429425E-2,-1.2164634E-1,1.867116E-2],"categories":[],"categories_nodes":[],"categories_segments":[],"categories_sizes":[],"default_left":[0,0,0,0,0,0,0,0,0],"id":4,"left_children":[1,-1,3,5,-1,7,-1,-1,-1],"loss_changes":[8.938983E2,0E0,2.3341663E2,7.734256E1,0E0,4.665677E1,0E0,0E0,0E0],"parents":[2147483647,0,0,2,2,3,3,5,5],"right_children":[2,-1,4,6,-1,8,-1,-1,-1],"split_conditions":[2.5240676E0,2.8246242E-1,1E2,7.77609E0,7.151385E-2,4.2906766E0,2.1429425E-2,-1.2164634E-1,1.867116E-2],"split_indices":[18,0,24,10,0,16,0,0,0],"split_type":[0,0,0,0,0,0,0,0,0],"sum_hessian":[9.6E1,1.4E1,8.2E1,6.5E1,1.7E1,5.7E1,8E0,5.3E1,4E0],"tree_param":{"num_deleted":"0","num_feature":"27","num_nodes":"9","size_leaf_vector":"1"}},{"base_weights":[1.07535765E-1,2.7584517E-1,-1.3890421E0,-2.1208706E0,6.82494E-2,-2.7468433E0,-1.9183956E-1,-1.2099805E-1,1.7000753E-2,2.2803191E-2,-1.1311502E-1],"categories":[],"categories_nodes":[],"categories_segments":[],"categories_sizes":[],"default_left":[0,0,0,0,0,0,0,0,0,0,0],"id":5,"left_children":[1,-1,3,5,-1,7,9,-1,-1,-1,-1],"loss_changes":[9.7409204E2,0E0,1.8268758E2,7.796188E1,0E0,3.4607147E1,3.4411022E1,0E0,0E0,0E0,0E0],"parents":[2147483647,0,0,2,2,3,3,5,5,6,6],"right_children":[2,-1,4,6,-1,8,10,-1,-1,-1,-1],"split_conditions":[2.637933E0,2.7584517E-1,1E2,9.092675E0,6.82494E-2,2.3819395E3,1.1207113E2,-1.2099805E-1,1.7000753E-2,2.2803191E-2,-1.1311502E-1],"split_indices":[18,0,24,22,0,4,3,0,0,0,0],"split_type":[0,0,0,0,0,0,0,0,0,0,0],"sum_hessian":[9.6E1,1.7E1,7.9E1,6.4E1,1.5E1,4.8E1,1.6E1,4.5E1,3E0,1.3E1,3E0],"tree_param":{"num_deleted":"0","num_feature":"27","num_nodes":"11","size_leaf_vector":"1"}},{"base_weights":[1.2995511E-1,2.623432E-1,-1.2323457E0,-1.9814081E0,6.563583E-2,2.2298135E-2,-2.638289E0,-1.20945424E-1,-1.519044E-2],"categories":[],"categories_nodes":[],"categories_segments":[],"categories_sizes":[],"default_left":[0,0,0,0,0,0,0,0,0],"id":6,"left_children":[1,-1,3,5,-1,-1,7,-1,-1],"loss_changes":[7.708498E2,0E0,1.6056183E2,9.938789E1,0E0,0E0,3.3262604E1,0E0,0E0],"parents":[2147483647,0,0,2,2,3,3,6,6],"right_children":[2,-1,4,6,-1,-1,8,-1,-1],"split_conditions":[2.5240676E0,2.623432E-1,1E2,9.98E1,6.563583E-2,2.2298135E-2,7.7024503E0,-1.20945424E-1,-1.519044E-2],"split_indices":[18,0,24,25,0,0,10,0,0],"split_type":[0,0,0,0,0,0,0,0,0],"sum_hessian":[8.8E1,1.5E1,7.3E1,5.8E1,1.5E1,1.2E1,4.6E1,4E1,6E0],"tree_param":{"num_deleted":"0","num_feature":"27","num_nodes":"9","size_leaf_vector":"1"}},{"base_weights":[1.5589978E-2,2.5328618E-1,-1.3326572E0,-2.0424163E0,6.312233E-2,2.002473E-2,-2.5875957E0,-1.16627105E-1,2.0368462E-2],"categories":[],"categories_nodes":[],"categories_segments":[],"categories_sizes":[],"default_left":[0,0,0,0,0,0,0,0,0],"id":7,"left_children":[1,-1,3,5,-1,-1,7,-1,-1],"loss_changes":[7.92141E2,0E0,1.6248392E2,8.825552E1,0E0,0E0,4.4365356E1,0E0,0E0],"parents":[2147483647,0,0,2,2,3,3,6,6],"right_children":[2,-1,4,6,-1,-1,8,-1,-1],"split_conditions":[2.5240676E0,2.5328618E-1,1E2,9.98E1,6.312233E-2,2.002473E-2,4.353028E0,-1.16627105E-1,2.0368462E-2],"split_indices":[18,0,24,25,0,0,19,0,0],"split_type":[0,0,0,0,0,0,0,0,0],"sum_hessian":[9.3E1,1.6E1,7.7E1,6.2E1,1.5E1,1.1E1,5.1E1,4.7E1,4E0],"tree_param":{"num_deleted":"0","num_feature":"27","num_nodes":"9","size_leaf_vector":"1"}},{"base_weights":[1.24367625E-1,2.4638548E-1,-1.2764001E0,-1.9225699E0,6.0435303E-2,-2.7099771E0,-8.0148727E-1,-1.14428066E-1,9.958009E-3,-9.344616E-2,2.2056654E-2],"categories":[],"categories_nodes":[],"categories_segments":[],"categories_sizes":[],"default_left":[0,0,0,0,0,0,0,0,0,0,0],"id":8,"left_children":[1,-1,3,5,-1,7,9,-1,-1,-1,-1],"loss_changes":[7.772699E2,0E0,1.3818512E2,5.2558395E1,0E0,1.03975525E1,5.5064102E1,0E0,0E0,0E0,0E0],"parents":[2147483647,0,0,2,2,3,3,5,5,6,6],"right_children":[2,-1,4,6,-1,8,10,-1,-1,-1,-1],"split_conditions":[2.637933E0,2.4638548E-1,1E2,4.149789E0,6.0435303E-2,4.251472E0,8.88E1,-1.14428066E-1,9.958009E-3,-9.344616E-2,2.2056654E-2],"split_indices":[18,0,24,19,0,16,24,0,0,0,0],"split_type":[0,0,0,0,0,0,0,0,0,0,0],"sum_hessian":[9.2E1,1.7E1,7.5E1,6.1E1,1.4E1,3.5E1,2.6E1,3.4E1,1E0,1.2E1,1.4E1],"tree_param":{"num_deleted":"0","num_feature":"27","num_nodes":"11","size_leaf_vector":"1"}},{"base_weights":[4.737391E-2,2.368804E-1,-1.2313757E0,2.1015769E-1,-1.6465782E0,-9.698699E-2,8.4315157E-1,-2.0048342E0,1.8490173E-2,5.7492394E-2,-4.9087133E-2,-8.8231705E-2,1.9401144E-2],"categories":[],"categories_nodes":[],"categories_segments":[],"categories_sizes":[],"default_left":[0,0,0,0,0,0,0,0,0,0,0,0,0],"id":9,"left_children":[1,-1,3,5,7,-1,9,11,-1,-1,-1,-1,-1],"loss_changes":[7.279345E2,0E0,4.8826836E1,3.3085606E1,4.8287598E1,0E0,2.015506E1,2.1806396E1,0E0,0E0,0E0,0E0,0E0],"parents":[2147483647,0,0,2,2,3,3,4,4,6,6,7,7],"right_children":[2,-1,4,6,8,-1,10,12,-1,-1,-1,-1,-1],"split_conditions":[2.637933E0,2.368804E-1,3.2695453E0,2.7790158E0,2.3819395E3,-9.698699E-2,5.0993533E2,4.353028E0,1.8490173E-2,5.7492394E-2,-4.9087133E-2,-8.8231705E-2,1.9401144E-2],"split_indices":[18,0,19,20,4,0,4,19,0,0,0,0,0],"split_type":[0,0,0,0,0,0,0,0,0,0,0,0,0],"sum_hessian":[9.7E1,1.7E1,8E1,1.8E1,6.2E1,3E0,1.5E1,5.3E1,9E0,1.2E1,3E0,5E1,3E0],"tree_param":{"num_deleted":"0","num_feature":"27","num_nodes":"13","size_leaf_vector":"1"}},{"base_weights":[-5.5434452E-3,2.2707792E-1,-1.2182876E0,5.095318E-1,-1.7833401E0,1.11994E0,-1.545681E0,2.081185E-2,-2.2616644E0,-6.267711E-2,5.7153698E-2,3.214427E-2,-9.499399E-2,-1.0263681E-1,1.8370487E-2],"categories":[],"categories_nodes":[],"categories_segments":[],"categories_sizes":[],"default_left":[0,0,0,0,0,0,0,0,0,0,0,0,0,0,0],"id":10,"left_children":[1,-1,3,5,7,9,11,-1,13,-1,-1,-1,-1,-1,-1],"loss_changes":[6.4113495E2,0E0,7.706076E1,2.682145E1,6.5858826E1,1.4006601E1,1.0925902E1,0E0,3.447841E1,0E0,0E0,0E0,0E0,0E0,0E0],"parents":[2147483647,0,0,2,2,3,3,4,4,5,5,6,6,8,8],"right_children":[2,-1,4,6,8,10,12,-1,14,-1,-1,-1,-1,-1,-1],"split_conditions":[2.7790158E0,2.2707792E-1,3.4301877E0,5.0993533E2,9.98E1,2.5696046E0,2.8535848E0,2.081185E-2,4.353028E0,-6.267711E-2,5.7153698E-2,3.214427E-2,-9.499399E-2,-1.0263681E-1,1.8370487E-2],"split_indices":[19,0,22,4,25,15,17,0,19,0,0,0,0,0,0],"split_type":[0,0,0,0,0,0,0,0,0,0,0,0,0,0,0],"sum_hessian":[9.3E1,1.6E1,7.7E1,1.9E1,5.8E1,1.5E1,4E0,1E1,4.8E1,1E0,1.4E1,1E0,3E0,4.4E1,4E0],"tree_param":{"num_deleted":"0","num_feature":"27","num_nodes":"15","size_leaf_vector":"1"}},{"base_weights":[1.2058203E-1,2.1898164E-1,-1.060004E0,-1.7357148E0,5.571105E-2,2.0331167E-2,-2.2177463E0,-9.999E-2,1.7770138E-2],"categories":[],"categories_nodes":[],"categories_segments":[],"categories_sizes":[],"default_left":[0,0,0,0,0,0,0,0,0],"id":11,"left_children":[1,-1,3,5,-1,-1,7,-1,-1],"loss_changes":[6.0579095E2,0E0,1.333945E2,6.892908E1,0E0,0E0,3.280983E1,0E0,0E0],"parents":[2147483647,0,0,2,2,3,3,6,6],"right_children":[2,-1,4,6,-1,-1,8,-1,-1],"split_conditions":[2.637933E0,2.1898164E-1,1E2,9.98E1,5.571105E-2,2.0331167E-2,4.353028E0,-9.999E-2,1.7770138E-2],"split_indices":[18,0,26,25,0,0,19,0,0],"split_type":[0,0,0,0,0,0,0,0,0],"sum_hessian":[9.6E1,1.7E1,7.9E1,6.2E1,1.7E1,1.1E1,5.1E1,4.7E1,4E0],"tree_param":{"num_deleted":"0","num_feature":"27","num_nodes":"9","size_leaf_vector":"1"}},{"base_weights":[-9.4548546E-2,2.0759763E-1,-1.0726628E0,8.3699524E-1,-1.6568942E0,-5.9673104E-2,1.0580971E0,1.8984985E-2,-2.06439E0,-5.9354838E-2,5.334147E-2,-9.422812E-2,6.971715E-4],"categories":[],"categories_nodes":[],"categories_segments":[],"categories_sizes":[],"default_left":[0,0,0,0,0,0,0,0,0,0,0,0,0],"id":12,"left_children":[1,-1,3,5,7,-1,9,-1,11,-1,-1,-1,-1],"loss_changes":[4.4597504E2,0E0,8.394727E1,1.0690861E1,5.024005E1,0E0,1.2474632E1,0E0,2.4260223E1,0E0,0E0,0E0,0E0],"parents":[2147483647,0,0,2,2,3,3,4,4,6,6,8,8],"right_children":[2,-1,4,6,8,-1,10,-1,12,-1,-1,-1,-1],"split_conditions":[2.3403454E0,2.0759763E-1,3.4301877E0,1E2,9.98E1,-5.9673104E-2,1.5103163E1,1.8984985E-2,2.212766E3,-5.9354838E-2,5.334147E-2,-9.422812E-2,6.971715E-4],"split_indices":[22,0,22,25,25,0,2,0,4,0,0,0,0],"split_type":[0,0,0,0,0,0,0,0,0,0,0,0,0],"sum_hessian":[8.6E1,1.3E1,7.3E1,1.7E1,5.6E1,1E0,1.6E1,9E0,4.7E1,1E0,1.5E1,4.2E1,5E0],"tree_param":{"num_deleted":"0","num_feature":"27","num_nodes":"13","size_leaf_vector":"1"}},{"base_weights":[-1.0639753E-2,2.0259038E-1,-1.080062E0,-1.6466495E0,5.121449E-2,-2.0468402E0,-2.0290375E-1,-8.776455E-2,1.0754699E-2,1.8805504E-2,-8.749706E-2],"categories":[],"categories_nodes":[],"categories_segments":[],"categories_sizes":[],"default_left":[0,0,0,0,0,0,0,0,0,0,0],"id":13,"left_children":[1,-1,3,5,-1,7,9,-1,-1,-1,-1],"loss_changes":[5.1031433E2,0E0,1.065288E2,3.656221E1,0E0,1.2317383E1,2.0279076E1,0E0,0E0,0E0,0E0],"parents":[2147483647,0,0,2,2,3,3,5,5,6,6],"right_children":[2,-1,4,6,-1,8,10,-1,-1,-1,-1],"split_conditions":[2.637933E0,2.0259038E-1,1E2,9.092675E0,5.121449E-2,7.77609E0,1.1207113E2,-8.776455E-2,1.0754699E-2,1.8805504E-2,-8.749706E-2],"split_indices":[18,0,24,22,0,10,3,0,0,0,0],"split_type":[0,0,0,0,0,0,0,0,0,0,0],"sum_hessian":[9.4E1,1.6E1,7.8E1,6.3E1,1.5E1,4.9E1,1.4E1,4.7E1,2E0,1.1E1,3E0],"tree_param":{"num_deleted":"0","num_feature":"27","num_nodes":"11","size_leaf_vector":"1"}},{"base_weights":[-4.501293E-2,1.935681E-1,-9.6439564E-1,-1.5445992E0,4.9359113E-2,1.84575E-2,-1.9372236E0,-8.7328546E-2,1.5390681E-2],"categories":[],"categories_nodes":[],"categories_segments":[],"categories_sizes":[],"default_left":[0,0,0,0,0,0,0,0,0],"id":14,"left_children":[1,-1,3,5,-1,-1,7,-1,-1],"loss_changes":[4.0919843E2,0E0,1.0019686E2,4.9474625E1,0E0,0E0,2.495343E1,0E0,0E0],"parents":[2147483647,0,0,2,2,3,3,6,6],"right_children":[2,-1,4,6,-1,-1,8,-1,-1],"split_conditions":[2.7526374E0,1.935681E-1,1E2,9.98E1,4.9359113E-2,1.84575E-2,7.77609E0,-8.7328546E-2,1.5390681E-2],"split_indices":[22,0,24,25,0,0,10,0,0],"split_type":[0,0,0,0,0,0,0,0,0],"sum_hessian":[9.1E1,1.4E1,7.7E1,6.1E1,1.6E1,1E1,5.1E1,4.7E1,4E0],"tree_param":{"num_deleted":"0","num_feature":"27","num_nodes":"9","size_leaf_vector":"1"}},{"base_weights":[5.263893E-3,1.8736005E-1,-9.4463044E-1,-1.4751208E0,4.7811676E-2,-2.149436E0,-5.9429485E-1,-9.2953995E-2,-5.749509E-2,1.8440131E-2,-7.441066E-2],"categories":[],"categories_nodes":[],"categories_segments":[],"categories_sizes":[],"default_left":[0,0,0,0,0,0,0,0,0,0,0],"id":15,"left_children":[1,-1,3,5,-1,7,9,-1,-1,-1,-1],"loss_changes":[4.308262E2,0E0,9.3734665E1,3.7923584E1,0E0,2.6081848E-1,3.9327244E1,0E0,0E0,0E0,0E0],"parents":[2147483647,0,0,2,2,3,3,5,5,6,6],"right_children":[2,-1,4,6,-1,8,10,-1,-1,-1,-1],"split_conditions":[2.637933E0,1.8736005E-1,1E2,1.7612916E3,4.7811676E-2,7.597414E1,5.9742374E1,-9.2953995E-2,-5.749509E-2,1.8440131E-2,-7.441066E-2],"split_indices":[18,0,26,4,0,26,26,0,0,0,0],"split_type":[0,0,0,0,0,0,0,0,0,0,0],"sum_hessian":[9.7E1,1.6E1,8.1E1,6.5E1,1.6E1,3.6E1,2.9E1,2.9E1,7E0,1.6E1,1.3E1],"tree_param":{"num_deleted":"0","num_feature":"27","num_nodes":"11","size_leaf_vector":"1"}},{"base_weights":[-1.1371003E-2,1.7963597E-1,-9.042041E-1,-1.3558217E0,4.5466993E-2,1.69256E-2,-1.7644354E0,-8.208602E-2,-5.48969E-3],"categories":[],"categories_nodes":[],"categories_segments":[],"categories_sizes":[],"default_left":[0,0,0,0,0,0,0,0,0],"id":16,"left_children":[1,-1,3,5,-1,-1,7,-1,-1],"loss_changes":[3.740137E2,0E0,7.348162E1,4.7746918E1,0E0,0E0,2.0907074E1,0E0,0E0],"parents":[2147483647,0,0,2,2,3,3,6,6],"right_children":[2,-1,4,6,-1,-1,8,-1,-1],"split_conditions":[2.637933E0,1.7963597E-1,1E2,9.98E1,4.5466993E-2,1.69256E-2,2.212766E3,-8.208602E-2,-5.48969E-3],"split_indices":[18,0,24,25,0,0,4,0,0],"split_type":[0,0,0,0,0,0,0,0,0],"sum_hessian":[9.3E1,1.5E1,7.8E1,6.4E1,1.4E1,1.2E1,5.2E1,4.5E1,7E0],"tree_param":{"num_deleted":"0","num_feature":"27","num_nodes":"9","size_leaf_vector":"1"}},{"base_weights":[-3.3667754E-2,1.6980757E-1,-8.093187E-1,-1.3291848E0,4.4281173E-2,-1.6082258E0,1.3825297E-2,-7.357413E-2,-1.1348482E-3],"categories":[],"categories_nodes":[],"categories_segments":[],"categories_sizes":[],"default_left":[0,0,0,0,0,0,0,0,0],"id":17,"left_children":[1,-1,3,5,-1,7,-1,-1,-1],"loss_changes":[3.1216827E2,0E0,8.1169304E1,3.032618E1,0E0,1.6722595E1,0E0,0E0,0E0],"parents":[2147483647,0,0,2,2,3,3,5,5],"right_children":[2,-1,4,6,-1,8,-1,-1,-1],"split_conditions":[2.5240676E0,1.6980757E-1,1E2,2.3819395E3,4.4281173E-2,9.847374E0,1.3825297E-2,-7.357413E-2,-1.1348482E-3],"split_indices":[18,0,24,4,0,22,0,0,0],"split_type":[0,0,0,0,0,0,0,0,0],"sum_hessian":[9.4E1,1.4E1,8E1,6.3E1,1.7E1,5.4E1,9E0,4.8E1,6E0],"tree_param":{"num_deleted":"0","num_feature":"27","num_nodes":"9","size_leaf_vector":"1"}},{"base_weights":[5.164103E-2,1.6769168E-1,-8.726294E-1,-1.2643361E0,4.2331215E-2,4.1074517E-1,-1.6441828E0,1.9375844E-2,1.05178505E-2,-7.393521E-2,1.40127195E-2],"categories":[],"categories_nodes":[],"categories_segments":[],"categories_sizes":[],"default_left":[0,0,0,0,0,0,0,0,0,0,0],"id":18,"left_children":[1,-1,3,5,-1,7,9,-1,-1,-1,-1],"loss_changes":[3.6326273E2,0E0,6.0382324E1,4.2669434E1,0E0,4.570484E-3,1.8417236E1,0E0,0E0,0E0,0E0],"parents":[2147483647,0,0,2,2,3,3,5,5,6,6],"right_children":[2,-1,4,6,-1,8,10,-1,-1,-1,-1],"split_conditions":[2.7526374E0,1.6769168E-1,1E2,9.98E1,4.2331215E-2,6.2458195E1,2.3819395E3,1.9375844E-2,1.05178505E-2,-7.393521E-2,1.40127195E-2],"split_indices":[22,0,24,25,0,2,4,0,0,0,0],"split_type":[0,0,0,0,0,0,0,0,0,0,0],"sum_hessian":[9.5E1,1.7E1,7.8E1,6.5E1,1.3E1,1.2E1,5.3E1,7E0,5E0,4.9E1,4E0],"tree_param":{"num_deleted":"0","num_feature":"27","num_nodes":"11","size_leaf_vector":"1"}},{"base_weights":[1.2406588E-1,1.6122246E-1,-7.7119917E-1,-1.252497E0,4.0895693E-2,1.6234111E-2,-1.5457042E0,-7.196007E-2,1.64874E-2],"categories":[],"categories_nodes":[],"categories_segments":[],"categories_sizes":[],"default_left":[0,0,0,0,0,0,0,0,0],"id":19,"left_children":[1,-1,3,5,-1,-1,7,-1,-1],"loss_changes":[3.247557E2,0E0,6.693805E1,3.0124321E1,0E0,0E0,2.2602348E1,0E0,0E0],"parents":[2147483647,0,0,2,2,3,3,6,6],"right_children":[2,-1,4,6,-1,-1,8,-1,-1],"split_conditions":[2.637933E0,1.6122246E-1,1E2,9.98E1,4.0895693E-2,1.6234111E-2,9.539052E0,-7.196007E-2,1.64874E-2],"split_indices":[18,0,24,25,0,0,22,0,0],"split_type":[0,0,0,0,0,0,0,0,0],"sum_hessian":[9.3E1,1.7E1,7.6E1,6E1,1.6E1,9E0,5.1E1,4.6E1,5E0],"tree_param":{"num_deleted":"0","num_feature":"27","num_nodes":"9","size_leaf_vector":"1"}},{"base_weights":[6.525458E-2,1.5500282E-1,-7.962127E-1,-1.1909273E0,3.8436998E-2,-1.7913706E0,-4.0448275E-1,-7.7595465E-2,-4.3768022E-2,1.6573813E-2,-5.853062E-2],"categories":[],"categories_nodes":[],"categories_segments":[],"categories_sizes":[],"default_left":[0,0,0,0,0,0,0,0,0,0,0],"id":20,"left_children":[1,-1,3,5,-1,7,9,-1,-1,-1,-1],"loss_changes":[3.0823312E2,0E0,5.4604984E1,2.94972E1,0E0,7.701645E-1,2.4745745E1,0E0,0E0,0E0,0E0],"parents":[2147483647,0,0,2,2,3,3,5,5,6,6],"right_children":[2,-1,4,6,-1,8,10,-1,-1,-1,-1],"split_conditions":[2.637933E0,1.5500282E-1,1E2,1.7612916E3,3.8436998E-2,7.597414E1,5.9742374E1,-7.7595465E-2,-4.3768022E-2,1.6573813E-2,-5.853062E-2],"split_indices":[18,0,26,4,0,26,26,0,0,0,0],"split_type":[0,0,0,0,0,0,0,0,0,0,0],"sum_hessian":[9.4E1,1.7E1,7.7E1,6.3E1,1.4E1,3.5E1,2.8E1,2.9E1,6E0,1.6E1,1.2E1],"tree_param":{"num_deleted":"0","num_feature":"27","num_nodes":"11","size_leaf_vector":"1"}},{"base_weights":[1.4791611E-1,1.4902307E-1,-6.7226774E-1,-1.0737737E0,3.7807994E-2,3.6598116E-1,-1.4266346E0,1.751066E-2,9.042999E-3,-6.679794E-2,1.5361978E-2],"categories":[],"categories_nodes":[],"categories_segments":[],"categories_sizes":[],"default_left":[0,0,0,0,0,0,0,0,0,0,0],"id":21,"left_children":[1,-1,3,5,-1,7,9,-1,-1,-1,-1],"loss_changes":[2.723198E2,0E0,5.0393017E1,3.2020172E1,0E0,2.295971E-2,1.9422615E1,0E0,0E0,0E0,0E0],"parents":[2147483647,0,0,2,2,3,3,5,5,6,6],"right_children":[2,-1,4,6,-1,8,10,-1,-1,-1,-1],"split_conditions":[2.637933E0,1.4902307E-1,1E2,9.98E1,3.7807994E-2,6.2458195E1,4.353028E0,1.751066E-2,9.042999E-3,-6.679794E-2,1.5361978E-2],"split_indices":[18,0,24,25,0,2,19,0,0,0,0],"split_type":[0,0,0,0,0,0,0,0,0,0,0],"sum_hessian":[9.3E1,1.7E1,7.6E1,6.1E1,1.5E1,1.2E1,4.9E1,7E0,5E0,4.4E1,5E0],"tree_param":{"num_deleted":"0","num_feature":"27","num_nodes":"11","size_leaf_vector":"1"}},{"base_weights":[8.710059E-2,1.4327393E-1,-6.933373E-1,2.743557E-1,-1.004346E0,6.9214916E-1,-1.1174545E0,-1.3703315E0,1.8496577E-1,-4.355999E-2,3.5965532E-2,-6.762671E-2,2.1139842E-2,1.5300935E-2,-6.1303433E-2,1.4609282E-2,-4.5599304E-2],"categories":[],"categories_nodes":[],"categories_segments":[],"categories_sizes":[],"default_left":[0,0,0,0,0,0,0,0,0,0,0,0,0,0,0,0,0],"id":22,"left_children":[1,-1,3,5,7,9,11,13,15,-1,-1,-1,-1,-1,-1,-1,-1],"loss_changes":[2.5869647E2,0E0,2.4051464E1,1.240323E1,2.6369709E1,6.237947E0,5.255961E0,1.1032867E1,3.7699957E0,0E0,0E0,0E0,0E0,0E0,0E0,0E0,0E0],"parents":[2147483647,0,0,2,2,3,3,4,4,5,5,6,6,7,7,8,8],"right_children":[2,-1,4,6,8,10,12,14,16,-1,-1,-1,-1,-1,-1,-1,-1],"split_conditions":[2.637933E0,1.4327393E-1,3.4301877E0,5.0993533E2,9.092675E0,2.4360275E0,7.562273E-2,9.98E1,1.1207113E2,-4.355999E-2,3.5965532E-2,-6.762671E-2,2.1139842E-2,1.5300935E-2,-6.1303433E-2,1.4609282E-2,-4.5599304E-2],"split_indices":[18,0,22,4,22,17,14,25,3,0,0,0,0,0,0,0,0],"split_type":[0,0,0,0,0,0,0,0,0,0,0,0,0,0,0,0,0],"sum_hessian":[9.5E1,1.7E1,7.8E1,1.9E1,5.9E1,1.5E1,4E0,4.5E1,1.4E1,1E0,1.4E1,3E0,1E0,3E0,4.2E1,1.3E1,1E0],"tree_param":{"num_deleted":"0","num_feature":"27","num_nodes":"17","size_leaf_vector":"1"}},{"base_weights":[-1.4449752E-2,1.3746628E-1,-7.41563E-1,-1.0972443E0,3.4686197E-2,3.3074537E-1,-1.3942559E0,1.6111435E-2,8.223689E-3,-6.328164E-2,-5.413685E-3],"categories":[],"categories_nodes":[],"categories_segments":[],"categories_sizes":[],"default_left":[0,0,0,0,0,0,0,0,0,0,0],"id":23,"left_children":[1,-1,3,5,-1,7,9,-1,-1,-1,-1],"loss_changes":[2.3595706E2,0E0,4.562915E1,2.8029572E1,0E0,1.9491792E-2,1.0352165E1,0E0,0E0,0E0,0E0],"parents":[2147483647,0,0,2,2,3,3,5,5,6,6],"right_children":[2,-1,4,6,-1,8,10,-1,-1,-1,-1],"split_conditions":[2.637933E0,1.3746628E-1,1E2,9.98E1,3.4686197E-2,6.2458195E1,2.212766E3,1.6111435E-2,8.223689E-3,-6.328164E-2,-5.413685E-3],"split_indices":[18,0,24,25,0,2,4,0,0,0,0],"split_type":[0,0,0,0,0,0,0,0,0,0,0],"sum_hessian":[9.4E1,1.6E1,7.8E1,6.4E1,1.4E1,1.1E1,5.3E1,6E0,5E0,4.7E1,6E0],"tree_param":{"num_deleted":"0","num_feature":"27","num_nodes":"11","size_leaf_vector":"1"}},{"base_weights":[6.334869E-2,1.3218139E-1,-6.116227E-1,-9.558016E-1,3.3692416E-2,3.2753578E-1,-1.2525485E0,1.5783202E-2,7.94373E-3,-5.8309004E-2,1.4525996E-2],"categories":[],"categories_nodes":[],"categories_segments":[],"categories_sizes":[],"default_left":[0,0,0,0,0,0,0,0,0,0,0],"id":24,"left_children":[1,-1,3,5,-1,7,9,-1,-1,-1,-1],"loss_changes":[2.0755559E2,0E0,4.034013E1,2.5163967E1,0E0,2.666831E-2,1.5416985E1,0E0,0E0,0E0,0E0],"parents":[2147483647,0,0,2,2,3,3,5,5,6,6],"right_children":[2,-1,4,6,-1,8,10,-1,-1,-1,-1],"split_conditions":[2.637933E0,1.3218139E-1,1E2,9.98E1,3.3692416E-2,7.588318E0,4.353028E0,1.5783202E-2,7.94373E-3,-5.8309004E-2,1.4525996E-2],"split_indices":[18,0,24,25,0,10,19,0,0,0,0],"split_type":[0,0,0,0,0,0,0,0,0,0,0],"sum_hessian":[9.5E1,1.6E1,7.9E1,6.4E1,1.5E1,1.2E1,5.2E1,7E0,5E0,4.7E1,5E0],"tree_param":{"num_deleted":"0","num_feature":"27","num_nodes":"11","size_leaf_vector":"1"}},{"base_weights":[7.2784806E-3,1.2645745E-1,-6.17872E-1,-9.616513E-1,3.2416344E-2,3.159834E-1,-1.2410728E0,1.5219148E-2,7.67338E-3,-5.7315808E-2,1.4031521E-2],"categories":[],"categories_nodes":[],"categories_segments":[],"categories_sizes":[],"default_left":[0,0,0,0,0,0,0,0,0,0,0],"id":25,"left_children":[1,-1,3,5,-1,7,9,-1,-1,-1,-1],"loss_changes":[1.9499373E2,0E0,4.152263E1,2.4668056E1,0E0,2.4286151E-2,1.486499E1,0E0,0E0,0E0,0E0],"parents":[2147483647,0,0,2,2,3,3,5,5,6,6],"right_children":[2,-1,4,6,-1,8,10,-1,-1,-1,-1],"split_conditions":[2.7790158E0,1.2645745E-1,1E2,9.98E1,3.2416344E-2,6.2458195E1,4.353028E0,1.5219148E-2,7.67338E-3,-5.7315808E-2,1.4031521E-2],"split_indices":[19,0,26,25,0,2,19,0,0,0,0],"split_type":[0,0,0,0,0,0,0,0,0,0,0],"sum_hessian":[9.9E1,1.6E1,8.3E1,6.7E1,1.6E1,1.2E1,5.5E1,7E0,5E0,5E1,5E0],"tree_param":{"num_deleted":"0","num_feature":"27","num_nodes":"11","size_leaf_vector":"1"}},{"base_weights":[1.3763854E-1,1.22465566E-1,-5.3282905E-1,-9.1278183E-1,3.1178297E-2,3.13001E-1,-1.1943454E0,1.4675136E-2,7.2046584E-3,-5.648E-2,-2.2957188E-3],"categories":[],"categories_nodes":[],"categories_segments":[],"categories_sizes":[],"default_left":[0,0,0,0,0,0,0,0,0,0,0],"id":26,"left_children":[1,-1,3,5,-1,7,9,-1,-1,-1,-1],"loss_changes":[1.8187527E2,0E0,3.8616203E1,2.108197E1,0E0,1.248157E-2,1.0426529E1,0E0,0E0,0E0,0E0],"parents":[2147483647,0,0,2,2,3,3,5,5,6,6],"right_children":[2,-1,4,6,-1,8,10,-1,-1,-1,-1],"split_conditions":[2.637933E0,1.22465566E-1,1E2,9.98E1,3.1178297E-2,4.1503816E0,7.666635E0,1.4675136E-2,7.2046584E-3,-5.648E-2,-2.2957188E-3],"split_indices":[18,0,24,25,0,8,10,0,0,0,0],"split_type":[0,0,0,0,0,0,0,0,0,0,0],"sum_hessian":[9.3E1,1.7E1,7.6E1,5.9E1,1.7E1,1.1E1,4.8E1,7E0,4E0,4.1E1,7E0],"tree_param":{"num_deleted":"0","num_feature":"27","num_nodes":"11","size_leaf_vector":"1"}},{"base_weights":[-2.3775682E-2,1.1729215E-1,-6.250726E-1,-9.6562237E-1,2.9966868E-2,3.027531E-1,-1.2153629E0,1.4561478E-2,6.8208072E-3,-5.3801745E-2,1.3689546E-2],"categories":[],"categories_nodes":[],"categories_segments":[],"categories_sizes":[],"default_left":[0,0,0,0,0,0,0,0,0,0,0],"id":27,"left_children":[1,-1,3,5,-1,7,9,-1,-1,-1,-1],"loss_changes":[1.6195688E2,0E0,3.6336617E1,2.000737E1,0E0,2.0717978E-2,8.646568E0,0E0,0E0,0E0,0E0],"parents":[2147483647,0,0,2,2,3,3,5,5,6,6],"right_children":[2,-1,4,6,-1,8,10,-1,-1,-1,-1],"split_conditions":[2.7790158E0,1.1729215E-1,1E2,9.98E1,2.9966868E-2,6.2458195E1,4.3503466E0,1.4561478E-2,6.8208072E-3,-5.3801745E-2,1.3689546E-2],"split_indices":[19,0,26,25,0,2,19,0,0,0,0],"split_type":[0,0,0,0,0,0,0,0,0,0,0],"sum_hessian":[9.1E1,1.5E1,7.6E1,6.1E1,1.5E1,1E1,5.1E1,6E0,4E0,4.8E1,3E0],"tree_param":{"num_deleted":"0","num_feature":"27","num_nodes":"11","size_leaf_vector":"1"}},{"base_weights":[4.478471E-2,1.13020554E-1,-5.490662E-1,-8.818514E-1,2.8467523E-2,9.621357E-3,-1.0760417E0,-5.0178085E-2,1.3166063E-2],"categories":[],"categories_nodes":[],"categories_segments":[],"categories_sizes":[],"default_left":[0,0,0,0,0,0,0,0,0],"id":28,"left_children":[1,-1,3,5,-1,-1,7,-1,-1],"loss_changes":[1.5347185E2,0E0,3.2956924E1,1.3706642E1,0E0,0E0,1.1689152E1,0E0,0E0],"parents":[2147483647,0,0,2,2,3,3,6,6],"right_children":[2,-1,4,6,-1,-1,8,-1,-1],"split_conditions":[2.7526374E0,1.13020554E-1,1E2,9.98E1,2.8467523E-2,9.621357E-3,9.847374E0,-5.0178085E-2,1.3166063E-2],"split_indices":[22,0,24,25,0,0,22,0,0],"split_type":[0,0,0,0,0,0,0,0,0],"sum_hessian":[9.3E1,1.6E1,7.7E1,6.1E1,1.6E1,9E0,5.2E1,4.7E1,5E0],"tree_param":{"num_deleted":"0","num_feature":"27","num_nodes":"9","size_leaf_vector":"1"}},{"base_weights":[-4.9161218E-2,1.0797933E-1,-5.3182244E-1,-8.528219E-1,2.7374692E-2,2.7402738E-1,-1.0747935E0,1.31013645E-2,6.2835347E-3,-5.01969E-2,1.27179455E-2],"categories":[],"categories_nodes":[],"categories_segments":[],"categories_sizes":[],"default_left":[0,0,0,0,0,0,0,0,0,0,0],"id":29,"left_children":[1,-1,3,5,-1,7,9,-1,-1,-1,-1],"loss_changes":[1.19671745E2,0E0,3.0666847E1,1.580249E1,0E0,1.24204755E-2,1.148909E1,0E0,0E0,0E0,0E0],"parents":[2147483647,0,0,2,2,3,3,5,5,6,6],"right_children":[2,-1,4,6,-1,8,10,-1,-1,-1,-1],"split_conditions":[2.637933E0,1.0797933E-1,1E2,9.98E1,2.7374692E-2,6.2458195E1,4.353028E0,1.31013645E-2,6.2835347E-3,-5.01969E-2,1.27179455E-2],"split_indices":[18,0,24,25,0,2,19,0,0,0,0],"split_type":[0,0,0,0,0,0,0,0,0,0,0],"sum_hessian":[9E1,1.3E1,7.7E1,6.1E1,1.6E1,1E1,5.1E1,6E0,4E0,4.6E1,5E0],"tree_param":{"num_deleted":"0","num_feature":"27","num_nodes":"11","size_leaf_vector":"1"}},{"base_weights":[5.5070583E-2,1.0469027E-1,-5.09889E-1,1.6769886E-1,-7.2369015E-1,5.0616074E-1,-5.3620294E-2,2.675654E-1,-9.471177E-1,-3.4713924E-2,2.6306951E-2,1.3256184E-2,6.393306E-3,-4.4624183E-2,1.2285022E-2],"categories":[],"categories_nodes":[],"categories_segments":[],"categories_sizes":[],"default_left":[0,0,0,0,0,0,0,0,0,0,0,0,0,0,0],"id":30,"left_children":[1,-1,3,5,7,9,-1,11,13,-1,-1,-1,-1,-1,-1],"loss_changes":[1.3874092E2,0E0,1.1710888E1,1.0685528E1,1.3763319E1,3.7253757E0,0E0,2.5113404E-2,9.396549E0,0E0,0E0,0E0,0E0,0E0,0E0],"parents":[2147483647,0,0,2,2,3,3,4,4,5,5,7,7,8,8],"right_children":[2,-1,4,6,8,10,-1,12,14,-1,-1,-1,-1,-1,-1],"split_conditions":[2.637933E0,1.0469027E-1,3.4301877E0,5.0993533E2,9.98E1,2.5696046E0,-5.3620294E-2,6.2458195E1,4.3503466E0,-3.4713924E-2,2.6306951E-2,1.3256184E-2,6.393306E-3,-4.4624183E-2,1.2285022E-2],"split_indices":[18,0,22,4,25,15,0,2,19,0,0,0,0,0,0],"split_type":[0,0,0,0,0,0,0,0,0,0,0,0,0,0,0],"sum_hessian":[9.6E1,1.7E1,7.9E1,1.9E1,6E1,1.6E1,3E0,1.1E1,4.9E1,1E0,1.5E1,6E0,5E0,4.4E1,5E0],"tree_param":{"num_deleted":"0","num_feature":"27","num_nodes":"15","size_leaf_vector":"1"}},{"base_weights":[-3.328933E-3,1.0049939E-1,-5.203552E-1,-8.1397444E-1,2.585314E-2,2.5669307E-1,-1.0133084E0,1.7205035E-2,8.092841E-3,-4.5531716E-2,9.119175E-3],"categories":[],"categories_nodes":[],"categories_segments":[],"categories_sizes":[],"default_left":[0,0,0,0,0,0,0,0,0,0,0],"id":31,"left_children":[1,-1,3,5,-1,7,9,-1,-1,-1,-1],"loss_changes":[1.24837326E2,0E0,2.7943605E1,1.4132431E1,0E0,2.253884E-2,7.142563E0,0E0,0E0,0E0,0E0],"parents":[2147483647,0,0,2,2,3,3,5,5,6,6],"right_children":[2,-1,4,6,-1,8,10,-1,-1,-1,-1],"split_conditions":[2.637933E0,1.0049939E-1,1E2,9.98E1,2.585314E-2,4.0122776E1,2.3819395E3,1.7205035E-2,8.092841E-3,-4.5531716E-2,9.119175E-3],"split_indices":[18,0,24,25,0,1,4,0,0,0,0],"split_type":[0,0,0,0,0,0,0,0,0,0,0],"sum_hessian":[9.6E1,1.6E1,8E1,6.4E1,1.6E1,1E1,5.4E1,1E0,9E0,5E1,4E0],"tree_param":{"num_deleted":"0","num_feature":"27","num_nodes":"11","size_leaf_vector":"1"}},{"base_weights":[-1.978982E-2,9.325082E-2,-4.623594E-1,-7.0648193E-1,2.4919292E-2,2.4758118E-1,-9.314115E-1,1.5627135E-2,7.6899203E-3,-4.3699842E-2,4.5429547E-3],"categories":[],"categories_nodes":[],"categories_segments":[],"categories_sizes":[],"default_left":[0,0,0,0,0,0,0,0,0,0,0],"id":32,"left_children":[1,-1,3,5,-1,7,9,-1,-1,-1,-1],"loss_changes":[9.481241E1,0E0,2.0851414E1,1.3964809E1,0E0,3.2081246E-2,7.6232605E0,0E0,0E0,0E0,0E0],"parents":[2147483647,0,0,2,2,3,3,5,5,6,6],"right_children":[2,-1,4,6,-1,8,10,-1,-1,-1,-1],"split_conditions":[2.5689838E0,9.325082E-2,1E2,9.98E1,2.4919292E-2,3.0617474E1,7.7024503E0,1.5627135E-2,7.6899203E-3,-4.3699842E-2,4.5429547E-3],"split_indices":[20,0,24,25,0,0,10,0,0,0,0],"split_type":[0,0,0,0,0,0,0,0,0,0,0],"sum_hessian":[9.1E1,1.4E1,7.7E1,6.3E1,1.4E1,1.2E1,5.1E1,2E0,1E1,4.5E1,6E0],"tree_param":{"num_deleted":"0","num_feature":"27","num_nodes":"11","size_leaf_vector":"1"}},{"base_weights":[1.5305449E-2,9.330509E-2,-4.386688E-1,-7.0376176E-1,2.39013E-2,2.4479039E-1,-9.052498E-1,1.5201534E-2,7.4384836E-3,-4.1161887E-2,-3.5987208E-3],"categories":[],"categories_nodes":[],"categories_segments":[],"categories_sizes":[],"default_left":[0,0,0,0,0,0,0,0,0,0,0],"id":33,"left_children":[1,-1,3,5,-1,7,9,-1,-1,-1,-1],"loss_changes":[9.8854744E1,0E0,2.2123995E1,1.2453392E1,0E0,2.8037488E-2,4.347889E0,0E0,0E0,0E0,0E0],"parents":[2147483647,0,0,2,2,3,3,5,5,6,6],"right_children":[2,-1,4,6,-1,8,10,-1,-1,-1,-1],"split_conditions":[2.637933E0,9.330509E-2,1E2,9.98E1,2.39013E-2,4.5135483E1,2.212766E3,1.5201534E-2,7.4384836E-3,-4.1161887E-2,-3.5987208E-3],"split_indices":[18,0,24,25,0,1,4,0,0,0,0],"split_type":[0,0,0,0,0,0,0,0,0,0,0],"sum_hessian":[9.4E1,1.5E1,7.9E1,6.3E1,1.6E1,1.1E1,5.2E1,2E0,9E0,4.6E1,6E0],"tree_param":{"num_deleted":"0","num_feature":"27","num_nodes":"11","size_leaf_vector":"1"}},{"base_weights":[1.6121272E-2,8.9194536E-2,-4.5049986E-1,1.9887097E-1,-6.317608E-1,4.1915107E-1,-4.257335E-2,2.3667781E-1,-8.2371175E-1,-3.1341787E-2,2.2441678E-2,1.4787568E-2,7.165017E-3,-3.885566E-2,1.1896299E-2],"categories":[],"categories_nodes":[],"categories_segments":[],"categories_sizes":[],"default_left":[0,0,0,0,0,0,0,0,0,0,0,0,0,0,0],"id":34,"left_children":[1,-1,3,5,7,9,-1,11,13,-1,-1,-1,-1,-1,-1],"loss_changes":[9.706539E1,0E0,9.424376E0,5.3579407E0,1.0530207E1,2.8940387E0,0E0,2.8653264E-2,7.528179E0,0E0,0E0,0E0,0E0,0E0,0E0],"parents":[2147483647,0,0,2,2,3,3,4,4,5,5,7,7,8,8],"right_children":[2,-1,4,6,8,10,-1,12,14,-1,-1,-1,-1,-1,-1],"split_conditions":[2.637933E0,8.9194536E-2,3.4301877E0,5.0993533E2,9.98E1,2.5696046E0,-4.257335E-2,3.0617474E1,4.353028E0,-3.1341787E-2,2.2441678E-2,1.4787568E-2,7.165017E-3,-3.885566E-2,1.1896299E-2],"split_indices":[18,0,22,4,25,15,0,0,19,0,0,0,0,0,0],"split_type":[0,0,0,0,0,0,0,0,0,0,0,0,0,0,0],"sum_hessian":[9.4E1,1.6E1,7.8E1,1.7E1,6.1E1,1.5E1,2E0,1.1E1,5E1,1E0,1.4E1,2E0,9E0,4.5E1,5E0],"tree_param":{"num_deleted":"0","num_feature":"27","num_nodes":"15","size_leaf_vector":"1"}},{"base_weights":[-5.186061E-3,8.631635E-2,-4.287839E-1,-6.808353E-1,2.22758E-2,-1.066087E0,-2.6226842E-1,-1.4437645E-2,-4.5976877E-2,-2.885824E-2,9.235767E-3],"categories":[],"categories_nodes":[],"categories_segments":[],"categories_sizes":[],"default_left":[0,0,0,0,0,0,0,0,0,0,0],"id":35,"left_children":[1,-1,3,5,-1,7,9,-1,-1,-1,-1],"loss_changes":[8.61508E1,0E0,2.0013592E1,1.0040628E1,0E0,1.0010033E0,7.1018853E0,0E0,0E0,0E0,0E0],"parents":[2147483647,0,0,2,2,3,3,5,5,6,6],"right_children":[2,-1,4,6,-1,8,10,-1,-1,-1,-1],"split_conditions":[2.637933E0,8.631635E-2,1E2,4.042719E0,2.22758E-2,8.53E1,8.88E1,-1.4437645E-2,-4.5976877E-2,-2.885824E-2,9.235767E-3],"split_indices":[18,0,24,19,0,24,24,0,0,0,0],"split_type":[0,0,0,0,0,0,0,0,0,0,0],"sum_hessian":[9.4E1,1.5E1,7.9E1,6.3E1,1.6E1,3.2E1,3.1E1,3E0,2.9E1,1.6E1,1.5E1],"tree_param":{"num_deleted":"0","num_feature":"27","num_nodes":"11","size_leaf_vector":"1"}},{"base_weights":[-1.3305705E-2,8.2820736E-2,-3.6588204E-1,-5.742585E-1,2.1099405E-2,5.62282E-2,-6.567291E-1,-3.926226E-2,-1.0462541E-2],"categories":[],"categories_nodes":[],"categories_segments":[],"categories_sizes":[],"default_left":[0,0,0,0,0,0,0,0,0],"id":36,"left_children":[1,-1,3,5,-1,-1,7,-1,-1],"loss_changes":[6.8380264E1,0E0,1.51905575E1,1.1522285E1,0E0,0E0,7.559496E0,0E0,0E0],"parents":[2147483647,0,0,2,2,3,3,6,6],"right_children":[2,-1,4,6,-1,-1,8,-1,-1],"split_conditions":[1.2052554E1,8.2820736E-2,1E2,2.4526143E0,2.1099405E-2,5.62282E-2,1.7612916E3,-3.926226E-2,-1.0462541E-2],"split_indices":[2,0,26,20,0,0,4,0,0],"split_type":[0,0,0,0,0,0,0,0,0],"sum_hessian":[9.3E1,1.3E1,8E1,6.5E1,1.5E1,2E0,6.3E1,3.5E1,2.8E1],"tree_param":{"num_deleted":"0","num_feature":"27","num_nodes":"9","size_leaf_vector":"1"}},{"base_weights":[1.760043E-2,7.996911E-2,-3.848381E-1,-2.7188146E-1,-5.1910575E-2,-3.9189923E-1,2.2631505E-1,5.848518E-3,-2.3423707E-2,1.0050048E-2,4.516526E-3],"categories":[],"categories_nodes":[],"categories_segments":[],"categories_sizes":[],"default_left":[0,0,0,0,0,0,0,0,0,0,0],"id":37,"left_children":[1,-1,3,5,-1,7,9,-1,-1,-1,-1],"loss_changes":[7.72705E1,0E0,7.860962E0,4.513333E0,0E0,5.9104204E0,7.0367455E-3,0E0,0E0,0E0,0E0],"parents":[2147483647,0,0,2,2,3,3,5,5,6,6],"right_children":[2,-1,4,6,-1,8,10,-1,-1,-1,-1],"split_conditions":[2.7790158E0,7.996911E-2,1.1207113E0,3.9495337E0,-5.1910575E-2,3.0937154E0,7.892554E1,5.848518E-3,-2.3423707E-2,1.0050048E-2,4.516526E-3],"split_indices":[19,0,12,17,0,16,0,0,0,0,0],"split_type":[0,0,0,0,0,0,0,0,0,0,0],"sum_hessian":[9.7E1,1.6E1,8.1E1,7.3E1,8E0,5.9E1,1.4E1,1.5E1,4.4E1,1.1E1,3E0],"tree_param":{"num_deleted":"0","num_feature":"27","num_nodes":"11","size_leaf_vector":"1"}},{"base_weights":[4.1203324E-2,7.40791E-2,-3.5062796E-1,-9.208101E-1,3.29098E-2,-1.8120404E-2,-5.2599743E-2,2.0663679E-2,-2.045995E-1,-3.0245066E-2,1.0346594E-2],"categories":[],"categories_nodes":[],"categories_segments":[],"categories_sizes":[],"default_left":[0,0,0,0,0,0,0,0,0,0,0],"id":38,"left_children":[1,-1,3,5,7,-1,-1,-1,9,-1,-1],"loss_changes":[6.522054E1,0E0,1.6869152E1,4.8563156E0,5.383143E0,0E0,0E0,0E0,8.038983E0,0E0,0E0],"parents":[2147483647,0,0,2,2,3,3,4,4,8,8],"right_children":[2,-1,4,6,8,-1,-1,-1,10,-1,-1],"split_conditions":[2.7790158E0,7.40791E-2,8.88E1,8.6E1,3.4301877E0,-1.8120404E-2,-5.2599743E-2,2.0663679E-2,6.491635E0,-3.0245066E-2,1.0346594E-2],"split_indices":[19,0,24,24,22,0,0,0,10,0,0],"split_type":[0,0,0,0,0,0,0,0,0,0,0],"sum_hessian":[9.2E1,1.6E1,7.6E1,3E1,4.6E1,1.4E1,1.6E1,1.5E1,3.1E1,1.4E1,1.7E1],"tree_param":{"num_deleted":"0","num_feature":"27","num_nodes":"11","size_leaf_vector":"1"}},{"base_weights":[1.095408E-2,7.4076004E-2,-3.4088972E-1,-8.54979E-1,5.2269744E-3,-1.7160304E-2,-5.0633162E-2,-2.9433928E-2,3.6797556E-1,2.012394E-2,7.2382325E-3],"categories":[],"categories_nodes":[],"categories_segments":[],"categories_sizes":[],"default_left":[0,0,0,0,0,0,0,0,0,0,0],"id":39,"left_children":[1,-1,3,5,7,-1,-1,-1,9,-1,-1],"loss_changes":[6.2135952E1,0E0,1.4595129E1,4.9983215E0,1.3429386E1,0E0,0E0,0E0,7.2143507E-1,0E0,0E0],"parents":[2147483647,0,0,2,2,3,3,4,4,8,8],"right_children":[2,-1,4,6,8,-1,-1,-1,10,-1,-1],"split_conditions":[2.637933E0,7.4076004E-2,8.88E1,8.6E1,4.0374615E1,-1.7160304E-2,-5.0633162E-2,-2.9433928E-2,4.0873146E0,2.012394E-2,7.2382325E-3],"split_indices":[18,0,24,24,26,0,0,0,7,0,0],"split_type":[0,0,0,0,0,0,0,0,0,0,0],"sum_hessian":[9.6E1,1.5E1,8.1E1,3.2E1,4.9E1,1.6E1,1.6E1,1.6E1,3.3E1,1.9E1,1.4E1],"tree_param":{"num_deleted":"0","num_feature":"27","num_nodes":"11","size_leaf_vector":"1"}},{"base_weights":[-2.9224728E-3,7.121244E-2,-3.3870962E-1,-5.700668E-1,1.8959507E-2,-8.812492E-1,-2.4049513E-1,-9.772608E-3,-3.746858E-2,-2.3461608E-2,8.412516E-3],"categories":[],"categories_nodes":[],"categories_segments":[],"categories_sizes":[],"default_left":[0,0,0,0,0,0,0,0,0,0,0],"id":40,"left_children":[1,-1,3,5,-1,7,9,-1,-1,-1,-1],"loss_changes":[5.453755E1,0E0,1.47529125E1,6.044035E0,0E0,4.9754715E-1,4.73901E0,0E0,0E0,0E0,0E0],"parents":[2147483647,0,0,2,2,3,3,5,5,6,6],"right_children":[2,-1,4,6,-1,8,10,-1,-1,-1,-1],"split_conditions":[2.637933E0,7.121244E-2,1E2,4.000842E0,1.8959507E-2,8.53E1,8.88E1,-9.772608E-3,-3.746858E-2,-2.3461608E-2,8.412516E-3],"split_indices":[18,0,24,19,0,24,24,0,0,0,0],"split_type":[0,0,0,0,0,0,0,0,0,0,0],"sum_hessian":[9.1E1,1.4E1,7.7E1,6E1,1.7E1,3E1,3E1,2E0,2.8E1,1.7E1,1.3E1],"tree_param":{"num_deleted":"0","num_feature":"27","num_nodes":"11","size_leaf_vector":"1"}},{"base_weights":[6.66916E-2,6.853659E-2,-3.012537E-1,-5.134107E-1,1.8228099E-2,2.0146401E-1,-6.715496E-1,1.3997449E-2,5.675971E-3,-1.5563758E-2,-3.290723E-2],"categories":[],"categories_nodes":[],"categories_segments":[],"categories_sizes":[],"default_left":[0,0,0,0,0,0,0,0,0,0,0],"id":41,"left_children":[1,-1,3,5,-1,7,9,-1,-1,-1,-1],"loss_changes":[5.7416267E1,0E0,1.2757496E1,7.1443634E0,0E0,5.830756E-2,1.6794014E0,0E0,0E0,0E0,0E0],"parents":[2147483647,0,0,2,2,3,3,5,5,6,6],"right_children":[2,-1,4,6,-1,8,10,-1,-1,-1,-1],"split_conditions":[2.637933E0,6.853659E-2,1E2,9.98E1,1.8228099E-2,3.0617474E1,8.6E1,1.3997449E-2,5.675971E-3,-1.5563758E-2,-3.290723E-2],"split_indices":[18,0,24,25,0,0,24,0,0,0,0],"split_type":[0,0,0,0,0,0,0,0,0,0,0],"sum_hessian":[9.5E1,1.7E1,7.8E1,6.1E1,1.7E1,1.1E1,5E1,2E0,9E0,1.7E1,3.3E1],"tree_param":{"num_deleted":"0","num_feature":"27","num_nodes":"11","size_leaf_vector":"1"}},{"base_weights":[4.9871486E-2,6.582638E-2,-2.8259975E-1,-7.6077783E-1,3.544718E-2,-3.6883703E-1,-4.614425E-2,-2.550332E-2,3.4489822E-1,-1.2386357E-2,-2.3442987E-2,1.822068E-2,6.8834056E-3],"categories":[],"categories_nodes":[],"categories_segments":[],"categories_sizes":[],"default_left":[0,0,0,0,0,0,0,0,0,0,0,0,0],"id":42,"left_children":[1,-1,3,5,7,9,-1,-1,11,-1,-1,-1,-1],"loss_changes":[5.0298542E1,0E0,1.2193614E1,4.209976E0,1.0219935E1,5.4685593E-2,0E0,0E0,5.315294E-1,0E0,0E0,0E0,0E0],"parents":[2147483647,0,0,2,2,3,3,4,4,5,5,8,8],"right_children":[2,-1,4,6,8,10,-1,-1,12,-1,-1,-1,-1],"split_conditions":[2.4906347E0,6.582638E-2,8.88E1,8.6E1,4.0374615E1,2.212766E3,-4.614425E-2,-2.550332E-2,4.0873146E0,-1.2386357E-2,-2.3442987E-2,1.822068E-2,6.8834056E-3],"split_indices":[19,0,24,24,26,4,0,0,7,0,0,0,0],"split_type":[0,0,0,0,0,0,0,0,0,0,0,0,0],"sum_hessian":[9.5E1,1.6E1,7.9E1,3.1E1,4.8E1,1.6E1,1.5E1,1.5E1,3.3E1,1.4E1,2E0,2E1,1.3E1],"tree_param":{"num_deleted":"0","num_feature":"27","num_nodes":"13","size_leaf_vector":"1"}},{"base_weights":[2.8908022E-3,6.0324512E-2,-2.7700502E-1,-7.1884155E-1,8.1773875E-3,-3.552906E-1,-4.4235718E-2,-2.4616292E-2,3.2259116E-1,-1.1886908E-2,-2.2804638E-2,1.7311975E-2,6.328915E-3],"categories":[],"categories_nodes":[],"categories_segments":[],"categories_sizes":[],"default_left":[0,0,0,0,0,0,0,0,0,0,0,0,0],"id":43,"left_children":[1,-1,3,5,7,9,-1,-1,11,-1,-1,-1,-1],"loss_changes":[3.8775818E1,0E0,9.960195E0,3.7186947E0,9.604767E0,5.9376955E-2,0E0,0E0,4.9437118E-1,0E0,0E0,0E0,0E0],"parents":[2147483647,0,0,2,2,3,3,4,4,5,5,8,8],"right_children":[2,-1,4,6,8,10,-1,-1,12,-1,-1,-1,-1],"split_conditions":[2.7790158E0,6.0324512E-2,8.88E1,8.6E1,4.0374615E1,2.212766E3,-4.4235718E-2,-2.4616292E-2,4.0638252E1,-1.1886908E-2,-2.2804638E-2,1.7311975E-2,6.328915E-3],"split_indices":[19,0,24,24,26,4,0,0,0,0,0,0,0],"split_type":[0,0,0,0,0,0,0,0,0,0,0,0,0],"sum_hessian":[9.2E1,1.4E1,7.8E1,3E1,4.8E1,1.6E1,1.4E1,1.6E1,3.2E1,1.4E1,2E0,1.9E1,1.3E1],"tree_param":{"num_deleted":"0","num_feature":"27","num_nodes":"13","size_leaf_vector":"1"}},{"base_weights":[5.6102956E-3,6.0506135E-2,-2.8959027E-1,-7.119079E-1,6.786267E-3,-3.4340692E-1,-4.2421624E-2,1.6160574E-2,-1.999991E-1,-1.14609655E-2,-2.2183638E-2,-2.3669925E-2,8.810296E-3],"categories":[],"categories_nodes":[],"categories_segments":[],"categories_sizes":[],"default_left":[0,0,0,0,0,0,0,0,0,0,0,0,0],"id":44,"left_children":[1,-1,3,5,7,9,-1,-1,11,-1,-1,-1,-1],"loss_changes":[4.181223E1,0E0,1.0018034E1,3.6152859E0,3.938672E0,6.0893774E-2,0E0,0E0,5.1726565E0,0E0,0E0,0E0,0E0],"parents":[2147483647,0,0,2,2,3,3,4,4,5,5,8,8],"right_children":[2,-1,4,6,8,10,-1,-1,12,-1,-1,-1,-1],"split_conditions":[2.7790158E0,6.0506135E-2,8.88E1,8.6E1,3.4301877E0,7.2787766E1,-4.2421624E-2,1.6160574E-2,4.2335556E1,-1.14609655E-2,-2.2183638E-2,-2.3669925E-2,8.810296E-3],"split_indices":[19,0,24,24,22,2,0,0,2,0,0,0,0],"split_type":[0,0,0,0,0,0,0,0,0,0,0,0,0],"sum_hessian":[9.4E1,1.5E1,7.9E1,3.2E1,4.7E1,1.6E1,1.6E1,1.6E1,3.1E1,1.4E1,2E0,1.6E1,1.5E1],"tree_param":{"num_deleted":"0","num_feature":"27","num_nodes":"13","size_leaf_vector":"1"}},{"base_weights":[2.3486376E-2,5.89022E-2,-2.7824053E-1,-7.099488E-1,2.435557E-2,-3.334124E-1,-4.1060343E-2,-2.2677498E-2,3.046007E-1,-1.094052E-2,-2.157957E-2,1.629601E-2,6.0481015E-3],"categories":[],"categories_nodes":[],"categories_segments":[],"categories_sizes":[],"default_left":[0,0,0,0,0,0,0,0,0,0,0,0,0],"id":45,"left_children":[1,-1,3,5,7,9,-1,-1,11,-1,-1,-1,-1],"loss_changes":[4.1489468E1,0E0,1.0467951E1,3.3336315E0,7.9647775E0,6.2974215E-2,0E0,0E0,4.282875E-1,0E0,0E0,0E0,0E0],"parents":[2147483647,0,0,2,2,3,3,4,4,5,5,8,8],"right_children":[2,-1,4,6,8,10,-1,-1,12,-1,-1,-1,-1],"split_conditions":[2.637933E0,5.89022E-2,8.88E1,8.6E1,4.0374615E1,7.7024503E0,-4.1060343E-2,-2.2677498E-2,4.0638252E1,-1.094052E-2,-2.157957E-2,1.629601E-2,6.0481015E-3],"split_indices":[18,0,24,24,26,10,0,0,0,0,0,0,0],"split_type":[0,0,0,0,0,0,0,0,0,0,0,0,0],"sum_hessian":[9.5E1,1.6E1,7.9E1,3.2E1,4.7E1,1.5E1,1.7E1,1.5E1,3.2E1,1.3E1,2E0,1.9E1,1.3E1],"tree_param":{"num_deleted":"0","num_feature":"27","num_nodes":"13","size_leaf_vector":"1"}},{"base_weights":[2.1667657E-2,5.6596823E-2,-2.8547847E-1,-6.5996057E-1,5.659601E-3,-3.1682947E-1,-3.947631E-2,-2.1705404E-2,2.8265578E-1,-1.0623484E-2,-2.0991916E-2,1.5550634E-2,5.5721E-3],"categories":[],"categories_nodes":[],"categories_segments":[],"categories_sizes":[],"default_left":[0,0,0,0,0,0,0,0,0,0,0,0,0],"id":46,"left_children":[1,-1,3,5,7,9,-1,-1,11,-1,-1,-1,-1],"loss_changes":[4.1030163E1,0E0,8.725814E0,3.3743458E0,6.9929867E0,6.767392E-2,0E0,0E0,3.9254975E-1,0E0,0E0,0E0,0E0],"parents":[2147483647,0,0,2,2,3,3,4,4,5,5,8,8],"right_children":[2,-1,4,6,8,10,-1,-1,12,-1,-1,-1,-1],"split_conditions":[2.637933E0,5.6596823E-2,8.88E1,8.6E1,4.0374615E1,2.212766E3,-3.947631E-2,-2.1705404E-2,4.0638252E1,-1.0623484E-2,-2.0991916E-2,1.5550634E-2,5.5721E-3],"split_indices":[18,0,24,24,26,4,0,0,0,0,0,0,0],"split_type":[0,0,0,0,0,0,0,0,0,0,0,0,0],"sum_hessian":[9.6E1,1.7E1,7.9E1,3.4E1,4.5E1,1.7E1,1.7E1,1.5E1,3E1,1.5E1,2E0,1.7E1,1.3E1],"tree_param":{"num_deleted":"0","num_feature":"27","num_nodes":"13","size_leaf_vector":"1"}},{"base_weights":[5.740985E-2,5.4413337E-2,-2.3748626E-1,-6.321174E-1,8.971311E-3,-3.1170154E-1,-3.8059957E-2,-2.1053588E-2,2.7883887E-1,-1.0175413E-2,-2.0420257E-2,1.4804378E-2,5.6985603E-3],"categories":[],"categories_nodes":[],"categories_segments":[],"categories_sizes":[],"default_left":[0,0,0,0,0,0,0,0,0,0,0,0,0],"id":47,"left_children":[1,-1,3,5,7,9,-1,-1,11,-1,-1,-1,-1],"loss_changes":[3.6027065E1,0E0,7.5919375E0,2.5898123E0,7.0779724E0,6.3966274E-2,0E0,0E0,3.337798E-1,0E0,0E0,0E0,0E0],"parents":[2147483647,0,0,2,2,3,3,4,4,5,5,8,8],"right_children":[2,-1,4,6,8,10,-1,-1,12,-1,-1,-1,-1],"split_conditions":[2.637933E0,5.4413337E-2,8.88E1,8.6E1,4.0374615E1,2.212766E3,-3.8059957E-2,-2.1053588E-2,4.0638252E1,-1.0175413E-2,-2.0420257E-2,1.4804378E-2,5.6985603E-3],"split_indices":[18,0,24,24,26,4,0,0,0,0,0,0,0],"split_type":[0,0,0,0,0,0,0,0,0,0,0,0,0],"sum_hessian":[9.4E1,1.7E1,7.7E1,2.9E1,4.8E1,1.5E1,1.4E1,1.6E1,3.2E1,1.3E1,2E0,1.9E1,1.3E1],"tree_param":{"num_deleted":"0","num_feature":"27","num_nodes":"13","size_leaf_vector":"1"}},{"base_weights":[3.0104008E-2,5.2305974E-2,-2.428069E-1,-6.054777E-1,9.283999E-3,-2.9781184E-1,-3.6539488E-2,-2.0171596E-2,2.6054823E-1,-9.814077E-3,-1.9864183E-2,1.4465796E-2,5.3456654E-3],"categories":[],"categories_nodes":[],"categories_segments":[],"categories_sizes":[],"default_left":[0,0,0,0,0,0,0,0,0,0,0,0,0],"id":48,"left_children":[1,-1,3,5,7,9,-1,-1,11,-1,-1,-1,-1],"loss_changes":[3.238843E1,0E0,7.1368494E0,2.5794096E0,6.0700865E0,6.757283E-2,0E0,0E0,3.4203744E-1,0E0,0E0,0E0,0E0],"parents":[2147483647,0,0,2,2,3,3,4,4,5,5,8,8],"right_children":[2,-1,4,6,8,10,-1,-1,12,-1,-1,-1,-1],"split_conditions":[2.7790158E0,5.2305974E-2,8.88E1,8.6E1,4.0374615E1,7.2787766E1,-3.6539488E-2,-2.0171596E-2,5.857967E1,-9.814077E-3,-1.9864183E-2,1.4465796E-2,5.3456654E-3],"split_indices":[19,0,24,24,26,2,0,0,1,0,0,0,0],"split_type":[0,0,0,0,0,0,0,0,0,0,0,0,0],"sum_hessian":[9.3E1,1.6E1,7.7E1,3.1E1,4.6E1,1.6E1,1.5E1,1.5E1,3.1E1,1.4E1,2E0,1.7E1,1.4E1],"tree_param":{"num_deleted":"0","num_feature":"27","num_nodes":"13","size_leaf_vector":"1"}},{"base_weights":[3.2569685E-3,5.0231263E-2,-2.420766E-1,-5.914551E-1,3.1643708E-3,-2.8617007E-1,-3.5208605E-2,-1.9468682E-2,2.579491E-1,-9.383313E-3,-1.9323273E-2,1.4104547E-2,4.9418244E-3],"categories":[],"categories_nodes":[],"categories_segments":[],"categories_sizes":[],"default_left":[0,0,0,0,0,0,0,0,0,0,0,0,0],"id":49,"left_children":[1,-1,3,5,7,9,-1,-1,11,-1,-1,-1,-1],"loss_changes":[2.8882511E1,0E0,6.8564262E0,2.4783983E0,5.9905043E0,7.0694685E-2,0E0,0E0,3.4106374E-1,0E0,0E0,0E0,0E0],"parents":[2147483647,0,0,2,2,3,3,4,4,5,5,8,8],"right_children":[2,-1,4,6,8,10,-1,-1,12,-1,-1,-1,-1],"split_conditions":[2.637933E0,5.0231263E-2,8.88E1,8.6E1,4.0374615E1,2.212766E3,-3.5208605E-2,-1.9468682E-2,4.0638252E1,-9.383313E-3,-1.9323273E-2,1.4104547E-2,4.9418244E-3],"split_indices":[18,0,24,24,26,4,0,0,0,0,0,0,0],"split_type":[0,0,0,0,0,0,0,0,0,0,0,0,0],"sum_hessian":[9.4E1,1.5E1,7.9E1,3.2E1,4.7E1,1.6E1,1.6E1,1.6E1,3.1E1,1.4E1,2E0,1.8E1,1.3E1],"tree_param":{"num_deleted":"0","num_feature":"27","num_nodes":"13","size_leaf_vector":"1"}},{"base_weights":[-4.2129843E-4,4.8505813E-2,-2.4408801E-1,-3.7958467E-1,1.24457E-2,-6.002522E-1,-1.3243583E-1,-2.9443357E-2,-1.8779464E-2,-1.5429907E-2,6.3071884E-3],"categories":[],"categories_nodes":[],"categories_segments":[],"categories_sizes":[],"default_left":[0,0,0,0,0,0,0,0,0,0,0],"id":50,"left_children":[1,-1,3,5,-1,7,9,-1,-1,-1,-1],"loss_changes":[2.7208889E1,0E0,5.9155E0,3.3563814E0,0E0,2.2760582E-1,2.2396286E0,0E0,0E0,0E0,0E0],"parents":[2147483647,0,0,2,2,3,3,5,5,6,6],"right_children":[2,-1,4,6,-1,8,10,-1,-1,-1,-1],"split_conditions":[2.637933E0,4.8505813E-2,1E2,4.042719E0,1.24457E-2,8.88E1,8.88E1,-2.9443357E-2,-1.8779464E-2,-1.5429907E-2,6.3071884E-3],"split_indices":[18,0,24,19,0,24,24,0,0,0,0],"split_type":[0,0,0,0,0,0,0,0,0,0,0],"sum_hessian":[9.2E1,1.5E1,7.7E1,6.2E1,1.5E1,3.2E1,3E1,1.5E1,1.7E1,1.6E1,1.4E1],"tree_param":{"num_deleted":"0","num_feature":"27","num_nodes":"11","size_leaf_vector":"1"}},{"base_weights":[1.4168218E-2,4.368333E-2,-2.0747931E-1,-5.698941E-1,1.6880222E-2,-2.6706517E-1,-3.2824088E-2,1.2148721E-2,-1.3213478E-1,-8.346473E-3,-1.8376917E-2,-1.7998235E-2,6.803246E-3],"categories":[],"categories_nodes":[],"categories_segments":[],"categories_sizes":[],"default_left":[0,0,0,0,0,0,0,0,0,0,0,0,0],"id":51,"left_children":[1,-1,3,5,7,9,-1,-1,11,-1,-1,-1,-1],"loss_changes":[2.2909597E1,0E0,6.5958276E0,1.9790983E0,2.1712987E0,8.0111265E-2,0E0,0E0,3.2061396E0,0E0,0E0,0E0,0E0],"parents":[2147483647,0,0,2,2,3,3,4,4,5,5,8,8],"right_children":[2,-1,4,6,8,10,-1,-1,12,-1,-1,-1,-1],"split_conditions":[2.5240676E0,4.368333E-2,8.88E1,8.6E1,3.4301877E0,2.212766E3,-3.2824088E-2,1.2148721E-2,6.795375E2,-8.346473E-3,-1.8376917E-2,-1.7998235E-2,6.803246E-3],"split_indices":[18,0,24,24,22,4,0,0,4,0,0,0,0],"split_type":[0,0,0,0,0,0,0,0,0,0,0,0,0],"sum_hessian":[9.6E1,1.6E1,8E1,3E1,5E1,1.4E1,1.6E1,1.7E1,3.3E1,1.2E1,2E0,1.6E1,1.7E1],"tree_param":{"num_deleted":"0","num_feature":"27","num_nodes":"13","size_leaf_vector":"1"}},{"base_weights":[1.6417552E-2,4.5008555E-2,-2.0610043E-1,-3.280059E-1,1.1701803E-2,-5.4855025E-1,-8.4155686E-2,-2.3724498E-2,-6.2653115E-3,6.77996E-3,-1.345288E-2],"categories":[],"categories_nodes":[],"categories_segments":[],"categories_sizes":[],"default_left":[0,0,0,0,0,0,0,0,0,0,0],"id":52,"left_children":[1,-1,3,5,-1,7,9,-1,-1,-1,-1],"loss_changes":[2.4138681E1,0E0,5.0779114E0,3.5570822E0,0E0,3.570137E-1,2.0785666E0,0E0,0E0,0E0,0E0],"parents":[2147483647,0,0,2,2,3,3,5,5,6,6],"right_children":[2,-1,4,6,-1,8,10,-1,-1,-1,-1],"split_conditions":[2.637933E0,4.5008555E-2,1E2,4.042719E0,1.1701803E-2,7.597414E1,5.9742374E1,-2.3724498E-2,-6.2653115E-3,6.77996E-3,-1.345288E-2],"split_indices":[18,0,26,19,0,26,26,0,0,0,0],"split_type":[0,0,0,0,0,0,0,0,0,0,0],"sum_hessian":[9.8E1,1.6E1,8.2E1,6.6E1,1.6E1,3.4E1,3.2E1,3.1E1,3E0,1.6E1,1.6E1],"tree_param":{"num_deleted":"0","num_feature":"27","num_nodes":"11","size_leaf_vector":"1"}},{"base_weights":[1.0188401E-2,4.3278165E-2,-2.1291792E-1,-3.3931622E-1,1.1251864E-2,-5.0398177E-1,-1.09604016E-1,-2.3070142E-2,-6.6465233E-3,5.3787646E-3,-1.6262937E-2],"categories":[],"categories_nodes":[],"categories_segments":[],"categories_sizes":[],"default_left":[0,0,0,0,0,0,0,0,0,0,0],"id":53,"left_children":[1,-1,3,5,-1,7,9,-1,-1,-1,-1],"loss_changes":[2.2699986E1,0E0,5.031869E0,2.3656049E0,0E0,6.7585087E-1,2.0017238E0,0E0,0E0,0E0,0E0],"parents":[2147483647,0,0,2,2,3,3,5,5,6,6],"right_children":[2,-1,4,6,-1,8,10,-1,-1,-1,-1],"split_conditions":[2.7526374E0,4.3278165E-2,1E2,1.7612916E3,1.1251864E-2,7.597414E1,5.9742374E1,-2.3070142E-2,-6.6465233E-3,5.3787646E-3,-1.6262937E-2],"split_indices":[22,0,26,4,0,26,26,0,0,0,0],"split_type":[0,0,0,0,0,0,0,0,0,0,0],"sum_hessian":[9.5E1,1.6E1,7.9E1,6.3E1,1.6E1,3.6E1,2.7E1,3E1,6E0,1.5E1,1.2E1],"tree_param":{"num_deleted":"0","num_feature":"27","num_nodes":"11","size_leaf_vector":"1"}},{"base_weights":[1.7292444E-2,4.161436E-2,-1.984341E-1,-4.9734414E-1,4.9732924E-3,-2.3144841E-1,-2.934266E-2,-1.5507365E-2,2.0914304E-1,-7.1474453E-3,-1.7067289E-2,1.1412494E-2,3.4712604E-3],"categories":[],"categories_nodes":[],"categories_segments":[],"categories_sizes":[],"default_left":[0,0,0,0,0,0,0,0,0,0,0,0,0],"id":54,"left_children":[1,-1,3,5,7,9,-1,-1,11,-1,-1,-1,-1],"loss_changes":[2.0726446E1,0E0,4.8057137E0,1.714149E0,3.8486543E0,9.528798E-2,0E0,0E0,2.55368E-1,0E0,0E0,0E0,0E0],"parents":[2147483647,0,0,2,2,3,3,4,4,5,5,8,8],"right_children":[2,-1,4,6,8,10,-1,-1,12,-1,-1,-1,-1],"split_conditions":[2.637933E0,4.161436E-2,8.88E1,8.6E1,4.0374615E1,7.2787766E1,-2.934266E-2,-1.5507365E-2,4.0638252E1,-7.1474453E-3,-1.7067289E-2,1.1412494E-2,3.4712604E-3],"split_indices":[18,0,24,24,26,2,0,0,0,0,0,0,0],"split_type":[0,0,0,0,0,0,0,0,0,0,0,0,0],"sum_hessian":[9.4E1,1.6E1,7.8E1,3.1E1,4.7E1,1.5E1,1.6E1,1.6E1,3.1E1,1.3E1,2E0,1.9E1,1.2E1],"tree_param":{"num_deleted":"0","num_feature":"27","num_nodes":"13","size_leaf_vector":"1"}},{"base_weights":[2.6478572E-2,3.976267E-2,-1.8293418E-1,-2.934329E-1,1.0484852E-2,-4.9823126E-1,-8.586466E-2,-1.4859439E-2,-2.457177E-2,5.805086E-3,-1.3182648E-2],"categories":[],"categories_nodes":[],"categories_segments":[],"categories_sizes":[],"default_left":[0,0,0,0,0,0,0,0,0,0,0],"id":55,"left_children":[1,-1,3,5,-1,7,9,-1,-1,-1,-1],"loss_changes":[1.8620464E1,0E0,3.8157465E0,2.5928168E0,0E0,2.1179819E-1,1.7738608E0,0E0,0E0,0E0,0E0],"parents":[2147483647,0,0,2,2,3,3,5,5,6,6],"right_children":[2,-1,4,6,-1,8,10,-1,-1,-1,-1],"split_conditions":[2.637933E0,3.976267E-2,1E2,4.042719E0,1.0484852E-2,4.0374615E1,5.9742374E1,-1.4859439E-2,-2.457177E-2,5.805086E-3,-1.3182648E-2],"split_indices":[18,0,26,19,0,26,26,0,0,0,0],"split_type":[0,0,0,0,0,0,0,0,0,0,0],"sum_hessian":[9.2E1,1.6E1,7.6E1,6.1E1,1.5E1,3E1,3.1E1,1.5E1,1.5E1,1.6E1,1.5E1],"tree_param":{"num_deleted":"0","num_feature":"27","num_nodes":"11","size_leaf_vector":"1"}},{"base_weights":[-1.9588687E-2,3.860917E-2,-1.9942114E-1,-4.691172E-1,1.2192615E-2,-2.0370746E-1,-2.773455E-2,9.413948E-3,-1.1296974E-1,-6.028936E-3,-1.6243514E-2,-1.4234231E-2,6.021857E-3],"categories":[],"categories_nodes":[],"categories_segments":[],"categories_sizes":[],"default_left":[0,0,0,0,0,0,0,0,0,0,0,0,0],"id":56,"left_children":[1,-1,3,5,7,9,-1,-1,11,-1,-1,-1,-1],"loss_changes":[1.5456498E1,0E0,4.2860746E0,1.6997313E0,1.2007718E0,1.15436375E-1,0E0,0E0,1.7684057E0,0E0,0E0,0E0,0E0],"parents":[2147483647,0,0,2,2,3,3,4,4,5,5,8,8],"right_children":[2,-1,4,6,8,10,-1,-1,12,-1,-1,-1,-1],"split_conditions":[2.7526374E0,3.860917E-2,8.88E1,8.6E1,3.0884373E0,2.1067544E3,-2.773455E-2,9.413948E-3,4.2335556E1,-6.028936E-3,-1.6243514E-2,-1.4234231E-2,6.021857E-3],"split_indices":[22,0,24,24,22,4,0,0,2,0,0,0,0],"split_type":[0,0,0,0,0,0,0,0,0,0,0,0,0],"sum_hessian":[8.7E1,1.3E1,7.4E1,3.2E1,4.2E1,1.5E1,1.7E1,1.5E1,2.7E1,1.3E1,2E0,1.4E1,1.3E1],"tree_param":{"num_deleted":"0","num_feature":"27","num_nodes":"13","size_leaf_vector":"1"}},{"base_weights":[8.641608E-3,8.0536866E-1,-1.7771849E-1,3.3996876E-2,7.1035144E-3,-2.787394E-1,9.184394E-3,-4.43492E-1,-4.8745614E-2,-1.960131E-2,-4.9840766E-3,5.561212E-3,-1.1895027E-2],"categories":[],"categories_nodes":[],"categories_segments":[],"categories_sizes":[],"default_left":[0,0,0,0,0,0,0,0,0,0,0,0,0],"id":57,"left_children":[1,3,5,-1,-1,7,-1,9,11,-1,-1,-1,-1],"loss_changes":[1.4100073E1,1.6119576E-1,3.1940572E0,0E0,0E0,2.3276901E0,0E0,3.623805E-1,1.2500126E0,0E0,0E0,0E0,0E0],"parents":[2147483647,0,0,1,1,2,2,5,5,7,7,8,8],"right_children":[2,4,6,-1,-1,8,-1,10,12,-1,-1,-1,-1],"split_conditions":[2.7568812E0,1.4512351E1,1E2,3.3996876E-2,7.1035144E-3,4.149789E0,9.184394E-3,7.597414E1,5.9742374E1,-1.960131E-2,-4.9840766E-3,5.561212E-3,-1.1895027E-2],"split_indices":[22,2,26,0,0,19,0,26,26,0,0,0,0],"split_type":[0,0,0,0,0,0,0,0,0,0,0,0,0],"sum_hessian":[9.3E1,1.7E1,7.6E1,1.6E1,1E0,6.1E1,1.5E1,3.5E1,2.6E1,3.1E1,4E0,1.5E1,1.1E1],"tree_param":{"num_deleted":"0","num_feature":"27","num_nodes":"13","size_leaf_vector":"1"}},{"base_weights":[1.6812649E-2,3.583055E-2,-1.645374E-1,-4.085104E-1,3.4560743E-3,-1.8827057E-1,-2.5770046E-2,-1.02286756E-1,9.346373E-3,-5.620348E-3,-1.5477286E-2,-1.3039079E-2,5.4976665E-3],"categories":[],"categories_nodes":[],"categories_segments":[],"categories_sizes":[],"default_left":[0,0,0,0,0,0,0,0,0,0,0,0,0],"id":58,"left_children":[1,-1,3,5,7,9,-1,11,-1,-1,-1,-1,-1],"loss_changes":[1.4342756E1,0E0,3.116338E0,1.3994474E0,1.1195658E0,1.1209923E-1,0E0,1.6872656E0,0E0,0E0,0E0,0E0,0E0],"parents":[2147483647,0,0,2,2,3,3,4,4,5,5,7,7],"right_children":[2,-1,4,6,8,10,-1,12,-1,-1,-1,-1,-1],"split_conditions":[2.7790158E0,3.583055E-2,8.88E1,8.6E1,1E2,2.212766E3,-2.5770046E-2,4.2335556E1,9.346373E-3,-5.620348E-3,-1.5477286E-2,-1.3039079E-2,5.4976665E-3],"split_indices":[19,0,24,24,24,4,0,2,0,0,0,0,0],"split_type":[0,0,0,0,0,0,0,0,0,0,0,0,0],"sum_hessian":[9E1,1.5E1,7.5E1,3E1,4.5E1,1.6E1,1.4E1,3.1E1,1.4E1,1.4E1,2E0,1.6E1,1.5E1],"tree_param":{"num_deleted":"0","num_feature":"27","num_nodes":"13","size_leaf_vector":"1"}},{"base_weights":[4.492813E-2,3.4191176E-2,-1.4326866E-1,-4.1047713E-1,2.1154562E-2,-1.8746592E-1,-2.4758728E-2,8.972855E-3,-8.4965825E-2,-5.361208E-3,-1.5055841E-2,-1.249531E-2,5.2272906E-3],"categories":[],"categories_nodes":[],"categories_segments":[],"categories_sizes":[],"default_left":[0,0,0,0,0,0,0,0,0,0,0,0,0],"id":59,"left_children":[1,-1,3,5,7,9,-1,-1,11,-1,-1,-1,-1],"loss_changes":[1.3983716E1,0E0,3.3477645E0,1.1516795E0,1.0298384E0,1.0435361E-1,0E0,0E0,1.5445825E0,0E0,0E0,0E0,0E0],"parents":[2147483647,0,0,2,2,3,3,4,4,5,5,8,8],"right_children":[2,-1,4,6,8,10,-1,-1,12,-1,-1,-1,-1],"split_conditions":[2.637933E0,3.4191176E-2,8.88E1,8.6E1,3.4301877E0,5.5319154E-1,-2.4758728E-2,8.972855E-3,1.6988437E-1,-5.361208E-3,-1.5055841E-2,-1.249531E-2,5.2272906E-3],"split_indices":[18,0,24,24,22,13,0,0,13,0,0,0,0],"split_type":[0,0,0,0,0,0,0,0,0,0,0,0,0],"sum_hessian":[9.2E1,1.7E1,7.5E1,2.8E1,4.7E1,1.4E1,1.4E1,1.6E1,3.1E1,1.2E1,2E0,1.5E1,1.6E1],"tree_param":{"num_deleted":"0","num_feature":"27","num_nodes":"13","size_leaf_vector":"1"}},{"base_weights":[2.743682E-2,3.300245E-2,-1.4523825E-1,-8.719093E-2,-2.3451887E-2,8.710289E-2,-1.6010888E-1,-1.0582425E-2,6.502593E-3,-1.1018468E-2,3.3852619E-3],"categories":[],"categories_nodes":[],"categories_segments":[],"categories_sizes":[],"default_left":[0,0,0,0,0,0,0,0,0,0,0],"id":60,"left_children":[1,-1,3,5,-1,7,9,-1,-1,-1,-1],"loss_changes":[1.2651264E1,0E0,1.8669353E0,8.9087707E-1,0E0,5.6529796E-1,1.3277102E0,0E0,0E0,0E0,0E0],"parents":[2147483647,0,0,2,2,3,3,5,5,6,6],"right_children":[2,-1,4,6,-1,8,10,-1,-1,-1,-1],"split_conditions":[2.637933E0,3.300245E-2,1.1207113E2,3.4301877E0,-2.3451887E-2,2.7790158E0,8.058429E0,-1.0582425E-2,6.502593E-3,-1.1018468E-2,3.3852619E-3],"split_indices":[18,0,3,22,0,20,22,0,0,0,0],"split_type":[0,0,0,0,0,0,0,0,0,0,0],"sum_hessian":[9.2E1,1.6E1,7.6E1,6.8E1,8E0,2E1,4.8E1,3E0,1.7E1,3.3E1,1.5E1],"tree_param":{"num_deleted":"0","num_feature":"27","num_nodes":"11","size_leaf_vector":"1"}},{"base_weights":[2.8556222E-2,3.166984E-2,-1.3885777E-1,-3.6761716E-1,1.011329E-2,-1.4908269E-1,-2.2446502E-2,-9.0575635E-2,8.613104E-3,-4.76411E-3,-1.2323848E-2,-1.1633824E-2,4.9613286E-3],"categories":[],"categories_nodes":[],"categories_segments":[],"categories_sizes":[],"default_left":[0,0,0,0,0,0,0,0,0,0,0,0,0],"id":61,"left_children":[1,-1,3,5,7,9,-1,11,-1,-1,-1,-1,-1],"loss_changes":[1.1609309E1,0E0,2.5936856E0,1.1106191E0,9.691039E-1,3.910348E-2,0E0,1.3524948E0,0E0,0E0,0E0,0E0,0E0],"parents":[2147483647,0,0,2,2,3,3,4,4,5,5,7,7],"right_children":[2,-1,4,6,8,10,-1,12,-1,-1,-1,-1,-1],"split_conditions":[2.637933E0,3.166984E-2,8.88E1,8.6E1,1E2,7.512403E1,-2.2446502E-2,4.2335556E1,8.613104E-3,-4.76411E-3,-1.2323848E-2,-1.1633824E-2,4.9613286E-3],"split_indices":[18,0,24,24,24,2,0,2,0,0,0,0,0],"split_type":[0,0,0,0,0,0,0,0,0,0,0,0,0],"sum_hessian":[9.1E1,1.6E1,7.5E1,2.9E1,4.6E1,1.4E1,1.5E1,3.1E1,1.5E1,1.3E1,1E0,1.6E1,1.5E1],"tree_param":{"num_deleted":"0","num_feature":"27","num_nodes":"13","size_leaf_vector":"1"}},{"base_weights":[3.0723143E-2,3.0377254E-2,-1.4794064E-1,-9.1433465E-2,-2.1785358E-2,2.9926395E-2,-1.4333932E-1,-1.1941975E-2,5.259897E-3,-1.278708E-2,-1.9628424E-3],"categories":[],"categories_nodes":[],"categories_segments":[],"categories_sizes":[],"default_left":[0,0,0,0,0,0,0,0,0,0,0],"id":62,"left_children":[1,-1,3,5,-1,7,9,-1,-1,-1,-1],"loss_changes":[1.1446664E1,0E0,1.5192049E0,4.0744412E-1,0E0,6.747435E-1,7.126293E-1,0E0,0E0,0E0,0E0],"parents":[2147483647,0,0,2,2,3,3,5,5,6,6],"right_children":[2,-1,4,6,-1,8,10,-1,-1,-1,-1],"split_conditions":[2.637933E0,3.0377254E-2,1.1207113E2,3.2695453E0,-2.1785358E-2,2.7790158E0,3.626972E0,-1.1941975E-2,5.259897E-3,-1.278708E-2,-1.9628424E-3],"split_indices":[18,0,3,19,0,20,20,0,0,0,0],"split_type":[0,0,0,0,0,0,0,0,0,0,0],"sum_hessian":[8.8E1,1.7E1,7.1E1,6.3E1,8E0,1.9E1,4.4E1,4E0,1.5E1,1.5E1,2.9E1],"tree_param":{"num_deleted":"0","num_feature":"27","num_nodes":"11","size_leaf_vector":"1"}},{"base_weights":[8.024884E-3,2.944137E-2,-1.3114323E-1,-2.1910644E-1,7.915769E-3,7.9769135E-2,-2.8828147E-1,1.1449923E-2,1.6215958E-3,-1.34713175E-2,7.197241E-3],"categories":[],"categories_nodes":[],"categories_segments":[],"categories_sizes":[],"default_left":[0,0,0,0,0,0,0,0,0,0,0],"id":63,"left_children":[1,-1,3,5,-1,7,9,-1,-1,-1,-1],"loss_changes":[9.71595E0,0E0,2.38618E0,1.366853E0,0E0,9.333615E-2,1.0800362E0,0E0,0E0,0E0,0E0],"parents":[2147483647,0,0,2,2,3,3,5,5,6,6],"right_children":[2,-1,4,6,-1,8,10,-1,-1,-1,-1],"split_conditions":[2.637933E0,2.944137E-2,1E2,9.98E1,7.915769E-3,2.8616457E1,4.353028E0,1.1449923E-2,1.6215958E-3,-1.34713175E-2,7.197241E-3],"split_indices":[18,0,26,25,0,3,19,0,0,0,0],"split_type":[0,0,0,0,0,0,0,0,0,0,0],"sum_hessian":[9.6E1,1.5E1,8.1E1,6.4E1,1.7E1,1.2E1,5.2E1,1E0,1.1E1,4.8E1,4E0],"tree_param":{"num_deleted":"0","num_feature":"27","num_nodes":"11","size_leaf_vector":"1"}},{"base_weights":[4.534132E-4,2.8556757E-2,-1.2825125E-1,-2.1556515E-1,7.65729E-3,-3.4776786E-1,-5.205604E-2,-1.012508E-2,-1.790815E-2,2.651783E-4,-2.2144318E-2],"categories":[],"categories_nodes":[],"categories_segments":[],"categories_sizes":[],"default_left":[0,0,0,0,0,0,0,0,0,0,0],"id":64,"left_children":[1,-1,3,5,-1,7,9,-1,-1,-1,-1],"loss_changes":[8.092499E0,0E0,2.1354218E0,1.278877E0,0E0,1.9014025E-1,8.069007E-1,0E0,0E0,0E0,0E0],"parents":[2147483647,0,0,2,2,3,3,5,5,6,6],"right_children":[2,-1,4,6,-1,8,10,-1,-1,-1,-1],"split_conditions":[2.637933E0,2.8556757E-2,1E2,4.042719E0,7.65729E-3,5.608468E1,1.1207113E2,-1.012508E-2,-1.790815E-2,2.651783E-4,-2.2144318E-2],"split_indices":[18,0,24,19,0,3,3,0,0,0,0],"split_type":[0,0,0,0,0,0,0,0,0,0,0],"sum_hessian":[8.8E1,1.3E1,7.5E1,5.9E1,1.6E1,3.2E1,2.7E1,1.7E1,1.5E1,2.5E1,2E0],"tree_param":{"num_deleted":"0","num_feature":"27","num_nodes":"11","size_leaf_vector":"1"}},{"base_weights":[1.387382E-3,6.4483136E-1,-1.416173E-1,2.711863E-2,6.5504257E-3,-3.3562896E-1,5.872605E-3,-1.4275043E-1,-2.0826656E-2,-9.79457E-3,1.5307006E-1,-3.954371E-3,-1.38961645E-2,8.383934E-3,2.8204538E-3],"categories":[],"categories_nodes":[],"categories_segments":[],"categories_sizes":[],"default_left":[0,0,0,0,0,0,0,0,0,0,0,0,0,0,0],"id":65,"left_children":[1,3,5,-1,-1,7,9,11,-1,-1,13,-1,-1,-1,-1],"loss_changes":[9.108837E0,5.979204E-2,2.3197663E0,0E0,0E0,1.1034169E0,1.7362164E0,1.3034678E-1,0E0,0E0,1.17352664E-1,0E0,0E0,0E0,0E0],"parents":[2147483647,0,0,1,1,2,2,5,5,6,6,7,7,10,10],"right_children":[2,4,6,-1,-1,8,10,12,-1,-1,14,-1,-1,-1,-1],"split_conditions":[2.7568812E0,1.4512351E1,8.88E1,2.711863E-2,6.5504257E-3,8.6E1,4.0374615E1,2.212766E3,-2.0826656E-2,-9.79457E-3,3.7290194E0,-3.954371E-3,-1.38961645E-2,8.383934E-3,2.8204538E-3],"split_indices":[22,2,24,0,0,24,26,4,0,0,6,0,0,0,0],"split_type":[0,0,0,0,0,0,0,0,0,0,0,0,0,0,0],"sum_hessian":[9.7E1,1.7E1,8E1,1.6E1,1E0,3.4E1,4.6E1,1.7E1,1.7E1,1.7E1,2.9E1,1.5E1,2E0,1.7E1,1.2E1],"tree_param":{"num_deleted":"0","num_feature":"27","num_nodes":"15","size_leaf_vector":"1"}},{"base_weights":[1.6414013E-2,2.5921691E-2,-1.1784687E-1,-3.1985468E-1,2.1875381E-2,-1.2068243E-1,-2.002321E-2,-6.0272217E-2,1.7126401E-1,-3.802883E-3,-1.1478515E-2,-9.291006E-3,4.5118676E-3,8.263684E-3,4.809605E-3],"categories":[],"categories_nodes":[],"categories_segments":[],"categories_sizes":[],"default_left":[0,0,0,0,0,0,0,0,0,0,0,0,0,0,0],"id":66,"left_children":[1,-1,3,5,7,9,-1,11,13,-1,-1,-1,-1,-1,-1],"loss_changes":[8.374523E0,0E0,2.3496706E0,1.0943434E0,6.2391835E-1,4.9017623E-2,0E0,9.670358E-1,6.082654E-3,0E0,0E0,0E0,0E0,0E0,0E0],"parents":[2147483647,0,0,2,2,3,3,4,4,5,5,7,7,8,8],"right_children":[2,-1,4,6,8,10,-1,12,14,-1,-1,-1,-1,-1,-1],"split_conditions":[8.38E1,2.5921691E-2,8.88E1,8.6E1,1E2,7.512403E1,-2.002321E-2,3.8415592E1,3.0484414E0,-3.802883E-3,-1.1478515E-2,-9.291006E-3,4.5118676E-3,8.263684E-3,4.809605E-3],"split_indices":[24,0,24,24,24,2,0,2,16,0,0,0,0,0,0],"split_type":[0,0,0,0,0,0,0,0,0,0,0,0,0,0,0],"sum_hessian":[9.9E1,1.7E1,8.2E1,3.3E1,4.9E1,1.6E1,1.7E1,3.2E1,1.7E1,1.5E1,1E0,1.6E1,1.6E1,9E0,8E0],"tree_param":{"num_deleted":"0","num_feature":"27","num_nodes":"15","size_leaf_vector":"1"}},{"base_weights":[9.848614E-3,2.4921708E-2,-1.2704518E-1,-1.9719121E-1,1.6147923E-1,-5.757103E-2,-3.112316E-1,8.362215E-3,5.03305E-3,-9.0042725E-3,4.0321746E-3,-1.9250743E-2,-5.469154E-3],"categories":[],"categories_nodes":[],"categories_segments":[],"categories_sizes":[],"default_left":[0,0,0,0,0,0,0,0,0,0,0,0,0],"id":67,"left_children":[1,-1,3,5,7,9,11,-1,-1,-1,-1,-1,-1],"loss_changes":[7.966071E0,0E0,1.6307106E0,1.001112E0,1.2470782E-3,7.853497E-1,9.303119E-1,0E0,0E0,0E0,0E0,0E0,0E0],"parents":[2147483647,0,0,2,2,3,3,4,4,5,5,6,6],"right_children":[2,-1,4,6,8,10,12,-1,-1,-1,-1,-1,-1],"split_conditions":[2.637933E0,2.4921708E-2,1E2,5.9742374E1,3.0582888E0,4.2335556E1,7.597414E1,8.362215E-3,5.03305E-3,-9.0042725E-3,4.0321746E-3,-1.9250743E-2,-5.469154E-3],"split_indices":[18,0,26,26,18,2,26,0,0,0,0,0,0],"split_type":[0,0,0,0,0,0,0,0,0,0,0,0,0],"sum_hessian":[9.5E1,1.7E1,7.8E1,6.3E1,1.5E1,2.9E1,3.4E1,5E0,1E1,1.4E1,1.5E1,1.7E1,1.7E1],"tree_param":{"num_deleted":"0","num_feature":"27","num_nodes":"13","size_leaf_vector":"1"}},{"base_weights":[8.151602E-3,2.4302727E-2,-1.107988E-1,-1.691395E-1,1.4939754E-1,-2.8384918E-1,-2.5849914E-2,4.3959096E-3,2.1143493E-1,-1.3192324E-2,-3.0907425E-3,4.040764E-3,-8.031617E-3,9.655677E-3,2.2802146E-3],"categories":[],"categories_nodes":[],"categories_segments":[],"categories_sizes":[],"default_left":[0,0,0,0,0,0,0,0,0,0,0,0,0,0,0],"id":68,"left_children":[1,-1,3,5,7,9,11,-1,13,-1,-1,-1,-1,-1,-1],"loss_changes":[6.6272206E0,0E0,1.2244921E0,1.061048E0,1.6125202E-2,2.6871276E-1,6.5868706E-1,0E0,6.215334E-3,0E0,0E0,0E0,0E0,0E0,0E0],"parents":[2147483647,0,0,2,2,3,3,4,4,5,5,6,6,8,8],"right_children":[2,-1,4,6,8,10,12,-1,14,-1,-1,-1,-1,-1,-1],"split_conditions":[2.637933E0,2.4302727E-2,1E2,1.7612916E3,3.024662E0,7.597414E1,5.9742374E1,4.3959096E-3,3.0152068E0,-1.3192324E-2,-3.0907425E-3,4.040764E-3,-8.031617E-3,9.655677E-3,2.2802146E-3],"split_indices":[18,0,26,4,22,26,26,0,15,0,0,0,0,0,0],"split_type":[0,0,0,0,0,0,0,0,0,0,0,0,0,0,0],"sum_hessian":[9.3E1,1.5E1,7.8E1,6.4E1,1.4E1,3.5E1,2.9E1,1E1,4E0,2.9E1,6E0,1.7E1,1.2E1,3E0,1E0],"tree_param":{"num_deleted":"0","num_feature":"27","num_nodes":"15","size_leaf_vector":"1"}},{"base_weights":[1.010058E-2,2.2544904E-2,-1.0965441E-1,-3.0271366E-1,1.3292074E-2,-1.304039E-1,-1.819088E-2,-8.211135E-3,1.2672913E-1,-3.1595693E-3,-1.2942017E-2,7.2397473E-3,2.0068367E-3],"categories":[],"categories_nodes":[],"categories_segments":[],"categories_sizes":[],"default_left":[0,0,0,0,0,0,0,0,0,0,0,0,0],"id":69,"left_children":[1,-1,3,5,7,9,-1,-1,11,-1,-1,-1,-1],"loss_changes":[6.0949483E0,0E0,1.8316922E0,6.7917514E-1,1.1923908E0,1.2385693E-1,0E0,0E0,1.1671412E-1,0E0,0E0,0E0,0E0],"parents":[2147483647,0,0,2,2,3,3,4,4,5,5,8,8],"right_children":[2,-1,4,6,8,10,-1,-1,12,-1,-1,-1,-1],"split_conditions":[2.7790158E0,2.2544904E-2,8.88E1,8.6E1,4.0374615E1,7.2787766E1,-1.819088E-2,-8.211135E-3,4.0638252E1,-3.1595693E-3,-1.2942017E-2,7.2397473E-3,2.0068367E-3],"split_indices":[19,0,24,24,26,2,0,0,0,0,0,0,0],"split_type":[0,0,0,0,0,0,0,0,0,0,0,0,0],"sum_hessian":[9.2E1,1.6E1,7.6E1,2.9E1,4.7E1,1.4E1,1.5E1,1.6E1,3.1E1,1.2E1,2E0,1.8E1,1.3E1],"tree_param":{"num_deleted":"0","num_feature":"27","num_nodes":"13","size_leaf_vector":"1"}},{"base_weights":[-1.6724904E-3,5.438151E-1,-1.0931251E-1,1.7891897E-2,3.353638E-2,-2.7305123E-1,3.40951E-3,-1.03298426E-1,-1.7390424E-2,-7.895459E-3,1.14759065E-1,-3.0736006E-3,-1.0704005E-2,8.042712E-3,3.1020385E-3],"categories":[],"categories_nodes":[],"categories_segments":[],"categories_sizes":[],"default_left":[0,0,0,0,0,0,0,0,0,0,0,0,0,0,0],"id":70,"left_children":[1,3,5,-1,-1,7,9,11,-1,-1,13,-1,-1,-1,-1],"loss_changes":[5.343912E0,8.0295086E-2,1.4036598E0,0E0,0E0,7.5951314E-1,1.0296936E0,5.1536098E-2,0E0,0E0,8.069694E-2,0E0,0E0,0E0,0E0],"parents":[2147483647,0,0,1,1,2,2,5,5,6,6,7,7,10,10],"right_children":[2,4,6,-1,-1,8,10,12,-1,-1,14,-1,-1,-1,-1],"split_conditions":[2.7568812E0,4.3588433E0,8.88E1,1.7891897E-2,3.353638E-2,8.6E1,4.0374615E1,2.212766E3,-1.7390424E-2,-7.895459E-3,4.0265512E0,-3.0736006E-3,-1.0704005E-2,8.042712E-3,3.1020385E-3],"split_indices":[22,9,24,0,0,24,26,4,0,0,9,0,0,0,0],"split_type":[0,0,0,0,0,0,0,0,0,0,0,0,0,0,0],"sum_hessian":[8.9E1,1.4E1,7.5E1,1.2E1,2E0,3E1,4.5E1,1.5E1,1.5E1,1.6E1,2.9E1,1.4E1,1E0,8E0,2.1E1],"tree_param":{"num_deleted":"0","num_feature":"27","num_nodes":"15","size_leaf_vector":"1"}},{"base_weights":[1.4627782E-2,5.133207E-1,-1.02139756E-1,1.7472113E-2,3.262316E-2,-2.5516355E-1,9.640227E-4,-1.16991155E-1,-1.6124543E-2,-7.611947E-3,1.1332003E-1,-2.9563813E-3,-1.2298059E-2,6.6754404E-3,1.8130948E-3],"categories":[],"categories_nodes":[],"categories_segments":[],"categories_sizes":[],"default_left":[0,0,0,0,0,0,0,0,0,0,0,0,0,0,0],"id":71,"left_children":[1,3,5,-1,-1,7,9,11,-1,-1,13,-1,-1,-1,-1],"loss_changes":[5.526158E0,9.793663E-2,1.2151006E0,0E0,0E0,5.5170655E-1,1.0102701E0,1.17827475E-1,0E0,0E0,9.635857E-2,0E0,0E0,0E0,0E0],"parents":[2147483647,0,0,1,1,2,2,5,5,6,6,7,7,10,10],"right_children":[2,4,6,-1,-1,8,10,12,-1,-1,14,-1,-1,-1,-1],"split_conditions":[2.7568812E0,7.7166664E1,8.88E1,1.7472113E-2,3.262316E-2,8.6E1,4.0374615E1,2.212766E3,-1.6124543E-2,-7.611947E-3,4.0638252E1,-2.9563813E-3,-1.2298059E-2,6.6754404E-3,1.8130948E-3],"split_indices":[22,3,24,0,0,24,26,4,0,0,0,0,0,0,0],"split_type":[0,0,0,0,0,0,0,0,0,0,0,0,0,0,0],"sum_hessian":[9.3E1,1.7E1,7.6E1,1.5E1,2E0,3E1,4.6E1,1.6E1,1.4E1,1.7E1,2.9E1,1.4E1,2E0,1.6E1,1.3E1],"tree_param":{"num_deleted":"0","num_feature":"27","num_nodes":"15","size_leaf_vector":"1"}},{"base_weights":[9.181848E-3,5.139791E-1,-9.190002E-2,1.6901422E-2,3.1734772E-2,-1.5194638E-1,1.2190202E-1,-2.9593468E-2,-2.5425684E-1,1.6369705E-1,3.9397557E-3,-7.062659E-3,3.6229677E-3,-1.5871145E-2,-4.612198E-3,7.5225574E-3,1.6714976E-3],"categories":[],"categories_nodes":[],"categories_segments":[],"categories_sizes":[],"default_left":[0,0,0,0,0,0,0,0,0,0,0,0,0,0,0,0,0],"id":72,"left_children":[1,3,5,-1,-1,7,9,11,13,15,-1,-1,-1,-1,-1,-1,-1],"loss_changes":[4.5885353E0,7.376766E-2,9.813751E-1,0E0,0E0,7.3103654E-1,2.2955239E-3,4.899838E-1,5.6351614E-1,5.0266683E-3,0E0,0E0,0E0,0E0,0E0,0E0,0E0],"parents":[2147483647,0,0,1,1,2,2,5,5,6,6,7,7,8,8,9,9],"right_children":[2,4,6,-1,-1,8,10,12,14,16,-1,-1,-1,-1,-1,-1,-1],"split_conditions":[2.637933E0,7.7166664E1,1E2,1.6901422E-2,3.1734772E-2,5.9742374E1,2.9404056E0,3.8415592E1,7.597414E1,3.890067E2,3.9397557E-3,-7.062659E-3,3.6229677E-3,-1.5871145E-2,-4.612198E-3,7.5225574E-3,1.6714976E-3],"split_indices":[18,3,26,0,0,26,16,2,26,4,0,0,0,0,0,0,0],"split_type":[0,0,0,0,0,0,0,0,0,0,0,0,0,0,0,0,0],"sum_hessian":[8.8E1,1.4E1,7.4E1,1.2E1,2E0,5.8E1,1.6E1,2.7E1,3.1E1,4E0,1.2E1,1.2E1,1.5E1,1.5E1,1.6E1,3E0,1E0],"tree_param":{"num_deleted":"0","num_feature":"27","num_nodes":"17","size_leaf_vector":"1"}},{"base_weights":[3.1083534E-2,4.7501153E-1,-8.030746E-2,1.623809E-2,3.0870585E-2,-2.3122104E-1,1.2542565E-2,-1.0876891E-1,-1.52592445E-2,1.2490463E-1,-4.7541738E-2,-2.6678413E-3,-1.1837554E-2,3.7652957E-3,7.557251E-3,-7.053445E-3,3.610346E-3],"categories":[],"categories_nodes":[],"categories_segments":[],"categories_sizes":[],"default_left":[0,0,0,0,0,0,0,0,0,0,0,0,0,0,0,0,0],"id":73,"left_children":[1,3,5,-1,-1,7,9,11,-1,13,15,-1,-1,-1,-1,-1,-1],"loss_changes":[4.686407E0,1.1286831E-1,1.0678371E0,0E0,0E0,4.648453E-1,3.2999563E-1,1.1481099E-1,0E0,1.6385019E-2,5.5955875E-1,0E0,0E0,0E0,0E0,0E0,0E0],"parents":[2147483647,0,0,1,1,2,2,5,5,6,6,7,7,9,9,10,10],"right_children":[2,4,6,-1,-1,8,10,12,-1,14,16,-1,-1,-1,-1,-1,-1],"split_conditions":[2.7568812E0,7.7166664E1,8.88E1,1.623809E-2,3.0870585E-2,8.6E1,3.4301877E0,2.212766E3,-1.52592445E-2,3.0476122E0,6.795375E2,-2.6678413E-3,-1.1837554E-2,3.7652957E-3,7.557251E-3,-7.053445E-3,3.610346E-3],"split_indices":[22,3,24,0,0,24,22,4,0,22,4,0,0,0,0,0,0],"split_type":[0,0,0,0,0,0,0,0,0,0,0,0,0,0,0,0,0],"sum_hessian":[9.3E1,1.8E1,7.5E1,1.6E1,2E0,2.8E1,4.7E1,1.6E1,1.2E1,1.6E1,3.1E1,1.4E1,2E0,1.2E1,4E0,1.6E1,1.5E1],"tree_param":{"num_deleted":"0","num_feature":"27","num_nodes":"17","size_leaf_vector":"1"}},{"base_weights":[7.2822776E-3,4.7928405E-1,-8.963196E-2,1.5939474E-2,3.0029876E-2,-2.508744E-1,1.0917119E-2,-1.1047643E-1,-1.4983658E-2,-6.7822793E-3,1.0174514E-1,-2.549612E-3,-1.1515211E-2,5.9998613E-3,1.2251802E-3],"categories":[],"categories_nodes":[],"categories_segments":[],"categories_sizes":[],"default_left":[0,0,0,0,0,0,0,0,0,0,0,0,0,0,0],"id":74,"left_children":[1,3,5,-1,-1,7,9,11,-1,-1,13,-1,-1,-1,-1],"loss_changes":[4.2971225E0,7.777548E-2,1.2673355E0,0E0,0E0,4.4782197E-1,8.044466E-1,1.0598491E-1,0E0,0E0,1.0247326E-1,0E0,0E0,0E0,0E0],"parents":[2147483647,0,0,1,1,2,2,5,5,6,6,7,7,10,10],"right_children":[2,4,6,-1,-1,8,10,12,-1,-1,14,-1,-1,-1,-1],"split_conditions":[2.637933E0,7.7166664E1,8.88E1,1.5939474E-2,3.0029876E-2,8.6E1,4.0374615E1,2.212766E3,-1.4983658E-2,-6.7822793E-3,4.0638252E1,-2.549612E-3,-1.1515211E-2,5.9998613E-3,1.2251802E-3],"split_indices":[18,3,24,0,0,24,26,4,0,0,0,0,0,0,0],"split_type":[0,0,0,0,0,0,0,0,0,0,0,0,0,0,0],"sum_hessian":[9.2E1,1.5E1,7.7E1,1.3E1,2E0,2.9E1,4.8E1,1.4E1,1.5E1,1.6E1,3.2E1,1.2E1,2E0,1.9E1,1.3E1],"tree_param":{"num_deleted":"0","num_feature":"27","num_nodes":"15","size_leaf_vector":"1"}},{"base_weights":[1.2769293E-2,4.3429947E-1,-8.593606E-2,1.50249265E-2,3.194926E-2,-2.3940836E-1,1.1774461E-2,-1.0378011E-1,-1.4361915E-2,-6.521526E-3,1.02478266E-1,-2.3063745E-3,-1.1201595E-2,5.790095E-3,1.396161E-3],"categories":[],"categories_nodes":[],"categories_segments":[],"categories_sizes":[],"default_left":[0,0,0,0,0,0,0,0,0,0,0,0,0,0,0],"id":75,"left_children":[1,3,5,-1,-1,7,9,11,-1,-1,13,-1,-1,-1,-1],"loss_changes":[3.948407E0,1.285057E-1,1.1575E0,0E0,0E0,4.19989E-1,7.6272655E-1,1.05493605E-1,0E0,0E0,8.098215E-2,0E0,0E0,0E0,0E0],"parents":[2147483647,0,0,1,1,2,2,5,5,6,6,7,7,10,10],"right_children":[2,4,6,-1,-1,8,10,12,-1,-1,14,-1,-1,-1,-1],"split_conditions":[2.7568812E0,4.3588433E0,8.88E1,1.50249265E-2,3.194926E-2,8.6E1,4.0374615E1,2.0158602E3,-1.4361915E-2,-6.521526E-3,4.0638252E1,-2.3063745E-3,-1.1201595E-2,5.790095E-3,1.396161E-3],"split_indices":[22,9,24,0,0,24,26,4,0,0,0,0,0,0,0],"split_type":[0,0,0,0,0,0,0,0,0,0,0,0,0,0,0],"sum_hessian":[9.3E1,1.7E1,7.6E1,1.6E1,1E0,2.9E1,4.7E1,1.4E1,1.5E1,1.6E1,3.1E1,1.2E1,2E0,1.9E1,1.2E1],"tree_param":{"num_deleted":"0","num_feature":"27","num_nodes":"15","size_leaf_vector":"1"}},{"base_weights":[3.4437992E-3,4.2601094E-1,-1.022433E-1,3.5368595E-1,2.8342118E-2,-1.5146461E-1,1.08021036E-1,1.48248905E-2,4.202507E-3,-6.864618E-2,-2.2216427E-1,2.8691986E-3,1.6953202E-1,-6.227559E-3,1.034655E-3,-1.3634852E-2,-3.981121E-3,1.4104187E-3,7.951028E-3],"categories":[],"categories_nodes":[],"categories_segments":[],"categories_sizes":[],"default_left":[0,0,0,0,0,0,0,0,0,0,0,0,0,0,0,0,0,0,0],"id":76,"left_children":[1,3,5,7,-1,9,11,-1,-1,13,15,-1,17,-1,-1,-1,-1,-1,-1],"loss_changes":[4.2415867E0,1.22651815E-1,8.029225E-1,2.0787716E-3,0E0,3.477739E-1,2.294977E-2,0E0,0E0,2.4015033E-1,4.268552E-1,0E0,1.023446E-2,0E0,0E0,0E0,0E0,0E0,0E0],"parents":[2147483647,0,0,1,1,2,2,3,3,5,5,6,6,9,9,10,10,12,12],"right_children":[2,4,6,8,-1,10,12,-1,-1,14,16,-1,18,-1,-1,-1,-1,-1,-1],"split_conditions":[2.7568812E0,7.7166664E1,1E2,1.4512351E1,2.8342118E-2,5.9742374E1,3.0476122E0,1.48248905E-2,4.202507E-3,4.2335556E1,7.597414E1,2.8691986E-3,3.2186943E1,-6.227559E-3,1.034655E-3,-1.3634852E-2,-3.981121E-3,1.4104187E-3,7.951028E-3],"split_indices":[22,3,26,2,0,26,22,0,0,2,26,0,2,0,0,0,0,0,0],"split_type":[0,0,0,0,0,0,0,0,0,0,0,0,0,0,0,0,0,0,0],"sum_hessian":[9.3E1,1.8E1,7.5E1,1.6E1,2E0,6.1E1,1.4E1,1.5E1,1E0,2.9E1,3.2E1,1E1,4E0,1.5E1,1.4E1,1.6E1,1.6E1,1E0,3E0],"tree_param":{"num_deleted":"0","num_feature":"27","num_nodes":"19","size_leaf_vector":"1"}},{"base_weights":[7.6905335E-3,4.3079138E-1,-8.03264E-2,1.4674234E-2,3.071788E-2,-2.046651E-1,3.393295E-3,-7.347965E-2,-1.3196209E-2,-6.0314024E-3,8.611728E-2,-2.2910025E-3,-6.8292683E-3,4.6425634E-3,1.6030561E-3],"categories":[],"categories_nodes":[],"categories_segments":[],"categories_sizes":[],"default_left":[0,0,0,0,0,0,0,0,0,0,0,0,0,0,0],"id":77,"left_children":[1,3,5,-1,-1,7,9,11,-1,-1,13,-1,-1,-1,-1],"loss_changes":[3.4606876E0,9.757042E-2,8.022336E-1,0E0,0E0,4.577397E-1,5.999993E-1,1.6701333E-2,0E0,0E0,3.5554007E-2,0E0,0E0,0E0,0E0],"parents":[2147483647,0,0,1,1,2,2,5,5,6,6,7,7,10,10],"right_children":[2,4,6,-1,-1,8,10,12,-1,-1,14,-1,-1,-1,-1],"split_conditions":[2.637933E0,2.5240676E0,8.88E1,1.4674234E-2,3.071788E-2,8.6E1,4.0374615E1,7.2787766E1,-1.3196209E-2,-6.0314024E-3,4.0638252E1,-2.2910025E-3,-6.8292683E-3,4.6425634E-3,1.6030561E-3],"split_indices":[18,18,24,0,0,24,26,2,0,0,0,0,0,0,0],"split_type":[0,0,0,0,0,0,0,0,0,0,0,0,0,0,0],"sum_hessian":[9.1E1,1.5E1,7.6E1,1.4E1,1E0,3E1,4.6E1,1.5E1,1.5E1,1.6E1,3E1,1.4E1,1E0,1.8E1,1.2E1],"tree_param":{"num_deleted":"0","num_feature":"27","num_nodes":"15","size_leaf_vector":"1"}},{"base_weights":[1.0055065E-2,4.1177547E-1,-7.993575E-2,1.411002E-2,3.0090464E-2,-2.0914489E-1,1.3722653E-2,-9.340376E-2,-1.3032382E-2,-5.805628E-3,9.6385956E-2,-2.203597E-3,-1.0602201E-2,5.8748475E-3,1.3029908E-3],"categories":[],"categories_nodes":[],"categories_segments":[],"categories_sizes":[],"default_left":[0,0,0,0,0,0,0,0,0,0,0,0,0,0,0],"id":78,"left_children":[1,3,5,-1,-1,7,9,11,-1,-1,13,-1,-1,-1,-1],"loss_changes":[3.3588212E0,1.1195588E-1,9.225856E-1,0E0,0E0,3.7725067E-1,5.934427E-1,9.744692E-2,0E0,0E0,8.7185234E-2,0E0,0E0,0E0,0E0],"parents":[2147483647,0,0,1,1,2,2,5,5,6,6,7,7,10,10],"right_children":[2,4,6,-1,-1,8,10,12,-1,-1,14,-1,-1,-1,-1],"split_conditions":[2.637933E0,2.5240676E0,8.88E1,1.411002E-2,3.0090464E-2,8.6E1,4.0374615E1,7.2787766E1,-1.3032382E-2,-5.805628E-3,5.857967E1,-2.203597E-3,-1.0602201E-2,5.8748475E-3,1.3029908E-3],"split_indices":[18,18,24,0,0,24,26,2,0,0,1,0,0,0,0],"split_type":[0,0,0,0,0,0,0,0,0,0,0,0,0,0,0],"sum_hessian":[9.1E1,1.6E1,7.5E1,1.5E1,1E0,3.1E1,4.4E1,1.6E1,1.5E1,1.5E1,2.9E1,1.4E1,2E0,1.6E1,1.3E1],"tree_param":{"num_deleted":"0","num_feature":"27","num_nodes":"15","size_leaf_vector":"1"}},{"base_weights":[-1.3739335E-3,3.931446E-1,-8.026047E-2,1.27066905E-2,2.6350357E-2,-5.3346872E-2,-2.866514E-1,-7.7449076E-2,7.3618256E-2,-4.9790693E-3,-1.2920599E-2,8.233961E-4,-4.9868682E-3,5.1436247E-3,1.3374683E-5],"categories":[],"categories_nodes":[],"categories_segments":[],"categories_sizes":[],"default_left":[0,0,0,0,0,0,0,0,0,0,0,0,0,0,0],"id":79,"left_children":[1,3,5,-1,-1,7,9,11,13,-1,-1,-1,-1,-1,-1],"loss_changes":[2.988163E0,1.301601E-1,4.290858E-1,0E0,0E0,2.2603172E-1,5.424559E-3,2.6822075E-1,4.5959443E-2,0E0,0E0,0E0,0E0,0E0,0E0],"parents":[2147483647,0,0,1,1,2,2,5,5,6,6,7,7,8,8],"right_children":[2,4,6,-1,-1,8,10,12,14,-1,-1,-1,-1,-1,-1],"split_conditions":[2.7568812E0,7.7166664E1,1.1207113E2,1.27066905E-2,2.6350357E-2,4.057065E0,3.6389396E0,3.4301877E0,5.0968754E-1,-4.9790693E-3,-1.2920599E-2,8.233961E-4,-4.9868682E-3,5.1436247E-3,1.3374683E-5],"split_indices":[22,3,3,0,0,16,18,22,14,0,0,0,0,0,0],"split_type":[0,0,0,0,0,0,0,0,0,0,0,0,0,0,0],"sum_hessian":[9.4E1,1.5E1,7.9E1,1.3E1,2E0,7.1E1,8E0,6E1,1.1E1,2E0,6E0,1.9E1,4.1E1,6E0,5E0],"tree_param":{"num_deleted":"0","num_feature":"27","num_nodes":"15","size_leaf_vector":"1"}},{"base_weights":[1.723952E-2,3.8026175E-1,-6.675585E-2,1.3042071E-2,2.8937696E-2,-1.1481085E-1,9.980583E-2,-2.0745184E-2,-2.0517294E-1,7.3240824E-2,1.5422669E-1,-5.181409E-3,3.026586E-3,-1.1992764E-2,-3.7286016E-3,4.026948E-3,1.9691514E-3,1.029435E-3,7.3600356E-3],"categories":[],"categories_nodes":[],"categories_segments":[],"categories_sizes":[],"default_left":[0,0,0,0,0,0,0,0,0,0,0,0,0,0,0,0,0,0,0],"id":80,"left_children":[1,3,5,-1,-1,7,9,11,13,15,17,-1,-1,-1,-1,-1,-1,-1,-1],"loss_changes":[2.9221427E0,1.3399696E-1,6.357802E-1,0E0,0E0,5.1424176E-1,1.4726728E-2,3.2134122E-1,2.8539634E-1,4.129745E-3,1.220379E-2,0E0,0E0,0E0,0E0,0E0,0E0,0E0,0E0],"parents":[2147483647,0,0,1,1,2,2,5,5,6,6,7,7,8,8,9,9,10,10],"right_children":[2,4,6,-1,-1,8,10,12,14,16,18,-1,-1,-1,-1,-1,-1,-1,-1],"split_conditions":[2.637933E0,2.5240676E0,1E2,1.3042071E-2,2.8937696E-2,5.9742374E1,3.2186943E1,3.8415592E1,7.597414E1,3.1172526E0,2.8803627E0,-5.181409E-3,3.026586E-3,-1.1992764E-2,-3.7286016E-3,4.026948E-3,1.9691514E-3,1.029435E-3,7.3600356E-3],"split_indices":[18,18,26,0,0,26,2,2,26,18,15,0,0,0,0,0,0,0,0],"split_type":[0,0,0,0,0,0,0,0,0,0,0,0,0,0,0,0,0,0,0],"sum_hessian":[9.4E1,1.7E1,7.7E1,1.6E1,1E0,6E1,1.7E1,3E1,3E1,1.3E1,4E0,1.4E1,1.6E1,1.6E1,1.4E1,5E0,8E0,1E0,3E0],"tree_param":{"num_deleted":"0","num_feature":"27","num_nodes":"19","size_leaf_vector":"1"}},{"base_weights":[1.5981553E-2,3.6706078E-1,-6.6296466E-2,1.2540655E-2,2.8346665E-2,-1.0835057E-1,1.0080671E-1,-1.977984E-2,-1.8558607E-1,7.20733E-2,1.4960556E-1,-4.9838377E-3,3.1574215E-3,-1.1488681E-2,-3.2269128E-3,4.0269895E-3,1.8991724E-3,1.0083991E-3,7.134601E-3],"categories":[],"categories_nodes":[],"categories_segments":[],"categories_sizes":[],"default_left":[0,0,0,0,0,0,0,0,0,0,0,0,0,0,0,0,0,0,0],"id":81,"left_children":[1,3,5,-1,-1,7,9,11,13,15,17,-1,-1,-1,-1,-1,-1,-1,-1],"loss_changes":[2.7396286E0,1.4029598E-1,5.520303E-1,0E0,0E0,4.204589E-1,1.1651948E-2,3.0715874E-1,3.1429112E-1,3.5543256E-3,1.133918E-2,0E0,0E0,0E0,0E0,0E0,0E0,0E0,0E0],"parents":[2147483647,0,0,1,1,2,2,5,5,6,6,7,7,8,8,9,9,10,10],"right_children":[2,4,6,-1,-1,8,10,12,14,16,18,-1,-1,-1,-1,-1,-1,-1,-1],"split_conditions":[2.637933E0,2.5240676E0,1E2,1.2540655E-2,2.8346665E-2,5.9742374E1,3.2186943E1,3.8415592E1,7.597414E1,3.1172526E0,2.8803627E0,-4.9838377E-3,3.1574215E-3,-1.1488681E-2,-3.2269128E-3,4.0269895E-3,1.8991724E-3,1.0083991E-3,7.134601E-3],"split_indices":[18,18,26,0,0,26,2,2,26,18,15,0,0,0,0,0,0,0,0],"split_type":[0,0,0,0,0,0,0,0,0,0,0,0,0,0,0,0,0,0,0],"sum_hessian":[9.3E1,1.7E1,7.6E1,1.6E1,1E0,6.1E1,1.5E1,2.9E1,3.2E1,1.1E1,4E0,1.4E1,1.5E1,1.6E1,1.6E1,4E0,7E0,1E0,3E0],"tree_param":{"num_deleted":"0","num_feature":"27","num_nodes":"19","size_leaf_vector":"1"}},{"base_weights":[1.21396035E-2,3.4761727E-1,-6.962712E-2,2.8809044E-1,2.776771E-2,-1.8051627E-1,1.9157864E-2,1.2068592E-2,3.4777808E-3,-7.6597884E-2,-1.1184751E-2,-5.041528E-3,8.732921E-2,-1.548352E-3,-9.9883685E-3,5.229737E-3,1.1187028E-3],"categories":[],"categories_nodes":[],"categories_segments":[],"categories_sizes":[],"default_left":[0,0,0,0,0,0,0,0,0,0,0,0,0,0,0,0,0],"id":82,"left_children":[1,3,5,7,-1,9,11,-1,-1,13,-1,-1,15,-1,-1,-1,-1],"loss_changes":[2.5204163E0,1.6007376E-1,7.320099E-1,2.490282E-4,0E0,2.9897976E-1,4.1901436E-1,0E0,0E0,1.0119002E-1,0E0,0E0,6.724495E-2,0E0,0E0,0E0,0E0],"parents":[2147483647,0,0,1,1,2,2,3,3,5,5,6,6,9,9,12,12],"right_children":[2,4,6,8,-1,10,12,-1,-1,14,-1,-1,16,-1,-1,-1,-1],"split_conditions":[2.7568812E0,2.56846E0,8.88E1,1.4512351E1,2.776771E-2,8.6E1,4.0374615E1,1.2068592E-2,3.4777808E-3,7.7024503E0,-1.1184751E-2,-5.041528E-3,4.0638252E1,-1.548352E-3,-9.9883685E-3,5.229737E-3,1.1187028E-3],"split_indices":[22,23,24,2,0,24,26,0,0,10,0,0,0,0,0,0,0],"split_type":[0,0,0,0,0,0,0,0,0,0,0,0,0,0,0,0,0],"sum_hessian":[9E1,1.7E1,7.3E1,1.6E1,1E0,3.2E1,4.1E1,1.5E1,1E0,1.6E1,1.6E1,1.3E1,2.8E1,1.4E1,2E0,1.6E1,1.2E1],"tree_param":{"num_deleted":"0","num_feature":"27","num_nodes":"17","size_leaf_vector":"1"}},{"base_weights":[-2.9988186E-3,1.1328961E-2,-6.849515E-2,-4.5746665E-2,-2.5898242E-1,-7.589021E-2,3.915917E-2,-2.9246144E-3,-1.1254489E-2,-2.5165177E-4,-4.358854E-3,8.1855785E-3,-1.4691536E-4],"categories":[],"categories_nodes":[],"categories_segments":[],"categories_sizes":[],"default_left":[0,0,0,0,0,0,0,0,0,0,0,0,0],"id":83,"left_children":[1,-1,3,5,7,9,11,-1,-1,-1,-1,-1,-1],"loss_changes":[1.7449863E0,0E0,3.2181612E-1,1.821272E-1,5.0691366E-3,1.11092895E-1,1.3170058E-1,0E0,0E0,0E0,0E0,0E0,0E0],"parents":[2147483647,0,0,2,2,3,3,4,4,5,5,6,6],"right_children":[2,-1,4,6,8,10,12,-1,-1,-1,-1,-1,-1],"split_conditions":[2.7568812E0,1.1328961E-2,1.1207113E2,7.5881395E0,3.3415554E1,3.0884373E0,4.0638252E1,-2.9246144E-3,-1.1254489E-2,-2.5165177E-4,-4.358854E-3,8.1855785E-3,-1.4691536E-4],"split_indices":[22,0,3,22,0,22,0,0,0,0,0,0,0],"split_type":[0,0,0,0,0,0,0,0,0,0,0,0,0],"sum_hessian":[9.3E1,1.7E1,7.6E1,6.9E1,7E0,5.1E1,1.8E1,1E0,6E0,1.6E1,3.5E1,3E0,1.5E1],"tree_param":{"num_deleted":"0","num_feature":"27","num_nodes":"13","size_leaf_vector":"1"}},{"base_weights":[2.2427377E-3,3.3707657E-1,-6.056664E-2,1.0899539E-2,2.6969202E-2,-9.388505E-2,9.0072125E-2,-2.4577983E-2,-1.6244732E-1,5.7553377E-2,1.4359894E-1,-4.6716672E-3,2.5157735E-3,-1.0532557E-2,-2.8029871E-3,1.5875545E-3,2.9494525E-3,9.692879E-4,6.8474608E-3],"categories":[],"categories_nodes":[],"categories_segments":[],"categories_sizes":[],"default_left":[0,0,0,0,0,0,0,0,0,0,0,0,0,0,0,0,0,0,0],"id":84,"left_children":[1,3,5,-1,-1,7,9,11,13,15,17,-1,-1,-1,-1,-1,-1,-1,-1],"loss_changes":[1.9973018E0,1.6432309E-1,4.0997988E-1,0E0,0E0,3.096295E-1,1.7844774E-2,2.701E-1,2.7769887E-1,2.0585209E-4,1.0427527E-2,0E0,0E0,0E0,0E0,0E0,0E0,0E0,0E0],"parents":[2147483647,0,0,1,1,2,2,5,5,6,6,7,7,8,8,9,9,10,10],"right_children":[2,4,6,-1,-1,8,10,12,14,16,18,-1,-1,-1,-1,-1,-1,-1,-1],"split_conditions":[2.637933E0,3.4106066E0,1E2,1.0899539E-2,2.6969202E-2,5.9742374E1,3.0476122E0,6.795375E2,7.597414E1,3.1344943E0,3.5021565E0,-4.6716672E-3,2.5157735E-3,-1.0532557E-2,-2.8029871E-3,1.5875545E-3,2.9494525E-3,9.692879E-4,6.8474608E-3],"split_indices":[18,17,26,0,0,26,22,4,26,17,8,0,0,0,0,0,0,0,0],"split_type":[0,0,0,0,0,0,0,0,0,0,0,0,0,0,0,0,0,0,0],"sum_hessian":[9.3E1,1.4E1,7.9E1,1.3E1,1E0,6.5E1,1.4E1,3.3E1,3.2E1,1E1,4E0,1.6E1,1.7E1,1.5E1,1.7E1,6E0,4E0,1E0,3E0],"tree_param":{"num_deleted":"0","num_feature":"27","num_nodes":"19","size_leaf_vector":"1"}},{"base_weights":[-1.2871087E-2,1.0439264E-2,-5.7994496E-2,-1.5910666E-1,1.5412039E-2,-6.597243E-2,-2.4340163E-1,-4.5107906E-3,7.977249E-2,-1.2356745E-3,-9.578662E-3,-7.337537E-3,-1.228127E-2,6.643184E-3,2.26033E-3],"categories":[],"categories_nodes":[],"categories_segments":[],"categories_sizes":[],"default_left":[0,0,0,0,0,0,0,0,0,0,0,0,0,0,0],"id":85,"left_children":[1,-1,3,5,7,9,11,-1,13,-1,-1,-1,-1,-1,-1],"loss_changes":[1.1776483E0,0E0,6.1850256E-1,2.5871837E-1,4.0567103E-1,1.0126587E-1,1.1716604E-2,0E0,5.782087E-2,0E0,0E0,0E0,0E0,0E0,0E0],"parents":[2147483647,0,0,2,2,3,3,4,4,5,5,6,6,8,8],"right_children":[2,-1,4,6,8,10,12,-1,14,-1,-1,-1,-1,-1,-1],"split_conditions":[2.5094333E0,1.0439264E-2,8.88E1,8.6E1,4.0374615E1,2.212766E3,4.847456E-3,-4.5107906E-3,-1.5419179E0,-1.2356745E-3,-9.578662E-3,-7.337537E-3,-1.228127E-2,6.643184E-3,2.26033E-3],"split_indices":[18,0,24,24,26,4,14,0,14,0,0,0,0,0,0],"split_type":[0,0,0,0,0,0,0,0,0,0,0,0,0,0,0],"sum_hessian":[9.5E1,1.3E1,8.2E1,3.4E1,4.8E1,1.7E1,1.7E1,1.6E1,3.2E1,1.5E1,2E0,1E1,7E0,6E0,2.6E1],"tree_param":{"num_deleted":"0","num_feature":"27","num_nodes":"15","size_leaf_vector":"1"}},{"base_weights":[7.0616608E-3,3.00501E-1,-5.7815354E-2,9.308893E-3,2.3012554E-2,-9.496945E-2,7.89032E-2,-2.8492332E-2,-1.6271274E-1,5.0638344E-2,1.3661118E-1,-4.141876E-3,2.9608987E-3,-9.772834E-3,-2.8685187E-3,2.743394E-3,1.4636664E-3,9.0329745E-4,6.5236636E-3],"categories":[],"categories_nodes":[],"categories_segments":[],"categories_sizes":[],"default_left":[0,0,0,0,0,0,0,0,0,0,0,0,0,0,0,0,0,0,0],"id":86,"left_children":[1,3,5,-1,-1,7,9,11,13,15,17,-1,-1,-1,-1,-1,-1,-1,-1],"loss_changes":[1.7878581E0,1.960864E-1,3.986268E-1,0E0,0E0,2.7007002E-1,2.0811066E-2,2.4293156E-1,1.955638E-1,7.738136E-4,9.690359E-3,0E0,0E0,0E0,0E0,0E0,0E0,0E0,0E0],"parents":[2147483647,0,0,1,1,2,2,5,5,6,6,7,7,8,8,9,9,10,10],"right_children":[2,4,6,-1,-1,8,10,12,14,16,18,-1,-1,-1,-1,-1,-1,-1,-1],"split_conditions":[2.7568812E0,2.1525E1,1E2,9.308893E-3,2.3012554E-2,5.9742374E1,3.0476122E0,3.7290194E0,7.597414E1,3.1172526E0,3.2186943E1,-4.141876E-3,2.9608987E-3,-9.772834E-3,-2.8685187E-3,2.743394E-3,1.4636664E-3,9.0329745E-4,6.5236636E-3],"split_indices":[22,0,26,0,0,26,22,16,26,18,2,0,0,0,0,0,0,0,0],"split_type":[0,0,0,0,0,0,0,0,0,0,0,0,0,0,0,0,0,0,0],"sum_hessian":[9.2E1,1.6E1,7.6E1,1.4E1,2E0,6E1,1.6E1,3.1E1,2.9E1,1.2E1,4E0,1.8E1,1.3E1,1.5E1,1.4E1,4E0,8E0,1E0,3E0],"tree_param":{"num_deleted":"0","num_feature":"27","num_nodes":"19","size_leaf_vector":"1"}},{"base_weights":[5.429991E-3,2.964704E-1,-6.0611572E-2,9.620314E-3,2.597358E-2,-4.343079E-2,-2.509521E-1,-5.473446E-2,1.14463806E-1,-1.2985336E-2,-5.637214E-3,-8.045378E-3,-1.8314236E-3,6.8661203E-3,2.4114163E-3],"categories":[],"categories_nodes":[],"categories_segments":[],"categories_sizes":[],"default_left":[0,0,0,0,0,0,0,0,0,0,0,0,0,0,0],"id":87,"left_children":[1,3,5,-1,-1,7,9,11,13,-1,-1,-1,-1,-1,-1],"loss_changes":[1.7670592E0,2.0192707E-1,2.3436585E-1,0E0,0E0,1.3120028E-1,1.4952123E-3,8.409047E-2,4.939452E-3,0E0,0E0,0E0,0E0,0E0,0E0],"parents":[2147483647,0,0,1,1,2,2,5,5,6,6,7,7,8,8],"right_children":[2,4,6,-1,-1,8,10,12,14,-1,-1,-1,-1,-1,-1],"split_conditions":[2.637933E0,2.4923341E0,4.7659087E0,9.620314E-3,2.597358E-2,4.428868E0,4.8242946E0,2.7790158E0,4.0638252E1,-1.2985336E-2,-5.637214E-3,-8.045378E-3,-1.8314236E-3,6.8661203E-3,2.4114163E-3],"split_indices":[18,11,9,0,0,19,9,20,0,0,0,0,0,0,0],"split_type":[0,0,0,0,0,0,0,0,0,0,0,0,0,0,0],"sum_hessian":[9E1,1.6E1,7.4E1,1.5E1,1E0,6.9E1,5E0,6.5E1,4E0,2E0,3E0,3E0,6.2E1,1E0,3E0],"tree_param":{"num_deleted":"0","num_feature":"27","num_nodes":"15","size_leaf_vector":"1"}},{"base_weights":[1.5764216E-2,2.9153734E-1,-4.532549E-2,9.472528E-3,2.5443086E-2,-1.3816094E-1,2.0241033E-2,-5.1249743E-2,-2.1183261E-1,-1.4829943E-2,8.692598E-2,-1.140032E-3,-8.197226E-3,-6.5597184E-3,-1.0705985E-2,-4.071139E-3,2.4875442E-3,2.471823E-3,5.429944E-3],"categories":[],"categories_nodes":[],"categories_segments":[],"categories_sizes":[],"default_left":[0,0,0,0,0,0,0,0,0,0,0,0,0,0,0,0,0,0,0],"id":88,"left_children":[1,3,5,-1,-1,7,9,11,13,15,17,-1,-1,-1,-1,-1,-1,-1,-1],"loss_changes":[1.5799757E0,1.9148612E-1,4.7148764E-1,0E0,0E0,1.9403613E-1,1.088696E-1,5.020261E-2,1.6954541E-3,2.0522867E-1,1.1398062E-2,0E0,0E0,0E0,0E0,0E0,0E0,0E0,0E0],"parents":[2147483647,0,0,1,1,2,2,5,5,6,6,7,7,8,8,9,9,10,10],"right_children":[2,4,6,-1,-1,8,10,12,14,16,18,-1,-1,-1,-1,-1,-1,-1,-1],"split_conditions":[2.637933E0,2.5240676E0,8.88E1,9.472528E-3,2.5443086E-2,8.6E1,1E2,2.212766E3,4.847456E-3,6.795375E2,3.5021565E0,-1.140032E-3,-8.197226E-3,-6.5597184E-3,-1.0705985E-2,-4.071139E-3,2.4875442E-3,2.471823E-3,5.429944E-3],"split_indices":[18,18,24,0,0,24,24,4,14,4,8,0,0,0,0,0,0,0,0],"split_type":[0,0,0,0,0,0,0,0,0,0,0,0,0,0,0,0,0,0,0],"sum_hessian":[9.2E1,1.6E1,7.6E1,1.5E1,1E0,3.1E1,4.5E1,1.5E1,1.6E1,3E1,1.5E1,1.4E1,1E0,1E1,6E0,1.4E1,1.6E1,1.1E1,4E0],"tree_param":{"num_deleted":"0","num_feature":"27","num_nodes":"19","size_leaf_vector":"1"}},{"base_weights":[1.7976845E-2,2.816831E-1,-4.1246615E-2,8.755093E-3,2.1425772E-2,-1.2990496E-1,1.9398067E-2,-3.7048593E-2,-2.0419559E-1,-1.4804471E-2,8.4453106E-2,-8.471461E-4,-5.420096E-3,-9.07507E-3,-4.763932E-3,-3.7168988E-3,2.5452378E-3,2.333919E-3,6.2136175E-3],"categories":[],"categories_nodes":[],"categories_segments":[],"categories_sizes":[],"default_left":[0,0,0,0,0,0,0,0,0,0,0,0,0,0,0,0,0,0,0],"id":89,"left_children":[1,3,5,-1,-1,7,9,11,13,15,17,-1,-1,-1,-1,-1,-1,-1,-1],"loss_changes":[1.4484372E0,1.6561258E-1,4.1114587E-1,0E0,0E0,2.0628393E-1,1.0360247E-1,2.0646097E-2,8.4495544E-4,1.8780603E-1,2.088128E-2,0E0,0E0,0E0,0E0,0E0,0E0,0E0,0E0],"parents":[2147483647,0,0,1,1,2,2,5,5,6,6,7,7,8,8,9,9,10,10],"right_children":[2,4,6,-1,-1,8,10,12,14,16,18,-1,-1,-1,-1,-1,-1,-1,-1],"split_conditions":[2.7790158E0,7.7166664E1,8.88E1,8.755093E-3,2.1425772E-2,8.6E1,1E2,2.0158602E3,1.5811263E3,3.7290194E0,3.5021565E0,-8.471461E-4,-5.420096E-3,-9.07507E-3,-4.763932E-3,-3.7168988E-3,2.5452378E-3,2.333919E-3,6.2136175E-3],"split_indices":[19,3,24,0,0,24,24,4,4,16,8,0,0,0,0,0,0,0,0],"split_type":[0,0,0,0,0,0,0,0,0,0,0,0,0,0,0,0,0,0,0],"sum_hessian":[9.1E1,1.6E1,7.5E1,1.4E1,2E0,3E1,4.5E1,1.4E1,1.6E1,3E1,1.5E1,1.3E1,1E0,1.2E1,4E0,1.5E1,1.5E1,1.2E1,3E0],"tree_param":{"num_deleted":"0","num_feature":"27","num_nodes":"19","size_leaf_vector":"1"}},{"base_weights":[5.2824738E-3,2.6582316E-1,-5.6494035E-2,8.616298E-3,2.4485797E-2,-1.3934547E-1,3.6779616E-3,-5.76725E-2,-2.0801735E-1,7.638804E-2,-3.162298E-2,-8.0254773E-4,-8.81898E-3,-6.011156E-3,-1.1189533E-2,1.9148202E-3,5.148219E-3,-3.6961143E-3,1.519364E-3],"categories":[],"categories_nodes":[],"categories_segments":[],"categories_sizes":[],"default_left":[0,0,0,0,0,0,0,0,0,0,0,0,0,0,0,0,0,0,0],"id":90,"left_children":[1,3,5,-1,-1,7,9,11,13,15,17,-1,-1,-1,-1,-1,-1,-1,-1],"loss_changes":[1.5118798E0,2.031523E-1,3.7939805E-1,0E0,0E0,1.6747946E-1,1.17918655E-1,9.20237E-2,2.7882457E-2,1.6068608E-2,1.2894158E-1,0E0,0E0,0E0,0E0,0E0,0E0,0E0,0E0],"parents":[2147483647,0,0,1,1,2,2,5,5,6,6,7,7,8,8,9,9,10,10],"right_children":[2,4,6,-1,-1,8,10,12,14,16,18,-1,-1,-1,-1,-1,-1,-1,-1],"split_conditions":[2.7568812E0,3.4106066E0,8.88E1,8.616298E-3,2.4485797E-2,8.6E1,3.4301877E0,2.1067544E3,4.847456E-3,3.0476122E0,4.9084026E1,-8.0254773E-4,-8.81898E-3,-6.011156E-3,-1.1189533E-2,1.9148202E-3,5.148219E-3,-3.6961143E-3,1.519364E-3],"split_indices":[22,17,24,0,0,24,22,4,14,22,1,0,0,0,0,0,0,0,0],"split_type":[0,0,0,0,0,0,0,0,0,0,0,0,0,0,0,0,0,0,0],"sum_hessian":[9.2E1,1.7E1,7.5E1,1.6E1,1E0,3.1E1,4.4E1,1.5E1,1.6E1,1.4E1,3E1,1.3E1,2E0,1E1,6E0,1E1,4E0,1.6E1,1.4E1],"tree_param":{"num_deleted":"0","num_feature":"27","num_nodes":"19","size_leaf_vector":"1"}},{"base_weights":[1.5005469E-3,2.6039815E-1,-4.9658246E-2,8.14768E-3,2.3985688E-2,-1.2933044E-1,1.0728674E-2,-5.366887E-2,-1.97807E-1,-3.6662011E-3,6.548543E-2,-8.5775374E-4,-8.578806E-3,-5.787906E-3,-1.0221533E-2,7.436739E-3,1.8991362E-3],"categories":[],"categories_nodes":[],"categories_segments":[],"categories_sizes":[],"default_left":[0,0,0,0,0,0,0,0,0,0,0,0,0,0,0,0,0],"id":91,"left_children":[1,3,5,-1,-1,7,9,11,13,-1,15,-1,-1,-1,-1,-1,-1],"loss_changes":[1.2844403E0,2.014823E-1,3.910914E-1,0E0,0E0,1.707204E-1,2.6447386E-1,8.753346E-2,1.7496526E-2,0E0,6.017022E-2,0E0,0E0,0E0,0E0,0E0,0E0],"parents":[2147483647,0,0,1,1,2,2,5,5,6,6,7,7,8,8,10,10],"right_children":[2,4,6,-1,-1,8,10,12,14,-1,16,-1,-1,-1,-1,-1,-1],"split_conditions":[2.637933E0,2.4923341E0,8.88E1,8.14768E-3,2.3985688E-2,8.6E1,4.0374615E1,2.212766E3,4.847456E-3,-3.6662011E-3,-1.8190436E0,-8.5775374E-4,-8.578806E-3,-5.787906E-3,-1.0221533E-2,7.436739E-3,1.8991362E-3],"split_indices":[18,11,24,0,0,24,26,4,14,0,14,0,0,0,0,0,0],"split_type":[0,0,0,0,0,0,0,0,0,0,0,0,0,0,0,0,0],"sum_hessian":[9.5E1,1.5E1,8E1,1.4E1,1E0,3.4E1,4.6E1,1.7E1,1.7E1,1.6E1,3E1,1.5E1,2E0,1E1,7E0,3E0,2.7E1],"tree_param":{"num_deleted":"0","num_feature":"27","num_nodes":"17","size_leaf_vector":"1"}},{"base_weights":[7.328111E-3,2.4311568E-1,-4.8763037E-2,7.871776E-3,2.3495784E-2,-7.734621E-2,7.0403814E-2,-2.14124E-2,-1.3435882E-1,4.370721E-2,1.203949E-1,-3.2303247E-3,2.3245665E-3,-7.7862204E-3,-2.3647945E-3,2.4318756E-3,1.1580852E-3,5.807274E-3,6.800831E-4],"categories":[],"categories_nodes":[],"categories_segments":[],"categories_sizes":[],"default_left":[0,0,0,0,0,0,0,0,0,0,0,0,0,0,0,0,0,0,0],"id":92,"left_children":[1,3,5,-1,-1,7,9,11,13,15,17,-1,-1,-1,-1,-1,-1,-1,-1],"loss_changes":[1.3079634E0,2.0719361E-1,2.7793887E-1,0E0,0E0,2.0440367E-1,1.6091347E-2,1.580693E-1,1.2662065E-1,1.2287386E-3,8.927837E-3,0E0,0E0,0E0,0E0,0E0,0E0,0E0,0E0],"parents":[2147483647,0,0,1,1,2,2,5,5,6,6,7,7,8,8,9,9,10,10],"right_children":[2,4,6,-1,-1,8,10,12,14,16,18,-1,-1,-1,-1,-1,-1,-1,-1],"split_conditions":[2.7568812E0,2.56846E0,1E2,7.871776E-3,2.3495784E-2,5.9742374E1,3.0476122E0,4.0072217E0,7.597414E1,3.1172526E0,3.0152068E0,-3.2303247E-3,2.3245665E-3,-7.7862204E-3,-2.3647945E-3,2.4318756E-3,1.1580852E-3,5.807274E-3,6.800831E-4],"split_indices":[22,23,26,0,0,26,22,18,26,18,15,0,0,0,0,0,0,0,0],"split_type":[0,0,0,0,0,0,0,0,0,0,0,0,0,0,0,0,0,0,0],"sum_hessian":[9.7E1,1.8E1,7.9E1,1.7E1,1E0,6.4E1,1.5E1,3.3E1,3.1E1,1.1E1,4E0,1.9E1,1.4E1,1.7E1,1.4E1,4E0,7E0,3E0,1E0],"tree_param":{"num_deleted":"0","num_feature":"27","num_nodes":"19","size_leaf_vector":"1"}},{"base_weights":[3.981826E-3,2.3657338E-1,-4.742127E-2,7.39045E-3,2.3015931E-2,-3.4610175E-2,-2.2497901E-1,2.1068215E-2,-4.9373E-2,-1.1356638E-2,-3.959815E-3,1.8858406E-3,-7.259102E-3,-3.3573543E-3,-5.604202E-4],"categories":[],"categories_nodes":[],"categories_segments":[],"categories_sizes":[],"default_left":[0,0,0,0,0,0,0,0,0,0,0,0,0,0,0],"id":93,"left_children":[1,3,5,-1,-1,7,9,11,13,-1,-1,-1,-1,-1,-1],"loss_changes":[1.1231197E0,2.0728374E-1,1.6736606E-1,0E0,0E0,6.1044045E-2,7.006943E-3,8.803258E-2,6.673844E-2,0E0,0E0,0E0,0E0,0E0,0E0],"parents":[2147483647,0,0,1,1,2,2,5,5,6,6,7,7,8,8],"right_children":[2,4,6,-1,-1,8,10,12,14,-1,-1,-1,-1,-1,-1],"split_conditions":[2.7568812E0,2.4923341E0,4.7659087E0,7.39045E-3,2.3015931E-2,3.0937154E0,4.8242946E0,3.291989E1,6.2200923E0,-1.1356638E-2,-3.959815E-3,1.8858406E-3,-7.259102E-3,-3.3573543E-3,-5.604202E-4],"split_indices":[22,11,9,0,0,16,9,0,23,0,0,0,0,0,0],"split_type":[0,0,0,0,0,0,0,0,0,0,0,0,0,0,0],"sum_hessian":[9.2E1,1.6E1,7.6E1,1.5E1,1E0,7.2E1,4E0,1.5E1,5.7E1,2E0,2E0,1.4E1,1E0,2.9E1,2.8E1],"tree_param":{"num_deleted":"0","num_feature":"27","num_nodes":"15","size_leaf_vector":"1"}},{"base_weights":[1.1673255E-2,2.2618946E-1,-4.1410916E-2,7.2475104E-3,2.2545896E-2,-1.15208484E-1,1.3627539E-2,-4.9366333E-2,-1.7427365E-1,-3.250666E-3,5.828845E-2,-6.398811E-4,-8.227429E-3,-4.623669E-3,-9.347598E-3,4.062396E-3,3.165774E-4],"categories":[],"categories_nodes":[],"categories_segments":[],"categories_sizes":[],"default_left":[0,0,0,0,0,0,0,0,0,0,0,0,0,0,0,0,0],"id":94,"left_children":[1,3,5,-1,-1,7,9,11,13,-1,15,-1,-1,-1,-1,-1,-1],"loss_changes":[1.0911711E0,2.0387751E-1,3.1432116E-1,0E0,0E0,1.19733036E-1,1.9196199E-1,8.395809E-2,3.0757427E-2,0E0,6.372005E-2,0E0,0E0,0E0,0E0,0E0,0E0],"parents":[2147483647,0,0,1,1,2,2,5,5,6,6,7,7,8,8,10,10],"right_children":[2,4,6,-1,-1,8,10,12,14,-1,16,-1,-1,-1,-1,-1,-1],"split_conditions":[2.7568812E0,2.56846E0,8.88E1,7.2475104E-3,2.2545896E-2,8.6E1,4.0374615E1,2.1067544E3,4.847456E-3,-3.250666E-3,4.0638252E1,-6.398811E-4,-8.227429E-3,-4.623669E-3,-9.347598E-3,4.062396E-3,3.165774E-4],"split_indices":[22,23,24,0,0,24,26,4,14,0,0,0,0,0,0,0,0],"split_type":[0,0,0,0,0,0,0,0,0,0,0,0,0,0,0,0,0],"sum_hessian":[9.4E1,1.8E1,7.6E1,1.7E1,1E0,3.2E1,4.4E1,1.6E1,1.6E1,1.4E1,3E1,1.4E1,2E0,9E0,7E0,1.6E1,1.4E1],"tree_param":{"num_deleted":"0","num_feature":"27","num_nodes":"17","size_leaf_vector":"1"}},{"base_weights":[1.2799221E-2,2.2303346E-1,-3.4395266E-2,6.919119E-3,2.2085443E-2,8.959894E-3,-4.0703177E-2,6.225913E-2,-5.0558727E-2,4.8709812E-4,3.2681385E-3,-8.639759E-3,-1.635458E-3],"categories":[],"categories_nodes":[],"categories_segments":[],"categories_sizes":[],